-0.407543
-0.545467
-0.114108
-0.367873
-0.514206
-1.3649
-0.103045
-0.399711
-0.33977
-0.0179333
-0.110248
-0.0447653
-0.194506
-0.237975
-0.174118
3.64894
-0.562454
-0.155726
-0.411458
-0.121877
0.00936089
-0.234804
-0.379401
-0.498493
-0.907094
0.296442
-1.25612
0.218591
-0.3543
-2.42841
-0.101949
-0.544273
0.161946
-0.551672
0.0376771
-0.434966
0.407778
0.843381
-0.118164
0.189435
3.23267
-0.403316
-0.223159
-0.0474861
-0.140341
-0.157736
-0.508581
-0.187947
0.0536044
0.0341944
-0.16048
-0.11143
-0.493397
-0.157485
-0.459188
0.16433
-2.51987
-0.298542
-0.0217369
0.485125
-0.787711
-0.358975
-0.796911
0.120087
-0.275232
-0.535519
3.83853
0.428252
-0.621718
-0.298408
-0.459306
-0.263288
-0.369559
-0.728172
-0.345198
-0.217794
-0.457339
4.2617
-0.216689
-0.235546
-0.0721689
-0.140085
-0.284653
-0.164554
-0.987789
-0.55085
-0.210323
-0.941938
-0.110302
0.00378574
-0.102403
-0.225551
1.37052
0.0750456
-0.279249
0.980636
-0.637991
-0.304322
0.485372
-0.172058
-0.294988
-0.782254
-0.451146
-0.165455
-0.0510615
-0.0537637
-1.0561
-0.288089
-0.352748
-0.293278
-0.00885158
-0.389691
-0.110626
-0.000653772
-0.0836407
-0.165962
-0.164205
0.1439
-0.284357
1.59547
0.731252
-0.671985
-0.0546255
0.0521269
-0.119634
0.0644603
-0.106498
0.118432
-0.249872
0.372087
-2.93099
-0.397989
0.281953
-0.105639
-0.15499
0.0261679
-0.0358118
0.35255
-0.0667182
-0.20656
-0.0726433
-0.0917902
-0.197606
-0.252723
0.00417071
-0.164503
0.109754
-0.0654572
-0.578021
-0.0144912
-0.0393356
-0.27054
-0.0537098
-0.346239
-0.0930726
-0.0196532
-4.19044
-0.0810435
0.0612586
4.71401
-0.121498
-0.0844873
-0.12798
-0.848988
-0.0771484
0.870542
0.303969
0.602022
-3.00823
-0.856811
-0.250279
0.288985
-0.901626
0.0682316
0.536354
-0.53221
-0.191652
-0.066525
0.070934
-0.421706
3.5775
-0.665938
-0.145764
0.145065
3.68801
-1.02171
-0.0551016
-0.248782
-0.304367
-0.211713
-0.00690035
-0.217699
-0.366804
0.10653
0.311915
-0.12125
-0.0764124
-0.396685
-0.269437
-0.539077
-2.45379
-0.111174
-0.278438
-0.0755946
-0.028111
-0.0980026
-0.133427
-0.295016
-0.146816
0.104611
-0.251869
-2.6041
3.36952
0.0946691
-0.504284
-1.58954
0.092796
-0.424601
0.308819
-0.120548
0.0403699
-0.343469
2.70864
-0.570286
-0.335565
-0.658304
0.198058
-0.0417087
0.126522
-0.433562
-0.599966
-0.65739
3.03621
-0.795863
-0.699211
-0.051905
1.04759
0.670188
-1.00532
-0.128937
-0.43442
-0.668669
-0.114999
-0.394855
0.0355351
-0.914341
-0.085833
-0.312815
-0.490236
-0.953994
-0.506385
-0.231635
-0.0669671
-1.17271
-1.70967
-0.132802
0.0301621
-0.294009
-0.064362
-0.0114539
-0.0475507
-0.347896
0.0850105
-0.122491
-0.102412
0.0602546
-0.501719
-0.0819527
-0.256702
2.59999
-0.0924735
-0.268676
-0.0904741
-0.0734486
-0.10842
-0.259967
0.179437
0.0668982
-0.411595
0.971011
-1.37122
0.0612365
2.03745
-0.37441
0.126874
-0.175767
0.368273
-0.0837843
0.304714
-0.734243
-1.07265
-0.773513
-0.796208
1.24176
0.0486659
0.160521
0.0369865
0.0796492
-0.0198907
-0.0727018
0.0499342
-0.485882
-0.467077
-0.146564
0.105692
0.420673
0.0353145
-0.0380509
0.0613742
-0.235035
0.0694612
0.00271732
0.16108
1.26706
-0.189125
0.41175
-0.227439
0.224919
0.11229
0.224348
0.0555803
0.0398993
-0.440282
-0.246627
-0.506541
-0.452172
-0.31331
0.0953756
0.0175049
-1.40445
-0.109522
-0.035591
-0.487193
0.260028
0.44573
3.20433
-0.191922
-0.934306
-0.38093
-0.398984
-0.147851
0.329816
-0.0262526
-0.240411
-0.0836657
-0.52675
-0.3413
-0.207182
-0.235127
-0.564918
-1.26979
-0.245969
0.191193
0.0271775
0.020141
0.325971
-0.130541
0.392266
-1.72203
-0.321891
0.728711
0.0728888
-0.266796
-1.24776
-0.0141335
0.270963
0.232314
3.1008
-0.0549473
-0.34493
0.26804
-0.0716959
-0.417567
-0.397231
-0.220033
0.388068
-0.311074
0.0298423
-0.338718
-0.21244
-0.852973
2.5434
-0.144109
-0.188401
-0.573088
-0.0926714
-0.313041
-0.338748
-0.0727903
0.08279
-0.0838288
0.997488
0.249439
0.0518283
-3.73445
-0.380065
-0.247069
-0.222834
-0.277371
-0.247936
4.08129
0.038156
-0.207159
-0.0198388
-0.299429
-1.36422
-0.141158
-0.550205
0.0296571
-0.107429
-0.40426
-0.334314
-0.206821
-0.456789
-0.0882618
-0.319799
-0.346851
-0.119129
0.995166
0.96589
-0.0958957
0.0506938
1.20255
-0.0921474
0.164421
-0.411468
-0.0447977
-0.30918
0.105351
-3.612
0.0654861
0.0987371
0.158428
-0.354962
0.0174919
-0.288499
0.181984
-0.114958
0.0677845
2.17565
0.970553
0.959224
0.148776
-0.6427
0.810049
-1.05203
-0.0734959
-0.0954445
-0.677426
-0.170796
-0.313711
-1.65617
-0.694398
0.111708
0.225801
-0.429207
-0.875733
-0.34737
-0.136929
-0.0183293
-0.418936
1.54028
-0.436795
-0.126352
0.55098
-0.190819
0.505739
0.0781956
-0.649505
-0.10112
-0.129746
-0.254558
0.245297
-0.563696
0.559753
-0.333336
0.0604197
-0.462027
-0.449893
-0.386166
0.0334152
-0.213347
-0.0729642
-0.430661
-0.52744
-0.125634
-0.306273
-0.712491
-0.299996
-0.0767187
3.89844
-0.349741
0.0383915
-0.268306
0.0140185
-0.28482
-1.022
-0.251189
-0.678021
-0.365296
-0.140554
-0.32522
-0.112462
-0.0640474
-0.109607
-0.183458
-0.318589
0.901482
0.116801
0.64974
0.42187
0.792238
-0.301616
-0.0109236
0.32865
0.128379
0.140214
0.363802
0.0500445
-0.234782
-0.871826
-0.268512
0.113912
0.296639
-1.14985
-0.519144
0.737794
-0.946265
-0.00596861
3.63112
-1.33577
-0.123281
0.00420651
-0.207787
-0.0245048
-0.212786
-0.0615315
-0.246694
0.0201831
-0.0210202
-0.0763574
0.0436487
-0.279323
-0.281657
-0.240061
-2.59345
-0.0692717
-0.154195
-0.00401887
-0.129089
-0.115731
-0.366345
-1.76935
-1.14417
0.28672
4.01117
-0.222973
-0.0986671
-0.529599
-0.130179
-0.159473
0.439114
0.167942
0.0786345
-0.0788082
-0.219026
0.136337
-0.725957
-0.211792
0.0296137
-0.328979
0.0806118
0.0705173
-0.0271329
-0.12597
-0.0872126
-0.469589
-0.0434725
-0.150949
-0.504164
-0.178832
-0.021404
-0.133168
-0.168653
-0.255395
-2.24345
-0.0513564
-0.242672
3.43732
-0.18574
-0.634498
0.686403
-0.206653
-0.117872
-0.375015
0.137226
-0.47924
0.334583
-0.142933
0.14402
0.217193
-0.353031
-0.210275
0.329567
-0.144675
0.101465
-0.0963169
0.347041
-0.676158
-0.161547
-0.278548
0.153138
-0.125861
-0.427726
-0.773637
-0.049989
-2.15889
-0.0365741
0.0477621
1.41746
1.01497
0.390004
-0.103586
-0.656607
0.19699
-0.275851
0.165883
0.740626
-0.46244
-0.42946
-0.469207
-0.00750823
-0.0449538
-0.460282
0.029587
1.41024
-0.229224
-0.546901
0.117739
-0.298214
-0.510713
0.0964868
-0.181885
0.427016
-0.596901
-0.581358
0.634895
-0.678031
0.735194
-0.13178
-0.266787
-0.312596
0.202748
-0.0073509
-0.45462
0.118173
-0.546794
0.455057
1.15827
-0.414101
0.289606
0.0167629
-0.267183
0.184767
0.763865
-0.205056
-0.45948
0.0399477
-0.408219
-0.0448915
-0.123481
-0.452444
0.0157954
0.0132251
-0.27174
-0.224323
-0.188253
3.48338
0.0197806
-0.269497
-1.03565
-0.18426
-0.762561
-0.215614
-0.0999633
0.12348
-0.202339
0.0663528
-0.527344
-0.840485
-1.17812
-1.41925
-0.309709
-0.221595
-0.671853
-0.234168
-0.0829419
-0.198718
-0.401272
0.0363203
0.0641546
-0.107009
0.0972419
-0.664154
-0.0736519
-0.770708
3.56929
-0.0358618
-0.261468
-0.0327516
-0.226377
-0.0584826
-0.613301
-0.0452636
-0.0638891
-1.81706
-0.26161
0.433663
0.312475
1.15426
-2.76252
-0.98289
-0.152546
-0.105091
4.01563
0.0109502
0.689109
0.873554
-0.254145
0.221868
-0.22275
-0.251228
-1.3149
-0.345129
-0.106295
0.184989
0.245743
-0.324729
-0.0691379
-0.096283
-0.376617
-0.26769
0.0840403
0.0836846
-0.0401451
-0.37789
2.83072
-0.0538311
-0.0773628
-1.61357
-0.191366
-0.53257
0.00534482
-0.157093
-0.239571
-0.296009
0.304659
-0.592149
0.263365
-0.355487
-0.623183
-0.105717
-0.321729
-0.633649
-0.264783
-0.0665251
-0.918684
-0.358816
-0.0134507
-0.364121
-0.029883
-0.0944182
-0.616396
-0.159217
-0.798551
-0.520134
-0.172887
-0.336289
-0.101309
4.38539
-0.103932
-0.139391
-0.108884
0.0229749
0.134289
-0.0141802
-0.223212
0.0332832
-0.0784579
0.0673288
-4.60817
4.52427
0.0251558
0.0203195
0.0336951
0.0099992
0.0381132
-0.218693
-0.117639
-0.0701857
0.475601
0.0327901
-0.131455
0.0289452
-0.118862
-0.695903
3.73131
-0.0996925
-0.439597
-0.572944
-0.207363
-0.17156
-0.218043
-0.333123
-0.0388624
-0.138486
-0.0540556
-0.0866989
-0.270731
-0.211206
-0.662103
-1.57822
-0.348685
-0.416124
-0.0552445
-0.0171321
-0.164341
-0.224387
-0.301743
-0.0810062
-0.106057
-0.216285
-0.160697
-0.089062
-0.141311
-0.368723
-0.231116
0.258861
1.85965
-0.0550847
0.0414581
0.78552
0.00389196
-0.353265
-1.36169
-0.0313895
-0.319043
0.185662
-0.346446
0.368099
-0.409326
1.74767
0.257482
-1.57879
-0.917685
0.148376
-0.377373
-0.681306
-0.160448
0.0664863
-0.243658
0.369741
0.207247
0.0571439
-0.438192
0.36499
0.595326
-0.279481
0.134352
-0.204157
0.287029
-0.409767
0.00218721
-0.0638693
-0.231235
-0.142161
-0.132206
0.433555
0.305725
0.112399
0.0192665
-0.31525
0.214357
-0.159053
-2.12698
0.206856
0.269071
1.41902
0.222736
0.514429
0.317539
0.134201
-1.52197
0.340621
-0.486953
-0.842833
3.26513
-0.0320739
-0.355683
0.427936
0.104596
-0.378768
-0.377877
-0.169615
0.773239
-0.314833
0.0539622
0.220039
-0.311217
3.92941
-3.59971
-0.144395
-0.122508
-0.140353
0.196248
-0.353297
-0.454215
0.0146409
0.0699808
-0.180688
-0.259781
-0.491065
1.2211
-1.62121
-1.63252
-0.048392
1.43335
0.277007
-0.406847
-0.0626629
-0.133345
-0.192534
-0.0747464
0.0337914
1.88616
-0.265623
-0.269497
-0.485883
-0.156581
-0.297746
-0.0371
-0.100818
0.116946
0.0825496
0.078112
1.65283
0.0874399
-0.681918
-0.432085
-1.34034
-1.34883
0.966296
0.15625
0.0253005
0.493163
0.117231
-0.0136137
-0.874826
0.0835655
-0.418671
0.0938664
0.204942
1.07886
0.396175
0.138251
-0.257959
0.572533
0.556223
0.0419249
-0.369003
-0.393033
-0.256169
-0.0795479
-0.351432
-0.0327491
-0.117786
-0.491041
0.0664385
-0.224121
0.0815615
-0.131844
-0.685042
2.09774
-0.108352
-0.136511
-0.0275333
0.0649638
0.0459871
0.0237724
-0.824755
-0.508991
0.114256
-0.193378
-0.731085
-0.360659
-0.201368
4.32417
-0.277245
-0.0183881
-0.0931346
0.00555456
-0.083814
-0.491917
-0.265767
-0.707343
-0.1564
-0.198925
-0.360517
-0.56444
-0.773186
-0.0630466
-0.15543
-0.293721
-0.36405
-0.0867459
-0.284598
-0.579665
-0.043837
-0.15037
-0.29752
-0.607502
0.0316518
0.0963228
-0.0392824
-0.131179
-0.116499
-0.203639
-0.790446
-0.414322
-0.19125
3.83186
-0.0518405
-0.0825496
-0.423722
-0.24906
-0.287728
-0.573859
-0.26861
-0.430639
3.78313
-0.63305
-0.124207
-0.395715
-0.687895
-0.00320068
-0.246096
-0.111612
-0.157455
-0.206728
-0.203316
-0.601026
-0.596165
-0.378567
-0.489971
-0.0379209
-0.00514389
-0.0927865
-0.239339
-0.294237
-0.261902
-0.967702
0.448153
2.20718
-0.409104
1.05806
-0.407766
-0.0929062
0.1397
-0.349304
0.175159
-0.355623
0.296122
-1.85497
0.16069
0.329608
-1.12069
-0.395204
0.0157425
-0.0920857
-0.100768
-0.314743
-0.702074
3.59995
0.054087
-0.326172
-0.662149
-0.122091
-0.351586
-0.340555
-0.242553
0.0183692
0.162451
-0.0526561
-0.0898403
-0.236056
-0.450897
-0.654728
-2.16607
-0.119563
-0.243048
-0.0541612
-0.116427
-0.0542023
-0.225166
-0.273181
0.700861
-0.112905
-1.75186
1.1483
0.129196
-1.04383
-0.314227
0.157956
-0.271602
-0.289329
-0.173599
0.0228753
0.0777583
1.51923
-0.291979
-0.145822
0.391711
0.109317
-0.345714
0.0945002
-0.0179442
-0.12876
-0.258056
-0.364933
-0.198787
-0.314431
-0.607715
-0.53402
-0.0765672
-0.335713
-0.5274
-0.0480276
-0.232935
-0.0339467
-0.10151
-0.275953
-0.132246
-0.756927
-0.424026
-0.159221
3.63364
-0.127606
0.0659872
-0.10455
-0.2821
-1.84029
-1.70045
-2.05815
-1.81034
-1.42927
-1.85828
-2.05772
-1.74639
-1.69924
-2.16445
-1.89815
-2.14754
-2.04642
-1.84399
-1.94248
-1.11606
-1.6201
-1.98778
-1.69092
-2.0263
-2.20072
-2.06825
-2.00753
