-1.53561
-0.647432
-1.31265
0.629236
-1.2034
-0.887011
-0.728723
-0.890762
-0.112508
-0.977615
-0.200885
0.124646
0.598011
-0.0308003
-0.359698
-0.618653
0.0601507
0.154257
-0.0349501
0.708983
-0.345673
-0.297658
-0.805493
1.02856
-0.8212
-0.888254
-0.298739
-0.389544
-0.432808
-0.804549
-0.0565053
-0.0534521
0.0123104
-0.846598
0.0863195
0.53276
-0.683052
-1.05357
-0.281291
-0.808097
1.34636
-0.230096
0.84975
-0.244135
-0.721208
0.9094
-0.239397
0.0594913
-0.0625005
1.09556
0.16475
-1.77004
-0.303116
-0.787297
-0.859918
0.19686
0.360626
-1.17538
0.364862
0.0518653
-0.277322
-0.631901
-0.1572
-0.3828
0.0435985
-0.216107
-0.397679
-0.434459
-0.335519
0.563219
-0.485284
-0.071077
0.374445
1.02951
-0.265283
-0.747435
-0.295343
-0.592813
-0.125679
-0.458247
0.595246
-0.565865
-0.753886
-1.28492
-0.661688
-0.167498
0.115177
-0.0170813
-0.489946
-0.27462
0.715599
-0.432824
-0.553435
0.648884
-0.721196
0.451487
-0.0499336
-0.563312
0.321108
-0.323599
0.108483
-0.984901
-0.112651
0.91626
0.191135
-0.406546
-0.983536
-1.33873
-0.292246
-0.527845
0.771636
-0.204995
-0.438175
-0.564733
-0.0942178
0.549385
-0.468362
-0.015003
-0.46056
0.00506889
0.439503
-2.25256
-0.240078
1.14799
-0.369904
-1.6661
0.230659
-0.0196537
-0.066715
0.137943
-0.0741955
-1.73871
-0.0222213
-0.724226
0.420118
1.15018
-0.428393
0.585217
-0.491842
-0.350912
-0.410914
-1.7635
1.03018
-1.00697
0.521734
-0.194997
-1.08344
0.0798369
0.0531912
0.532102
-1.76503
-0.648013
-0.639129
-0.649544
-0.272959
-0.013847
0.783278
-1.64797
-0.579765
-1.25216
-0.0821626
-0.393352
-0.507533
-1.02578
-1.55383
-0.512664
-0.827654
-0.4143
-0.498736
0.649806
-0.0214028
0.227573
-0.130177
-0.891835
-0.336382
0.720631
-0.34391
-0.335228
-0.337052
-0.601899
0.33425
1.11373
0.119989
-0.707742
-0.735531
-1.72626
1.03114
-0.627594
0.13053
-1.29915
0.617227
0.243302
-0.596612
-0.676147
-0.421968
1.16003
1.20756
-1.21262
-0.372772
1.8905
0.939291
0.487826
-0.406066
-1.22617
-0.250889
-0.24399
-0.00229871
-0.662831
-0.98033
-0.773982
-1.04727
1.07456
-0.299572
-0.869705
-0.231202
-0.398446
-0.46805
0.144586
-0.341691
-0.750949
0.111999
0.27294
-0.193029
-0.2951
-1.43714
-0.54117
0.707449
-0.370686
-0.441266
-0.519544
-0.886504
-0.381747
1.27131
-0.0180579
-0.462549
-1.20947
-0.396378
-0.095219
1.02879
-0.12644
-1.12767
-1.33054
-0.688998
-0.529751
-0.135148
-0.0938086
-1.12952
1.07971
-1.17612
0.628432
-0.226005
1.03049
-0.591519
-0.639184
0.373844
0.137956
0.145031
0.134298
0.0298116
0.137761
-0.0656445
0.446743
0.219272
-0.440024
-0.52988
0.629911
0.0117839
-0.120162
0.471565
0.331691
0.355243
1.50971
-0.302435
0.013763
0.170258
-0.0679841
-0.471648
-0.0477272
-0.582806
0.624752
-0.461229
0.805741
-0.889478
-1.13897
-0.918914
-2.12246
-0.0542356
-0.25878
-0.382956
-0.528809
-0.502926
0.609715
-0.495719
0.362038
-0.526428
0.262622
-0.885452
0.0344093
-0.353407
-0.584014
1.12299
-1.77495
0.806698
-0.8825
0.481327
0.46492
-0.54511
-0.42271
1.41563
1.46816
-0.751658
-0.509989
-0.318225
-0.639111
-1.16685
0.399546
-0.813991
-1.16898
1.28003
0.69254
-0.458009
-0.747531
-0.312602
0.313915
0.757264
0.367382
0.197962
0.158678
0.485909
-1.36324
0.269938
-0.297918
0.35025
-0.442391
0.229224
-1.3338
-0.286347
0.498489
-0.250148
-0.607905
0.323159
0.506137
-0.97537
-0.322321
-0.639626
-0.150692
0.309615
-1.61697
-0.227814
0.122528
2.02041
-0.7721
-0.206816
-2.32768
0.108153
-0.684517
1.21414
-0.535927
-0.916651
-1.42317
-0.236832
0.229061
-1.51036
0.739989
-0.130656
-0.542293
-0.571788
0.272919
-0.222056
0.0105563
-0.846648
-0.544167
0.00315538
-0.794327
0.858984
0.660479
0.968502
0.475975
-0.329765
-1.76235
-0.00957602
-0.996583
0.284042
-0.299845
-1.09607
0.396974
-0.962458
0.367102
0.451041
-0.0854717
-0.362684
-0.313148
-0.187436
-0.369603
0.194652
-0.0452355
-1.08293
-0.95013
0.465665
-1.42235
-0.318106
0.908072
-0.109862
0.529514
0.688666
0.0848399
-0.180678
0.0322217
0.229297
1.32393
-0.255513
-0.361354
-0.248164
-0.767528
0.086669
-0.449798
-0.0550477
-0.212156
1.37035
0.478613
0.34435
0.532793
0.287879
-0.366439
0.933782
-0.0544805
0.153288
-0.352226
-0.191623
-0.336405
-0.359016
0.223368
-0.0220888
-0.0153047
-0.578393
-0.499257
0.317986
0.298327
-0.774025
-0.508576
-0.302767
1.00318
-0.682931
0.0806414
-0.660821
-0.833457
-0.374919
-0.551792
-0.253202
0.340825
-0.653444
-0.227723
0.0485155
-0.288366
0.296187
0.938555
-1.38768
-0.938245
0.891827
0.620668
-0.833573
-1.08769
-0.511285
0.270273
-0.773789
0.142234
-0.900391
1.71594
0.00336776
-0.967321
0.053813
-0.816074
-0.116942
1.17314
1.09665
-1.46305
0.946492
-0.127206
-0.705053
-0.592617
-0.112749
-1.408
-0.168071
0.609879
0.0136412
-0.123336
-1.72836
0.0293469
0.418856
-0.672339
-0.608486
-0.605622
-0.50778
1.60629
-1.8471
0.146822
0.387122
0.0235116
0.275105
0.174353
-1.8705
-0.548573
0.320215
-1.42286
-0.423264
-0.328449
-1.70907
-0.386237
-0.265282
-0.59534
-0.403174
-0.595885
0.421942
0.957161
0.523351
-0.881175
-0.651309
0.652209
-0.423371
0.312119
-0.361993
-0.713538
0.332137
-0.333162
-0.0190928
0.00988385
0.0161375
-0.470642
0.0433629
-1.0969
-0.59486
-1.75471
-0.186219
-0.925663
-0.0285939
-0.60939
0.156521
-0.117805
0.127258
-0.23385
0.213104
-0.211338
0.403025
-0.553608
-0.26836
-1.36714
0.693623
-0.220577
0.372685
-1.04772
-0.568851
-0.694796
-0.852091
-2.01627
0.0744192
0.0464242
0.0875705
-0.62097
-1.28628
-1.18732
0.544077
-0.742295
-0.638307
-0.106651
0.0183377
0.440515
-0.269306
1.57946
-1.72484
-0.711071
-0.0555814
-0.229942
-0.242366
-0.65193
0.4789
-1.01035
0.789675
0.13028
-0.245011
0.684406
-1.19885
-0.0622928
0.647258
-0.536813
-1.08338
-0.864932
-0.0674109
-0.755874
0.688535
0.170162
-2.20954
0.227779
-1.44214
-0.554437
-0.00667028
0.639773
0.449498
-0.869625
-1.54611
2.94478
-0.72826
0.721441
-0.840001
-0.572765
-0.196969
-0.0447543
1.59462
1.31017
-0.378477
-0.679094
-0.474098
0.139693
-0.0801878
0.361754
0.528454
-0.25901
0.860604
-0.427171
-0.228657
-0.426492
-0.234889
0.71946
-0.442206
-0.707246
-0.508553
0.474388
-0.218462
0.0649001
-0.546798
-0.912948
-0.928554
-0.372325
0.326087
0.547654
-0.0489235
-0.442368
0.627317
-0.618371
-0.577308
1.08959
0.382522
0.844825
-0.589416
-0.781157
0.380599
-0.554137
-0.171632
-0.0783686
0.0719218
-0.2882
-0.354285
0.514237
0.143542
-1.17097
-0.395219
0.133615
-1.10756
-1.16683
-0.506466
0.580552
-0.340921
-0.0935081
-0.448669
-1.30005
-0.76649
-0.44545
0.285615
-0.625278
-0.382397
0.0652572
-0.693586
-0.106989
0.386777
-0.376255
0.340448
-0.20198
-0.857763
-0.825813
-0.595383
0.39688
0.655264
-0.0147241
-0.220729
0.583386
0.0220448
-0.276491
-0.114102
-0.870382
-0.641481
-0.883889
-0.610425
-0.0456566
0.133208
-0.0376325
-0.540914
-0.712145
-1.17684
-0.362153
-0.135156
0.0525473
-2.0968
-1.19784
-0.0467805
0.260734
-1.37865
0.301242
0.214259
1.09613
-0.571311
-0.731616
0.0116705
-1.12529
-0.962623
0.478231
-1.44143
0.100391
-1.00605
0.448885
0.239125
0.759411
-0.417242
1.63788
-0.162912
0.0570881
-1.62038
-0.440226
0.990722
-0.79797
0.141915
0.376732
0.185772
1.08582
1.07034
0.403346
-0.157259
-0.22138
0.631371
-0.139102
1.32131
-0.581854
-0.895845
1.2429
-0.0712452
0.0824901
-1.03445
-0.148605
-0.0329618
-0.947515
-0.815762
0.95404
0.537258
-1.30959
-0.613838
-0.0192955
0.839611
0.68952
-0.947758
0.489493
0.539913
0.195494
-0.807338
-0.419847
-1.43282
-0.639807
0.0199881
0.76041
-0.827463
-0.0733728
-0.142324
-0.940301
-0.608095
0.194417
-0.305571
-0.559186
1.0042
-0.836161
-1.05374
-0.238692
-0.510982
0.33856
-0.350226
-0.515043
-0.272839
-0.18183
0.0770039
0.0317529
-0.542955
-0.276241
0.107961
0.507838
-0.821943
-0.317262
0.632926
0.696577
-0.434903
-0.31923
-0.179559
0.570541
-0.522733
-1.08218
-1.57616
0.642438
0.731832
1.10206
-0.597975
-0.496008
0.221586
0.570049
-0.361392
0.25486
-0.530732
-0.477644
0.715944
0.337202
0.189125
-0.446708
0.0856878
0.102179
0.461693
-0.0513359
0.082595
0.0591715
-0.350288
-0.581707
-1.00776
-0.815185
-0.12391
-0.402492
-0.359028
-0.351737
-0.190489
0.97962
-0.446602
-0.299263
-0.92244
-0.37968
-1.56928
-0.205431
-0.205304
-0.749824
0.923902
0.0242249
-0.803984
-0.520965
-0.298534
-0.0108035
0.341443
-1.40975
-0.456489
0.101183
-1.86986
-0.162266
0.223211
-0.474801
-1.03671
-0.190407
1.68843
0.369477
-0.674935
-1.76106
1.03541
-1.32122
-0.22681
0.499435
0.779274
0.903826
0.194846
-0.23584
-0.962693
-0.371045
-0.404166
-1.16418
-0.0513985
0.222061
-1.0941
0.884062
0.24645
0.819202
-0.228054
1.05226
0.506574
-0.992968
0.186639
-0.171365
-0.137127
0.693149
1.67079
-0.238892
-0.619186
0.116465
0.0305607
0.635878
-0.258391
0.513669
0.615943
-0.227247
0.133903
-0.964563
-0.351667
-0.9329
-0.76616
0.563252
-1.08351
-0.596722
0.193671
-0.0764773
-0.380727
-0.288915
-0.0802736
0.248648
-0.38517
0.913238
0.211045
-1.25751
-0.184041
-0.31613
1.23768
-1.92664
0.891918
0.0703928
0.493574
-1.65262
-0.174731
0.148769
-1.30414
0.515949
0.300247
-0.376336
-0.567165
0.533503
0.76938
0.119932
-0.549644
0.903411
-0.797142
-0.336583
0.517591
0.250102
-0.431238
-1.08839
-1.02319
-0.298026
0.601582
-0.283704
-0.00439617
-0.13747
0.0118802
-0.417082
-0.853887
0.48017
-0.0960581
-1.48237
0.0336902
1.55367
-0.579902
0.286542
-0.996123
-0.0880625
-0.940281
-0.374943
0.890776
-1.39602
-0.0343579
-0.0288758
-1.18646
-0.743322
0.576903
0.639431
0.0593552
-0.0878616
0.470638
-0.256978
-0.507537
0.33702
0.682831
-0.690844
0.020441
-0.29727
-0.0785542
-1.01007
-0.0626591
-0.235902
0.133185
-0.50146
1.05571
-1.46801
-0.796692
-0.426465
0.199856
-1.09591
-0.41224
0.865812
0.200514
-0.749279
-0.31974
1.06997
0.2314
-0.984392
-0.666571
0.141941
0.995759
-2.07674
-0.0504664
-1.78568
0.722207
0.0755501
-0.303061
-0.679603
0.0871347
-0.247317
-1.11068
0.424437
-1.67703
-0.856285
0.845696
-1.10836
-0.33455
-1.18432
-0.210717
-0.736231
-0.357115
-0.565342
-0.436483
-0.598246
0.115763
0.601513
0.298106
-0.100302
0.0564137
-0.910734
1.39265
-1.00257
1.34043
0.405331
-0.177294
0.0659982
0.217897
-0.756024
0.759892
0.372903
-1.40286
-1.16952
1.00289
0.056548
-0.654129
-1.61383
-1.19565
1.5725
-1.24479
-0.0330424
1.29474
-1.1068
-0.139814
0.195952
0.0598403
-1.01658
-0.662983
-0.646755
-1.21178
-0.912162
-0.572804
-0.479989
-0.764184
-0.454728
0.532052
-0.611423
-0.42197
-1.20272
-0.421737
0.651646
-0.453569
-0.915856
-0.49017
-0.653044
-0.227061
-1.45487
-0.881494
-0.393899
0.351632
-1.03018
0.657569
-0.967971
-0.659949
-0.824427
-1.21993
-1.12682
-1.83653
-0.0475798
-0.479413
-0.434947
1.31344
-0.0108423
-0.684512
-1.51713
1.29524
0.213315
-1.17681
-0.027936
1.03613
0.628586
-1.4357
0.626748
-0.362979
-1.24469
1.2736
-0.431634
-0.543863
1.13637
-0.662194
-0.136224
0.086666
-0.91698
0.660089
0.489769
0.130745
-1.3698
-0.272604
-0.551735
-0.181999
-0.552956
0.517207
1.49492
0.202819
0.403114
2.27969
1.17994
-0.0247426
0.358723
0.229547
-1.06076
-0.475815
0.0797571
0.239081
-0.467254
-0.963452
-1.39547
-0.817208
0.353036
-0.637607
0.315393
0.020368
0.320023
-0.361183
0.830111
-0.691675
-1.98698
0.226151
-0.141974
0.34409
-0.160785
-1.9099
0.176464
-0.669437
-0.0393632
-0.497006
-0.0550099
-0.870286
0.188584
0.448208
0.18244
-0.352509
-1.41965
0.505503
0.0262391
-0.396139
-0.0195745
0.25617
-0.0109003
0.784052
0.43541
-0.205064
0.871108
-0.0798205
0.882238
-0.0586368
-0.47502
-0.356066
0.375475
-0.00578073
-0.835345
-0.551795
1.03322
-0.667759
-1.79109
0.14134
-0.512904
-0.592018
-0.434185
-0.141747
-0.0455624
-0.591465
0.566577
0.0212318
0.39164
-0.470979
0.772055
0.5217
-0.214386
-0.656901
-0.810952
-1.776
-0.0243062
0.291792
-0.371348
0.730098
0.799757
-1.6456
0.986165
-0.640411
-0.416766
0.158885
-0.363179
0.834681
0.377288
-0.614238
-1.03804
-1.69395
-0.796258
-0.367063
0.457025
-0.411856
-1.12013
0.210432
-0.858067
0.318687
0.296564
-0.1697
-0.498321
0.333678
-1.28623
-0.0216056
-1.12807
0.149786
1.28017
-1.7565
0.255165
-0.608297
0.408484
-0.0837263
-0.998553
0.56435
-0.161904
-0.822406
-0.332906
-0.688789
-1.03008
0.928202
0.644198
0.440978
-0.325517
-0.967009
0.380453
1.34649
-0.239382
-0.586393
-0.0172161
0.23802
-0.998238
-0.0566509
-0.826507
0.384107
-0.664873
-0.371013
0.83989
-0.799605
-0.211452
0.112635
0.489001
-0.340568
0.375517
0.170606
-0.728329
-0.0402308
0.486547
-1.3343
-1.29331
0.955359
0.151845
-0.343952
-0.631442
-0.563486
-0.719042
1.69455
-0.457597
0.167477
0.0688238
0.20047
-1.06013
1.1782
-1.2911
-1.4394
-0.775554
-0.095782
0.0712896
-0.185571
0.126771
-0.488927
-0.100835
-0.560643
0.419662
-0.0704328
1.30379
-0.378915
-0.851791
-0.528363
-0.863303
0.0930682
-0.244661
-0.623213
0.554449
0.998457
-1.23331
-0.448354
-1.20637
-0.530286
-0.0746801
-0.491095
-1.91426
0.428627
1.02329
0.0654567
-0.0886483
-0.220951
-0.997538
-0.83811
-0.422406
-0.0580125
0.179355
-0.0387519
0.0206029
0.462176
0.692291
0.71148
-1.28513
-0.282414
-0.319349
0.685152
-0.747725
0.426946
-0.336884
-1.75328
1.39932
-0.788118
-1.34475
0.0784322
2.08848
-2.2346
0.447375
-1.22725
-0.703468
-0.426251
-0.507666
-0.674697
-0.137905
0.168664
0.332503
1.36644
0.0833135
-0.206456
0.271591
-1.09524
-1.58685
0.348991
-0.397554
-1.38256
-0.880988
-0.500574
0.0628344
0.443295
-0.0830192
0.171589
1.971
-0.388226
-0.937774
-0.393018
0.261108
-0.371142
0.292126
-0.247873
0.0261935
-0.140685
1.24818
0.552827
-0.124844
-0.70791
0.112614
-0.0309053
-1.03713
0.202438
-1.09683
-0.793571
0.888468
-0.810096
-0.407412
-0.671186
1.26184
-0.00262566
-0.764002
-1.33374
-0.58428
-0.130219
0.350382
-0.293837
-0.129401
0.490037
-0.712891
-0.693443
-1.32664
0.692006
-0.393256
-0.502199
0.317117
0.324607
-0.61473
-0.636638
-0.183549
-0.770937
-0.0723024
-0.617736
-0.0690565
0.373674
-1.21258
-0.771499
0.136913
0.988258
0.188184
-0.795151
0.143523
0.305534
-0.00811608
0.144322
0.0342054
-1.19991
-0.407504
-0.622707
0.206474
0.672506
0.0156072
-0.605207
-0.525701
0.832089
-0.629182
0.165008
-0.357741
-0.208618
0.598256
0.0565203
-0.468043
-0.252868
0.219239
-1.36869
-0.289092
-0.286505
-1.75355
-0.881392
-0.677382
-0.718625
0.300581
0.50543
-1.49704
-0.0955703
-0.902573
0.171817
0.877912
0.723482
0.632389
0.084714
0.0774352
-1.43455
-0.994492
-0.0341491
-0.0126004
-0.15395
-0.227229
-0.365221
0.684081
-1.05949
-0.192869
-0.199178
-0.143494
-0.615576
-0.945765
-2.51883
-0.172599
-1.61392
-0.960747
-0.897943
0.606146
-1.36822
0.907556
0.769554
-0.657098
0.270874
-0.413711
-0.838777
0.0858484
-0.618953
0.553821
1.05119
-1.93855
-0.747476
0.662045
0.495121
-0.955671
-1.03124
-0.574252
0.401985
-0.60566
0.510063
-0.600174
-1.4503
-0.499618
0.220764
-0.0324168
0.531759
-1.15945
0.0103207
-0.0286898
0.0946665
-0.0566814
0.378354
0.17499
-0.450042
-0.422192
-0.250684
-0.476722
-1.19143
0.299375
0.194921
-0.441737
-0.754511
-0.507469
-0.438921
-0.652252
-1.04946
-0.0518964
-1.29342
0.35579
-1.38036
0.522362
0.80541
-1.23305
0.363795
-0.711607
-0.157839
-0.764605
0.370817
0.0290541
0.414454
-1.73112
-0.101607
-0.28288
-1.28143
-0.158145
-0.264402
0.140699
0.441602
-0.192339
0.167961
1.11405
-1.27403
0.244525
0.211332
-0.0979197
-0.00817963
-0.0540784
0.263463
-0.606408
0.57911
-0.823181
-0.396581
1.25029
-0.637325
-1.11996
-1.57245
-0.655101
-0.634423
-0.583187
-0.656212
0.316141
-1.60436
0.15196
-0.938157
0.67554
-1.19239
-1.00516
-0.147925
-0.524609
-1.02412
-0.843936
-0.299697
-1.1761
-0.614479
0.446457
-0.679961
-0.088141
0.0346389
-0.769474
-0.993055
0.50149
-0.287678
1.656
0.147665
2.69341
-0.386913
-0.778951
0.213681
-0.70513
0.154475
-0.61113
-0.370666
-0.444826
0.185656
-1.43283
-0.601924
-0.390081
-0.0134305
0.0494
0.276275
-0.0419419
0.048323
-0.220513
0.347769
-0.475932
-0.67731
0.344335
0.0406
-0.76547
-0.408615
-0.766498
-0.130644
0.768582
-0.885623
-0.250129
0.687834
-0.260302
-0.738991
-0.237093
0.0226126
-0.40244
-1.01797
-0.0407503
-0.647503
0.0197555
-1.11703
1.80722
-1.44858
-0.492336
-0.253094
-1.89661
-0.504922
-1.12352
0.249539
0.857703
-1.17354
-0.188403
-0.0938404
-0.184288
-1.12787
0.049768
0.93747
-0.425997
-0.848092
-1.0893
-0.0348264
0.805043
-0.997699
-0.946341
-0.617816
-0.0172989
-0.560669
-0.174174
-0.68183
0.705642
-0.140931
0.0391601
-0.249846
-0.0560118
-0.4136
-0.0609993
0.224822
0.848899
0.408957
-0.0782909
0.184084
0.137074
0.89172
-0.268943
0.282365
0.493298
-1.68501
0.712933
-0.027441
0.0325469
-0.420746
-0.573596
-1.19666
-0.331497
-0.810132
-0.492868
-0.229522
-1.2889
0.417743
-0.0656615
-0.648715
-0.259989
-0.354638
-0.0776848
-0.422364
0.463285
-0.191597
0.03573
-0.269974
0.21913
-0.223304
0.28941
0.384563
0.279372
-0.19956
-0.0453194
-0.689681
-0.191329
-0.793474
0.0624504
-0.0148536
-0.19099
-0.0346459
-0.221317
0.355319
-0.294621
-0.6107
-0.925122
0.11703
-0.846148
0.225874
-0.236151
-1.34479
0.82807
0.488395
0.0953349
1.86254
0.0911904
-0.233765
-0.297203
-0.151036
-0.528158
1.04799
0.301059
1.09192
-1.01934
0.636264
-0.588583
-0.105394
-0.379258
-0.191888
0.075962
-0.681866
-0.30889
-0.38452
0.163841
-0.0390769
-0.553432
-1.02359
-0.41742
-0.0527513
-0.345379
0.0790542
-0.943819
0.345094
-0.0987099
0.214277
0.960649
0.083282
-0.89507
0.0452688
0.352641
-0.690653
-0.41487
-0.372656
-0.66394
-0.200384
0.626717
0.383435
-1.6214
-0.154632
-1.41883
0.740535
-0.217051
-0.384989
0.347115
-0.153406
0.506092
-0.356977
-0.00375079
-0.271874
-0.396095
-1.18797
-0.73364
-0.102246
-0.205719
-1.79335
0.546698
-0.155287
0.400436
0.414577
-0.540368
-0.348637
0.736028
-0.48524
-0.797001
-0.618538
-1.18176
1.39098
1.21684
-0.0700409
-1.00268
-1.33792
1.34837
-0.68008
0.0234966
0.0573729
-0.0194547
0.137232
-0.304791
0.751212
-0.663782
0.0380978
-0.184207
-0.160304
-0.682977
-0.246954
0.438864
-0.34947
-0.755729
0.41368
-1.20534
-1.00216
0.696036
-0.52535
-0.286769
1.24704
0.629503
0.27273
-0.331492
-0.156731
-2.09812
0.418929
0.141632
0.461645
-1.05476
-0.630765
-0.0566969
-0.727914
-0.158444
-1.37951
-0.0924561
-1.73163
-0.940082
0.98068
0.833251
-0.325301
0.968642
1.02792
-0.29901
0.337299
-0.525839
0.650447
-1.15408
0.86523
-0.87127
-0.26668
0.254767
-0.265504
0.822126
-2.04953
-0.024499
-0.493112
-0.108052
-0.299605
1.06769
-0.67842
-1.06008
-0.436363
1.01297
-0.312536
-1.15637
0.4153
-0.865286
-0.803698
-1.55453
-0.340354
-0.159586
1.14296
0.886688
-0.70878
-1.52046
0.59674
-0.703857
-1.23765
-0.820461
-1.82458
-0.506602
-0.810376
-1.15149
0.608492
1.11735
-1.01624
0.952375
-0.822094
0.546271
0.496558
-0.645815
0.329939
-0.412246
-0.644421
-0.128419
-0.403738
-0.429493
0.711105
0.693621
-0.36174
1.42542
-0.355487
-0.855478
0.354793
0.101765
-0.348107
-0.128724
-0.295163
0.498169
-0.365213
1.02118
-0.178079
-0.467864
-1.28212
-0.963888
0.852535
-0.81307
-0.738286
-0.779846
0.412123
2.20908
-0.719746
-0.395081
-0.402185
1.45249
1.0063
-1.01116
-0.578232
-1.14561
-1.4134
-0.437946
0.512215
-0.997854
0.552418
-0.967119
0.0256138
-1.33254
0.172486
-2.08968
-0.29009
0.816884
-0.682803
-1.62327
-0.779897
0.283543
-1.39806
-1.35169
-1.43147
-1.06554
0.270578
-1.1336
0.590663
-1.27268
-0.361681
1.04696
-0.0338316
-0.241139
0.251205
0.558659
1.01797
-0.667481
0.0794966
0.52161
-0.863684
0.485394
1.07378
-1.11526
0.445796
-0.802624
-1.72893
-1.18587
1.4165
-1.23663
-0.0227897
0.664436
-1.51578
0.846295
-0.718102
-0.533665
-0.851798
-0.135608
0.782926
-0.516265
-0.945132
-1.27149
-1.80658
-0.656895
-0.870558
-0.668686
-1.09772
0.945956
0.00773876
0.327621
0.260494
-1.69597
-0.415699
-0.640252
-0.197132
0.546004
-0.281453
-2.6028
-0.474143
-0.0193576
-0.57335
0.0327748
-0.180564
-0.92441
0.257921
-1.14718
0.502653
-1.89658
0.862108
0.418881
-0.37451
-0.360197
0.0590025
1.11741
-0.138335
0.409904
1.42627
-1.21111
0.724733
-0.796891
0.428263
-0.151446
0.777308
0.595325
0.732666
0.259434
-0.540127
0.137215
0.861539
0.994677
0.14289
-0.0190368
-0.0524828
0.350949
-0.0351926
0.329076
-0.147503
-1.18984
0.345895
1.01029
-0.532053
-0.291574
-0.0985318
0.723622
-0.43349
0.274577
-0.407564
-0.205236
0.319215
0.73384
0.092631
-0.594846
-0.428974
0.124736
-0.332078
-0.639049
0.293144
0.325466
0.474025
0.0215922
0.95741
1.17338
-0.918534
0.585817
-0.151023
-0.290254
0.30185
0.477042
-0.582386
-0.284492
-0.57726
-0.864588
0.187745
-0.315805
-0.215704
-0.538114
0.0767119
-0.8384
-0.215393
-1.37412
-0.265094
0.2818
-0.333027
-0.483073
-0.437348
-0.148355
0.0916758
0.641096
-0.211181
0.214002
-0.164106
-0.972323
0.782039
0.146604
-0.276287
-0.639046
0.361041
0.351069
-0.355733
-0.73341
0.44566
0.217271
-1.12548
-0.15768
0.0959324
-1.02332
-0.35363
-0.369184
-1.08421
-0.946264
-0.514193
-0.413413
-0.572961
-0.209834
-0.667237
-0.501326
-0.288013
-0.246161
0.608633
-0.299797
-0.793657
1.02774
0.253107
0.511031
-0.398715
-0.932482
0.183701
-1.41613
-0.417172
-1.2679
0.509066
0.134859
0.144722
-1.21221
0.722841
0.95724
-0.893688
0.261172
-1.09171
-0.979415
-0.810065
0.745528
-0.0721947
-0.364986
0.381626
-0.423204
-0.0634627
0.0685962
-0.516954
-0.918044
-0.30621
-0.856814
-0.349954
0.258794
-0.233887
-0.0756348
0.192914
-0.159921
-0.586072
-0.0483342
-0.556507
-0.89248
-0.489342
-0.76179
0.419915
-0.874821
-0.354335
-0.181401
-0.770308
-0.873648
-0.0847858
-0.26797
-0.526485
-0.463154
-0.604645
0.393137
-0.650866
0.480703
0.444787
0.357708
0.133056
-0.0796201
-0.415098
-0.502562
0.0418077
0.167097
-0.645877
0.269468
-0.343842
0.211845
-0.293945
-0.635248
-0.503622
-0.159508
0.455613
-0.302564
3.50668e-05
0.242292
0.0054366
0.300705
-0.0770366
-0.515567
-0.323332
-0.471342
0.246806
-0.603499
0.18808
-0.0645841
0.446206
-0.117434
0.16181
-0.392947
-0.693704
-0.256996
0.0707688
-0.348484
-0.386669
-0.07784
0.0151425
0.271084
-0.997749
-0.78919
-0.481172
-0.88685
-0.66574
0.762993
-0.364428
-2.0712
0.170508
1.32862
0.268281
-0.1425
-1.60195
-0.0518331
-0.907282
-0.676682
0.208354
-0.345131
-0.930721
0.146562
-2.51002
0.17241
-0.0885934
0.848178
-1.08561
-0.238328
0.320811
-0.46168
0.441316
0.583561
0.788305
-0.631663
0.256382
0.409612
0.0549963
-0.813524
-0.37986
0.0714398
0.0578691
1.29798
0.856301
-0.583865
-2.00125
-0.0699828
0.128372
-1.89278
-0.303766
-0.481021
0.655166
-0.486809
-1.45503
0.0319655
0.737108
0.531607
0.237191
-0.905956
-0.40703
-0.82888
0.64405
1.07707
-0.0105586
-1.00656
-0.751793
-1.42245
0.743202
-0.504182
-0.0850471
0.376252
-0.787242
-0.932586
0.825695
-0.480333
-0.815182
-1.02307
-0.606344
-0.00738078
-0.337379
-1.90644
-0.799414
0.419444
-1.35289
0.26798
0.49134
-0.326845
0.188611
-0.150589
1.02479
-0.0214715
0.657005
-0.0985518
0.497332
-1.14083
0.519908
-0.109322
0.705612
0.883297
-0.742572
-0.741639
1.20289
0.233705
-0.296908
-1.24151
-0.807539
-1.13861
-0.551993
0.581544
-1.4512
-1.28201
0.364164
0.912525
-0.959483
-0.32468
0.423164
1.88047
-1.14369
-0.602271
-0.10768
-2.45068
-1.42302
1.05669
1.72927
-0.869708
0.911739
-0.457657
-0.215066
-0.90088
-0.144666
1.84047
0.233818
-0.467553
-1.48724
0.549528
-0.474071
-0.00531411
0.102512
0.907711
-0.124365
0.797302
0.615251
0.914473
0.0627908
-0.444397
1.40235
-0.519614
-1.11369
0.65419
-1.58084
0.806329
-2.10038
0.432405
0.0118493
-1.69423
-0.57894
-1.15053
-1.17034
-0.667121
0.475146
-0.515488
-0.859855
-0.815227
0.389733
-0.316863
-0.606759
-0.294004
-0.4975
0.769874
-0.0646298
-0.216622
-0.133122
0.0485987
-0.286112
-0.356697
-0.62377
1.14163
0.203585
0.380835
-0.204926
-0.148527
-0.307192
-0.201072
0.557494
-0.26109
0.400556
-0.54821
0.230373
-0.692784
-0.786727
-0.282535
0.599068
-0.443041
-0.34955
-0.663049
-0.572883
0.372038
0.380923
-1.27436
0.100561
-0.259772
-0.241545
-0.388739
0.710089
0.945757
0.0187519
0.186295
-0.231515
1.87515
0.738287
-0.954522
0.013809
-0.721693
-0.104105
-0.119155
-0.0499384
0.837086
-1.22599
-0.36933
-0.30828
-0.293462
-0.753128
0.0572805
0.35426
-0.572853
0.342285
-1.00854
-0.376695
-0.305464
-0.565689
0.529961
0.169388
-1.21381
-0.957171
0.0276435
-0.201523
0.222782
0.162616
0.528741
-0.0271626
-0.989586
-0.290687
0.610806
0.240781
0.533614
0.802873
-0.179837
-0.882222
0.49242
-1.21905
0.578088
-1.57714
0.756102
-0.233418
-0.484063
0.10137
-0.694983
-0.851263
-0.639694
-0.221262
-0.108246
-0.882365
0.536556
0.560555
-0.316386
1.8174
0.275372
-0.353317
-0.638789
0.0412753
0.303259
0.26051
-0.102375
-0.433253
-0.658813
-0.689738
-0.601436
0.0910932
-0.472305
-0.0655554
-0.552318
0.0831712
-0.896411
-0.504475
-1.13912
-0.455734
-0.5599
-0.377198
-0.927986
0.0205216
-0.221701
0.0786592
-0.823489
-2.10731
-0.243637
-1.31463
-0.126862
-0.577598
-0.249092
0.45276
-0.391528
-0.560863
-1.15995
2.09039
-0.840157
-0.747287
0.205459
-0.368195
1.61236
0.44198
-0.377847
-0.0913612
0.384583
0.267044
-0.626604
-1.03397
0.937569
-0.329118
0.408469
0.603157
0.296529
-0.370877
0.0141713
0.58688
-0.215096
-0.358348
0.52287
0.163315
-0.80551
-0.411106
0.832943
-0.251963
-0.188623
1.31487
-0.20911
0.0668585
-0.143733
-0.507072
-0.0283448
-0.740426
0.113821
-0.512726
-0.25984
-0.58259
-0.738452
-0.792679
-0.312338
0.135189
0.492944
-1.45363
0.82988
-1.04462
0.190913
0.629177
-0.396988
-0.423651
0.110615
0.0132817
-0.140777
0.399646
-1.70097
0.0770407
1.02586
-0.865197
-0.118737
-0.226452
-0.347099
0.316461
1.34254
-0.359337
0.567463
-0.406342
-0.522379
-0.0171704
-0.366111
-0.744052
-0.483894
0.773776
-0.663117
0.248269
1.13828
-0.454751
1.33418
-0.421859
-1.37141
0.542079
-0.49584
-0.337491
-0.583233
-0.784244
-0.327463
-0.413175
0.197517
0.416914
-0.339948
-0.162996
-0.541917
-0.385786
0.369466
-1.01505
-0.490292
-0.173751
-0.743135
0.302732
0.410665
-0.490542
-0.229842
-0.0417178
0.131684
-0.58238
-0.0252314
-0.0100368
0.432822
-0.263951
0.187767
-0.78531
-0.711707
-0.0294758
-0.749576
0.914168
-0.433563
0.388701
0.919348
-0.0368939
0.144295
-0.0823618
0.510181
-0.618265
0.359001
-0.168494
-0.855532
-0.460761
-0.147045
0.184272
-1.0447
-0.336029
0.251959
0.21118
-0.182425
0.0135851
-0.770879
-0.418629
-0.0319181
-0.160933
-1.06695
-0.387796
0.419641
-0.443513
0.279312
0.00661494
0.628871
-0.250228
0.330729
-0.231415
-1.59883
-0.0965269
-0.381061
-0.363805
-0.354271
0.0846927
-1.75395
-0.789728
-0.769276
-0.396171
0.107282
0.154538
-0.925387
-1.18348
-0.203958
-0.0247204
-0.54684
-1.17155
-0.548545
-0.452841
-0.44501
-0.602326
-0.383584
0.141146
-0.868824
0.0778004
-0.484942
-0.743374
0.300246
-1.6782
-0.555507
0.2184
0.391467
-0.0760647
0.338238
-0.0079951
-0.614099
-0.476238
-0.253521
0.675365
0.0504971
-1.06275
-0.170037
0.494844
-0.0199094
-1.0295
-0.745068
0.364693
-0.328718
-0.714672
0.679969
-0.0193604
1.2715
-1.22725
-0.453085
-0.489525
0.79236
-0.113269
-0.905365
-0.301914
-0.315813
-0.800623
-0.345903
1.19536
0.277563
-0.1871
-0.411783
0.556379
0.370375
-1.17105
0.0281449
0.20432
0.103882
-0.292064
0.372958
-0.731276
-0.742816
-0.211212
-1.00709
0.401351
-0.370104
-0.800496
-0.279339
-0.211449
-0.267542
0.645328
-0.0986756
0.0386973
-1.11639
-0.625291
-0.943206
-0.109384
0.165144
-0.49127
-0.604893
0.876118
-0.0959357
0.507941
-0.698246
0.560322
0.298306
-0.411453
-1.58722
0.73699
0.899667
-2.56212
0.889025
-0.765272
-2.69854
1.19003
-1.71662
-0.93662
0.00899036
0.985778
-2.76026
-1.33401
0.254014
0.296422
0.575973
0.267462
-0.532334
-1.09328
-0.0506549
-1.74199
-1.23906
0.579164
-1.06342
0.284642
-0.569928
0.536277
-0.24186
-1.05786
0.172963
0.146881
-0.503572
-0.763116
-1.55057
-0.62342
0.224511
-1.13631
1.18943
-0.120414
1.13591
-0.33974
0.0738405
0.231618
-2.41564
1.58053
-0.892266
0.262188
-0.633554
-0.540519
2.21109
1.10766
-1.47307
0.563373
-1.05295
0.300555
-0.650268
-0.397762
-0.0022133
-0.945479
-1.14584
0.28185
0.540284
-0.451171
1.28283
0.273359
-0.885809
-1.44117
-0.08061
0.22068
-0.848689
-0.0913499
-0.179796
-0.110115
-0.458174
0.300412
0.421647
-0.115452
0.342997
-0.384583
-0.385337
-0.249914
-0.68983
0.0558042
0.290495
-0.977148
0.741424
0.0670819
-0.368751
-0.676964
-0.424283
0.0691963
-1.11787
0.170122
-0.290626
0.0471609
-0.209071
-0.049958
0.0132919
0.337359
-1.46279
-0.112023
-0.675211
0.1303
-1.07905
-0.306113
1.62596
-0.655409
0.0843854
0.591815
0.384854
-1.33842
-0.0998283
0.651657
-0.0298004
-1.07302
0.0736695
0.656667
0.939713
0.309341
-0.433262
-1.04619
-0.535258
0.470671
0.120979
0.0568557
-0.664942
0.434858
-0.512698
-0.269404
0.370646
-0.0792137
0.66223
-0.15447
0.235473
-0.414499
0.477915
-1.46403
0.268247
0.777059
-0.0444653
-0.716235
-0.417234
-0.572866
0.150494
-0.447596
-0.773084
0.0406395
0.214758
0.57982
0.0639009
-0.138213
-0.768013
-0.449207
0.393467
-0.0346612
0.181655
-0.0565517
-0.244115
-0.000344488
-0.451178
-0.410083
0.119052
0.417558
0.223109
0.413429
0.183579
-0.478364
0.187614
0.507808
0.310561
0.604947
0.308059
-0.214377
1.52146
-0.195335
-0.64002
-0.231363
-0.299214
0.3901
0.269981
-0.159979
-0.270799
-0.416133
1.24829
0.436467
-0.0166476
-0.0752906
-0.102344
-0.266638
-0.145467
0.73993
-0.393711
0.550655
0.805529
-0.742038
-0.210321
-0.648734
0.952554
0.298196
-0.749524
-0.532815
0.320677
1.14635
-0.670809
-0.489283
-0.320219
-1.06505
0.389464
-1.01009
0.411417
0.0781474
0.598634
-1.24427
0.922283
-0.307483
-0.21711
-0.641282
-1.07684
-0.197981
-0.598125
0.293115
-0.695723
0.377156
-0.259035
0.0162693
-0.756413
-0.569086
0.207259
-0.315661
-0.645832
-0.602225
-1.10059
0.729778
-1.476
-0.217745
0.411651
-1.2432
0.604728
-0.315021
-0.57561
-0.886638
-0.139995
-0.288667
-0.383653
0.209318
0.196442
-0.413421
-1.08018
-0.343658
1.59752
0.075272
-1.19554
-0.446523
0.439584
-0.854525
0.881918
-0.925828
0.759983
-0.37483
-1.52174
-1.19577
-0.253024
0.491943
-0.0923248
0.100246
-0.0496942
-1.36227
0.0279435
-0.880744
-1.07924
-0.383265
0.268999
-0.187168
-1.80936
0.549787
-1.26284
-1.69768
-1.13391
0.0145027
-0.1364
0.159696
0.28498
-0.612507
-0.725103
-0.576307
-1.26054
0.474977
-0.225856
-0.878224
-0.294481
0.0493638
-1.30906
1.22326
-0.237281
-0.292289
-1.00138
-1.2534
1.05799
0.941893
-0.393723
0.193179
0.831404
-0.135578
0.0955209
-1.03087
1.26277
0.239289
-0.177548
-0.187427
-0.268395
-0.342717
-0.3472
0.278307
-0.918164
-0.865342
-1.1011
-0.968232
0.360851
0.147608
-0.30208
-0.412302
-0.485844
-0.617418
0.0748357
-0.0569658
0.272118
1.00924
-0.523425
-0.817758
-0.144161
-0.389332
-0.0317514
-0.540309
-0.00825524
-0.362046
-1.16477
-0.484542
-0.426894
-0.18675
-0.744642
-0.271631
-0.437453
-0.803212
0.284143
-0.216716
0.460441
0.541684
-0.859933
-0.0467861
-0.825854
-0.731101
0.463567
-0.151217
0.431195
-0.61801
-0.483766
-0.290371
-0.97219
0.476729
-1.2787
-1.42222
-1.2337
-0.177883
0.0607786
-0.039173
0.463199
-0.290352
-0.788371
-0.731084
0.157013
-0.717891
-1.11609
0.234372
-1.22789
0.113449
1.25148
0.0405645
-1.052
-0.173876
0.272592
-0.609708
-0.935319
0.564524
-1.26132
0.253402
-0.584392
0.419207
-0.0371875
-0.0924361
-1.44484
0.400353
0.164187
-1.51734
-1.28433
0.512706
-0.84886
0.17476
-0.228916
-0.969288
0.913185
-0.448016
-0.265523
-0.750062
0.861478
-0.327039
-1.02143
-0.462077
0.400495
-0.657319
-0.652204
1.43683
0.687256
0.274373
1.41
0.169962
-0.133249
1.15716
1.01683
0.0470563
-0.359553
0.462055
-0.178035
-0.719971
-1.61093
0.00158354
0.22601
-0.0533818
-0.655124
-0.555567
-0.51109
0.172548
0.110702
-1.35408
-0.638782
-0.644763
-0.45121
-1.02531
-0.670952
-0.602969
-0.114889
-0.58249
1.00906
-0.849959
-0.569803
0.906521
-1.1832
-1.68519
-1.69962
-1.15991
-1.33213
0.0734605
0.368532
0.398679
0.422358
-1.40549
-1.0902
-1.31123
-0.498215
1.56495
-0.0454985
-0.19506
-0.0726116
0.414259
1.1484
0.592703
-1.26395
-1.22142
0.410411
0.154175
0.143181
0.471123
-0.742038
-0.0643335
-0.0891451
-0.449873
-0.329492
-0.938318
0.781531
0.306561
-0.773704
-0.484373
-0.00264458
-1.12677
0.623918
-0.153078
-1.26312
-1.07792
0.317735
0.788596
-0.255614
-0.753701
-0.531704
-1.04461
-0.350313
0.231234
-0.12124
1.4578
0.36876
-0.727416
-0.929123
-0.47218
-0.894245
0.0504026
-0.304249
0.261878
1.42898
0.465383
-0.444171
0.751233
-0.00230625
0.527076
-0.168595
-0.671527
-0.818459
-1.22174
-0.30953
-0.512774
-0.811351
0.298472
1.32272
-0.505598
-0.557847
-0.595846
0.504893
0.310453
-0.60751
0.881226
-0.163863
0.512219
0.665683
-0.369586
-0.123152
-0.0577742
-0.442859
-0.507886
-0.28054
-0.229862
-0.0689362
-0.560898
0.0846
-0.102022
-0.351527
0.0978404
0.539226
-1.04151
-0.573905
1.08921
-0.0747107
0.0941493
-0.540837
-0.160067
-0.164309
-0.789816
1.41515
-0.431498
-0.873489
-0.333832
0.803186
-0.651163
-0.178185
0.378135
0.519454
1.06639
0.181389
0.326302
-0.46125
-0.0757825
-0.504679
0.483852
0.441662
0.183386
-0.880106
0.181397
1.41003
-0.454075
-0.349435
0.815105
-0.561909
-0.0300752
0.387535
-0.208312
0.213909
-1.19622
0.2784
-1.01452
-1.0951
-0.553708
0.031534
-0.779272
-0.526383
-0.582024
-0.409368
-1.53627
0.16197
0.178111
0.554376
0.0977871
-0.443852
-0.962219
-0.330394
-0.935048
0.57231
1.22043
-0.67119
-1.34293
-0.646248
1.21633
-1.27167
0.0430818
1.18076
1.16516
-1.91316
-0.158606
-0.747008
-0.609365
0.894621
-0.126057
-0.448005
0.198926
0.452779
-1.41064
0.301399
-0.753525
-0.3953
-0.228634
-0.21625
2.06441
-0.870682
0.96027
0.220866
-0.0638373
-0.392038
0.199687
-1.16812
-0.558861
-1.41415
-0.599381
-0.0747626
-1.29706
1.15838
0.392647
-1.0236
0.811421
0.996459
0.118897
-1.28106
-0.557807
-1.24253
-1.44531
-0.317289
0.997122
1.91708
-0.714358
0.905603
0.11564
-0.116734
-0.623428
0.543651
1.16173
-0.836302
-0.197662
1.71622
0.317193
0.0306264
0.73482
-0.541104
-0.532526
-0.0816834
0.113011
-0.467543
0.94377
-0.476809
-0.592088
0.709918
-0.435457
-0.0319229
-0.389935
-0.752336
0.0336314
0.00183384
0.272382
0.600068
-0.795118
-0.59191
-0.790092
-0.37588
-0.348423
-0.138086
-0.182846
-0.251324
-0.306794
-1.2959
0.310093
-0.461698
0.12615
-0.19906
-0.538636
-0.368498
-0.367166
-0.546102
-0.00362867
0.168562
-0.779001
0.230548
0.385562
1.62416
-0.963711
-0.015978
-0.151125
0.368224
-0.27505
-0.423442
0.125806
-0.761732
0.657511
0.638263
0.250626
-1.01765
-0.298153
1.43677
-0.0871102
0.256194
-0.422129
-0.1992
-0.297863
0.068605
-0.25356
-0.959458
0.911296
0.0299044
-0.147787
-0.451289
-0.430794
-0.19765
1.36163
0.450416
0.97886
-0.461073
0.376294
-0.627137
0.358437
-0.672128
0.152387
0.405921
-0.921373
-0.649368
-0.26347
-1.31856
0.436849
-0.229875
-0.359969
-0.448107
-0.979111
0.586558
-1.02491
-1.31706
0.0676171
-0.919223
-0.191818
-0.444039
-0.563551
-2.15281
-0.347171
0.0808535
1.72692
0.542557
-0.205964
-0.761396
0.343266
-0.51675
-1.10961
-0.255598
0.19104
-0.955867
-0.969079
0.423799
-0.92343
0.389672
-0.573323
0.21373
-0.506421
0.0514397
-0.976164
-1.16978
-1.35758
-0.91633
-0.206563
1.3001
-0.640159
-0.113263
-0.666825
-0.356631
1.12354
-0.694257
0.174153
-0.0708623
0.220417
-0.542697
1.25573
0.198124
0.233774
-1.48701
-0.936938
-0.254724
-0.826247
-0.502904
0.131983
0.0769209
0.689261
-0.621571
-0.197615
1.26641
-0.54727
-0.0286659
0.145141
-0.43115
0.348251
0.342837
1.23217
-0.608429
0.404305
0.600596
-0.354094
-1.13489
-0.636112
-0.736561
0.191669
-0.239482
-0.346229
0.372016
-0.170017
-0.383481
0.566189
1.39075
-1.36519
-1.15829
0.561002
0.574187
-0.280641
0.120207
-0.609169
-1.31788
0.864918
0.603688
0.313745
-0.468176
0.455008
-0.786245
0.52163
-0.924263
0.251022
-1.38461
0.55375
-0.992145
0.801404
1.05849
0.179009
-0.270753
-1.11753
-0.78208
1.17448
1.22563
0.68859
-1.15374
-0.337447
0.351438
0.28677
-0.320465
-0.459818
0.432116
1.09335
0.473094
-0.878003
-0.321214
0.0848846
-0.730432
0.479751
-1.51375
0.270163
0.0761588
-0.109735
-0.502389
-1.11984
-1.1331
0.0114996
-1.66259
0.0155601
-0.735843
-1.94493
0.232135
0.64499
1.34721
0.484687
-0.240515
-0.427739
0.485329
-0.563596
-1.57925
-0.121489
-1.30446
-0.0191618
0.329087
1.13885
-0.144404
-1.04987
-0.837165
0.2305
0.150638
0.0324927
-1.33702
0.566678
2.22425
-0.925772
0.423019
-0.606866
-2.24712
0.117209
0.0481374
0.412514
-1.27184
0.582076
-0.862407
-0.345592
-0.953691
-0.125695
0.697792
-0.959813
-0.0520039
-0.741464
-0.0228087
-0.739794
0.208152
-0.21823
-1.72019
-1.4797
-0.864915
0.808114
1.26641
-0.680124
-1.35006
-0.43364
0.993805
-2.10105
-2.00929
0.0848454
-1.42221
-0.211774
-0.663901
-0.551613
-1.36113
-1.46942
-1.54395
0.457138
1.01125
-0.671825
-0.426001
-0.534759
1.01516
-0.279516
-0.175093
0.651741
0.258584
-0.4271
-0.518433
-0.261292
-1.26535
-0.0729998
0.704817
0.11123
-0.0161687
-0.295554
-0.146223
-0.292896
0.531943
0.0545324
1.50719
-0.090912
-0.453374
-0.395521
0.473565
-0.0127819
0.817182
-0.82035
0.249162
-0.161673
0.987897
-0.801876
-0.901079
-0.0519649
-0.618259
-0.212012
-0.310596
-1.30214
-0.17253
-0.109823
1.38636
-0.849335
0.927418
-0.505027
0.812594
-1.22367
-0.38091
0.694878
-0.615271
-0.540661
-2.02418
-1.29849
0.0801321
-0.166318
-0.573406
-0.0113933
-0.135922
-0.961987
-0.247458
-0.185942
-0.00185495
1.24552
0.0860491
-0.0552635
0.431729
0.0494084
-0.700896
-0.222025
-0.521515
0.0506268
0.102806
-0.920681
-0.246764
0.348667
-0.526692
-0.63975
-0.64441
-1.84023
-0.714692
-0.0625857
-0.375228
-0.20107
-0.126781
-0.593422
-0.505417
0.409176
1.04355
0.274098
-1.31807
0.00161423
0.527226
-0.397113
-0.938184
0.426699
-0.0519696
-0.212867
1.01496
-0.717673
0.465216
0.422749
0.130719
-0.793669
-0.602503
0.358588
-1.44462
-0.998167
-0.482528
0.00816193
0.601469
-0.61395
-1.33576
0.70489
0.212105
-0.36484
-0.894464
-1.25801
-0.162687
-0.543419
-0.950621
0.131913
0.637114
-1.0659
0.710475
0.581008
-0.0178616
0.239804
1.0281
-0.867615
0.00357892
1.04004
-0.662704
0.69673
0.682649
1.45609
-0.645153
1.0007
1.22083
-1.18759
-0.357491
-0.262689
-2.15434
0.870974
-0.808519
-1.16929
-0.740146
-0.156831
0.804422
0.0511607
-0.226087
0.00463446
-0.393559
-0.496995
0.251841
-0.445851
-0.0833846
-0.433985
0.538019
-0.279205
0.549989
-1.03796
-0.455444
-0.641915
0.905399
0.768828
0.932344
-0.854321
-0.862035
0.328973
0.711973
0.202145
-0.603099
0.477165
-0.523238
-0.80178
-0.636908
-0.749226
0.85333
-0.355418
-0.0521986
-0.350038
-0.229463
0.639708
0.117995
-0.0780701
-1.10008
-0.168635
-0.724102
-1.22475
0.0498739
0.0265173
0.188538
-0.255416
-0.0567692
-0.731547
-0.342148
-0.892745
-0.127304
-0.203761
-0.754886
0.323947
-0.766452
-0.40777
0.432952
1.30519
0.363813
-0.644555
-1.01145
-0.772376
-0.763811
-0.926798
0.0190593
0.805157
0.184599
1.10686
-0.7264
-0.00596714
-0.755988
-0.375405
0.904838
-0.147366
-0.825289
-1.66398
-0.763429
0.582452
-0.086291
-0.321206
-0.0365267
-1.50705
0.161002
0.752359
0.862673
-0.607475
-0.788187
0.151191
-0.215586
0.544257
0.147173
-0.862187
0.379253
-1.97096
0.942303
-0.411441
-1.27331
-0.538704
-0.628954
-0.196211
-0.260288
-2.00371
1.00785
0.510291
-0.615805
-0.578062
-0.490576
-0.843774
-0.736896
-1.44039
-0.0656989
-0.411341
-0.610089
0.605829
0.343516
-0.508916
-0.355969
-1.12689
0.772704
0.805796
-0.0577547
-0.753677
-0.384175
-0.444813
-0.254507
0.272419
0.171728
-0.354046
-0.147682
-0.304767
0.148687
0.0717355
0.785073
0.146728
0.0848377
1.47557
-0.146436
-1.35932
0.253439
-0.441966
-1.1353
0.189074
0.4565
-1.48768
-1.42327
-0.0201582
0.509012
0.00912921
-1.86023
-0.508699
-0.342583
-0.0400916
-0.438325
0.0212451
0.167385
-0.0921095
0.552218
0.135528
-0.228741
0.468992
0.0904129
-0.132111
-0.155794
-0.285172
-0.139056
-0.554253
0.292647
-0.0303888
-0.0228413
0.185272
0.132349
-0.245947
-0.493619
0.459631
-0.167518
0.335936
-0.254793
-0.11421
-0.327172
-0.395545
-0.514432
-0.330088
-0.0331755
-0.424025
-0.540129
0.387543
-0.0375473
-0.212926
0.360589
0.275742
0.415037
0.303231
-0.0747296
0.25238
0.00492267
-0.0236526
-0.323546
0.614133
-0.411024
0.0827492
0.0528387
2.60248
-0.524625
-1.28787
-0.246349
0.874714
-1.66059
1.33069
0.176784
0.729955
-1.35893
-0.474659
-1.2282
-1.99755
-0.38695
1.08292
-0.0828647
-0.655774
-1.14605
-1.01562
0.124433
-0.109256
-0.17735
-0.159833
-0.62226
1.11373
-0.640097
0.0114132
0.0550065
-0.246752
-1.0434
-0.361459
-0.905903
-1.57645
-2.15429
0.0419436
-0.107744
-1.32644
1.10425
-0.716872
2.09103
0.234311
0.443896
-0.472556
-0.643476
0.640285
-0.162302
-2.57395
-1.13076
1.35916
-2.3405
-2.01731
0.215249
0.379261
0.935408
0.0874888
-0.375878
-1.40734
0.249444
-0.551592
-1.08471
-0.709332
-0.132802
0.594141
0.292125
-0.942677
-0.332324
-0.677888
-0.970828
-0.872052
0.00175069
0.218329
0.833938
0.705185
-0.880433
-0.700107
0.0526105
-0.812116
-0.202977
-0.217062
0.10761
-0.441346
1.04587
0.0058159
1.62412
0.542134
-0.928288
0.688767
-0.425963
-0.133735
-1.30294
0.493092
-0.270607
-0.294083
-1.31142
-1.41693
-0.0466779
0.7239
0.52847
-1.13348
-0.927186
1.02496
-0.902046
-0.648943
-1.23943
-0.32124
-0.152169
0.666648
-1.11252
-0.666471
0.692727
-0.128385
-0.364742
-0.436105
-1.18351
-0.0335421
0.525886
-1.20081
-0.645769
0.112284
0.286879
-0.236225
-0.580219
-0.189644
-0.562167
-0.666361
-0.876892
0.550459
-0.596388
-0.342454
1.49847
-0.0517994
-0.176303
0.369412
-1.14152
-0.225777
-0.18323
-0.0466302
-0.870311
0.368459
1.20775
-0.486495
-0.0186704
-0.917105
-0.854225
0.936593
0.977828
-0.779214
-0.570081
-0.247639
0.839425
0.839315
-0.976515
0.334754
0.961023
-0.879345
-0.217998
-0.166896
0.188671
-1.51589
-0.0422835
-0.591344
-0.718877
-0.338685
0.481125
-1.5447
-0.498028
0.351565
-0.464327
-0.404875
-0.46565
-0.264925
0.806982
-0.46037
-1.34847
-0.844979
-0.328353
-0.221953
-0.340438
0.451848
-0.538867
0.230528
-0.0161321
-0.205732
-0.470332
1.61149
-1.04113
-0.0151679
-0.633066
0.0382326
-1.39392
0.187673
0.172185
-0.883918
-0.167419
-0.792527
-0.193185
0.37921
-0.226576
-0.139739
0.476265
-2.15005
1.87274
-0.508145
0.81164
-0.439121
0.969021
0.995265
-1.31978
-1.96286
1.16632
-0.532706
-1.50983
2.12253
-0.387009
-0.0290374
-0.989102
0.780241
-0.589116
0.672276
0.100046
-0.502316
-1.98265
-0.199828
-0.663379
-2.30884
0.174563
-0.939004
-0.3804
-0.69266
-0.224369
0.254107
-0.688094
-2.03955
0.168909
0.713024
-0.143485
-0.22453
-0.732027
-1.49867
-0.0493852
0.828141
-1.39069
-1.7178
-0.974148
0.960628
1.1339
2.10594
-0.557311
-0.865181
-1.5857
0.193639
0.454132
0.6211
-1.22319
1.47903
0.0643934
-0.143535
0.910351
-0.3665
-0.925842
-0.280206
0.0557878
-0.438322
-0.0277492
-0.728888
-0.517464
0.521109
0.632625
-0.486491
-0.303395
0.173159
0.619282
-0.0651046
-0.571113
0.853356
0.57097
-0.945508
-0.340223
-0.447824
-0.119539
-0.333948
0.0858429
-0.114598
0.377073
-0.316665
-0.627855
-0.647185
0.108222
-0.915161
-0.746145
-1.29595
0.310858
-0.965424
-0.483152
-0.570481
-0.36772
-0.27276
-0.605861
-0.514941
0.710899
0.811573
0.405424
-0.896448
0.0397352
0.972938
0.933809
-0.370676
-0.292784
-1.02704
-0.265073
-0.112564
-0.802301
0.0592807
-0.986063
-0.751039
-0.359552
-0.83591
-0.487777
-0.827312
-0.573586
-0.628077
-0.477927
0.378749
-0.665296
-0.0889104
-0.378267
-0.238597
-0.376457
-0.167872
-0.483835
0.565406
-0.309944
-0.945433
-0.273673
0.865595
0.808405
-1.03841
-0.664975
-0.86548
-1.01039
-0.935537
-0.845103
-0.921572
-0.644362
1.12996
-0.293073
0.427457
-0.339283
-0.551235
-0.181244
-0.128424
0.168149
-0.882662
-0.357567
-0.167255
0.00915824
-0.811637
1.13663
0.555822
-0.131029
-0.848896
-0.816106
-0.200949
0.113664
-0.251148
0.596219
0.400142
1.5463
-0.349119
-0.297616
-0.547771
0.769963
-0.321505
0.196721
0.962317
0.34864
-0.328577
-0.286995
-0.364789
-0.0547385
0.885654
0.113483
-0.678317
-0.270017
-0.0911426
1.05023
0.145976
-0.375432
-0.653592
-0.016442
-1.1357
-0.763194
1.36247
-0.0148852
-0.988547
-1.34247
-0.960978
-0.0645457
-0.176357
-1.70928
-0.95652
1.05297
-0.513784
1.44337
-0.0245923
-0.419072
-0.640633
0.0250718
-0.0464619
0.0848852
-0.28458
-0.215
-0.374376
-0.346325
0.501926
0.087059
0.680282
-0.379748
0.768196
-0.209241
-0.301204
-0.876559
-0.308879
0.272801
-0.155208
-0.810544
-1.06483
0.023124
0.0932188
0.543728
-0.896965
-0.173879
-0.47959
0.772655
-1.00148
-0.46357
0.229594
-0.224915
-0.527047
-0.701572
-0.379753
-0.285195
-0.491262
-0.603815
0.181145
-1.13224
-0.706846
-0.336112
-0.105638
0.61976
-0.144127
-0.367056
-0.0866832
0.0963462
-0.715423
-0.387837
-0.500901
0.112438
-0.426115
-0.456605
0.350544
-0.170685
0.0868656
1.52501
-0.743527
-0.256579
-0.375698
0.00203495
-0.22368
-0.197758
-0.407714
1.0475
-0.498012
0.418593
-0.174647
-0.0267631
-0.423163
0.696258
-0.255224
0.30353
-0.0956028
-0.0518425
-0.192144
0.0576628
-0.515006
-0.478221
0.0751145
-0.0328142
-0.36877
-0.466732
1.10618
0.774795
0.0907025
0.996067
-0.431702
-0.0769849
-0.195377
-1.08236
-0.184178
-0.236902
-0.548996
0.151929
1.0042
0.906766
0.316027
0.0331643
-0.620498
-0.721918
0.404335
-0.208156
0.0206955
-0.76543
1.22655
0.491691
-0.380683
0.265076
0.318505
-0.58123
-0.536019
-0.621615
-0.552721
-0.61686
0.0273904
0.625833
-1.13879
0.380721
-0.462821
0.635229
0.544441
0.844552
-0.5044
0.371997
-0.108869
-0.129181
1.08492
-0.93271
0.0446577
0.49147
-0.589282
-0.0429207
-0.7219
-0.937168
-0.620791
0.756385
-0.54521
-1.22884
0.119833
-0.548152
-0.722858
-0.689282
-0.903184
-0.187311
0.296894
-0.204686
-0.741557
-0.718341
0.19763
0.171827
-0.107371
0.149836
0.247705
-0.508927
-0.379267
0.407099
0.994322
-0.759033
0.132409
-0.88895
0.832926
-0.576739
0.385987
1.21589
-0.575217
-0.751735
-1.82933
-0.128113
-0.117539
0.298962
0.493891
0.00574052
-1.00735
1.47952
-0.20174
-0.823324
-0.986459
0.00342955
-0.53874
-0.344076
-1.07201
1.52801
-0.852772
0.583047
-0.634314
0.520961
-0.222514
-0.8547
-0.969352
0.731855
0.10397
-0.953776
-0.171627
0.765259
0.341226
0.482566
0.148294
-0.564026
0.12411
0.678989
0.494736
0.402622
-0.161557
-1.15889
0.476085
-0.608553
-0.587941
-0.487971
-0.486807
-0.874333
0.685412
-0.255766
0.254426
0.865308
0.334853
-0.364676
-0.77906
-0.262835
0.223806
-0.318619
-0.0759619
-0.710035
-0.641471
-0.38986
-0.468758
-0.677221
-0.584018
0.188176
-0.0684362
-0.19128
-0.138686
-0.299682
-1.09095
-0.148029
-0.813733
-0.259204
-0.299596
0.102971
-0.357956
0.678721
-0.523131
-0.468532
-0.826578
0.232163
-0.732888
0.498397
0.505925
0.108047
0.338383
0.965124
-1.13415
-1.18613
0.672947
-0.597646
0.666936
-0.204513
-0.787987
-0.0223276
0.353946
0.679359
-0.645278
0.557246
-0.353847
0.553727
0.0372382
-1.04988
0.0284806
0.516108
-0.904388
-0.224717
0.192729
0.0581448
-0.757129
1.08405
-0.899946
-0.413033
-1.27171
-0.429081
0.291012
-0.335526
-0.624111
-1.07735
-0.064565
1.0007
-1.88272
-0.148704
-0.0593109
-0.78112
-0.332621
-0.585734
-0.195363
-1.82061
0.207135
0.479214
0.384522
0.0829422
-0.140564
0.799263
-0.0476102
0.36917
-0.730958
-0.051311
0.358332
-0.3771
0.190175
-0.0473871
-1.20422
0.0876763
0.0850304
0.139639
-0.137126
-0.0832779
-0.415774
0.0328166
0.225845
-0.562878
-0.185945
0.456842
-0.726706
0.225515
-0.23083
-0.526779
-0.403886
0.685156
-0.319368
0.0300486
-0.762778
-0.0543579
-0.320758
-0.674321
-0.746969
-0.158456
-0.802289
0.277125
-0.312315
1.0433
-0.316315
-0.241836
-0.0830586
0.245004
-0.428535
-0.224712
-0.322125
-1.22558
0.539121
-2.24404
-0.116414
0.00947577
-2.13613
0.440999
-0.395274
-0.516076
0.242587
-1.8749
-1.01749
1.05678
0.336883
-0.398609
-0.649449
-0.687933
0.0327474
0.165317
0.111696
0.733794
-0.153055
0.388614
0.278189
0.370541
-0.43064
0.427052
-0.539988
-1.17844
-0.548927
0.308202
0.12555
-0.556793
0.0418727
0.060591
0.16561
1.00319
-0.371524
1.07608
0.287297
0.599234
-0.161165
0.0233814
0.0379354
-1.59175
-0.188222
0.239722
0.596534
-1.18728
0.961946
-0.517504
0.27643
1.17829
-0.135398
0.710272
0.140759
-0.569419
-0.38412
0.415261
-0.670208
0.559248
-0.588192
-0.821749
-0.789504
-0.116389
-0.233239
0.515815
-0.0709688
-0.0876579
-0.367541
-0.353528
0.055017
-0.6594
-0.396664
-0.118711
-0.260237
-0.214902
-0.416682
0.393089
-0.25335
-0.552367
-0.356456
-0.301879
-0.67709
0.633696
-0.432167
-0.244072
0.437083
-1.08634
-0.909811
-1.15391
-0.415537
-0.67079
-0.144232
-0.434313
-1.1923
-0.642536
-0.439447
1.14576
0.458384
-1.74204
-0.0641183
-0.232412
-0.810262
0.295184
-0.826195
-0.082327
-0.772741
0.0540641
0.411457
-1.15684
-0.941038
0.23057
-0.308904
-0.0834548
-0.279375
-0.426759
0.245802
0.573617
0.124522
0.415095
-0.262943
-0.527135
-0.162315
0.0735588
-0.751961
-0.408253
-0.546038
-0.267666
0.521393
0.0996252
0.344558
-0.790808
0.470032
0.245634
0.101005
-0.417283
-0.295399
-0.722109
0.324506
0.904103
-0.537388
-0.108559
-1.39861
0.586385
-0.462956
-0.335314
-0.449028
-1.28862
-0.844391
-0.384405
-0.99356
-1.83646
-0.619106
-0.486558
-1.23424
-0.477473
-0.723918
-0.586939
-0.123596
-0.311534
-0.984411
-0.526042
-0.843509
-0.180863
-0.14628
-0.827674
-0.853879
-0.764366
0.249396
-0.320172
-0.613582
-0.733858
-0.760034
-0.78965
-0.755897
-0.154787
-0.17201
-0.191378
-0.443148
-0.394964
-1.02338
-1.07832
-1.12804
-0.533514
-1.05595
-0.471512
-0.526346
-1.26972
-0.0683871
-0.24676
-0.072565
-0.591909
-0.388749
-0.56218
-0.046888
-0.473077
-0.14343
-0.100272
