0.36667
0.2185
0.232802
0.0322243
-0.564083
0.5553
0.447514
-0.183679
0.0468573
0.280627
-0.450465
-0.484928
0.198449
0.258684
0.492173
0.14508
0.368027
0.0804265
-0.444046
-0.321808
-0.683842
0.206836
0.328731
0.239897
-0.369456
-0.231124
-0.343471
0.117952
0.168483
-0.488562
-0.185757
0.569245
0.0409688
-0.395598
0.443121
-0.400846
-0.218879
-0.414642
0.618558
-0.198138
0.0143567
0.320287
-0.445826
-0.471734
0.315234
0.0788035
-0.588155
0.570675
-0.378471
-0.158428
0.0386716
0.524593
0.139518
0.0353617
-0.364301
0.0592703
-0.180108
-0.242617
0.119558
-0.235554
0.396328
0.191346
0.439641
-0.311359
0.335008
-0.136246
0.357231
-0.452785
-0.175027
0.34198
0.117146
-0.622392
-0.288074
0.27992
0.0101241
-0.0837332
-0.174349
-0.279342
0.0953734
0.409143
0.451513
0.391015
0.0790755
-0.089737
-0.410828
0.027937
-0.463298
0.246618
-0.213066
-0.12943
0.0276982
-0.342105
0.297755
0.155811
0.300966
-0.0297317
-0.0542264
-0.205047
-0.277265
0.00719757
0.26667
-0.3815
0.432802
-0.0677757
-0.464083
0.0553005
0.247514
-0.483679
0.0468573
-0.0193729
0.149535
0.215072
-0.501551
-0.441316
-0.00782698
0.14508
-0.331973
-0.419573
0.0559542
0.578192
-0.183842
0.206836
-0.371269
-0.0601031
0.230544
-0.431124
0.256529
0.617952
0.0684833
0.0114376
0.314243
-0.430755
-0.259031
-0.295598
-0.0568792
-0.000845531
-0.218879
-0.314642
0.318558
-0.598138
-0.185643
0.520287
0.454174
-0.471734
-0.384766
0.178804
-0.188155
0.470675
0.521529
-0.358428
-0.261328
-0.375407
-0.460482
-0.364638
-0.564301
-0.24073
-0.780108
0.357383
0.0195585
-0.235554
-0.503672
0.0913457
-0.0603592
0.188641
0.135008
-0.536246
0.357231
0.147215
-0.475027
0.0419803
-0.382854
-0.222392
-0.288074
0.37992
0.0101241
0.316267
0.125651
-0.379342
0.295373
0.00914285
-0.148487
0.291015
0.379076
-0.289737
-0.510828
-0.472063
-0.463298
0.346618
0.486934
0.17057
-0.172302
0.0578947
0.197755
-0.244189
0.500966
0.370268
0.445774
-0.00504675
0.222735
0.107198
0.0666696
-0.2815
-0.267198
0.0322243
0.235917
-0.2447
0.0475143
-0.483679
0.0468573
0.180627
-0.0504655
0.215072
-0.00155084
0.258684
0.192173
-0.35492
-0.131973
0.380427
-0.0440458
-0.221808
0.316158
-0.0931644
0.428731
0.0398969
-0.369456
0.0688758
-0.143471
0.217952
-0.331517
0.211438
0.414243
-0.330755
0.140969
-0.0955982
-0.256879
0.499154
0.0811208
-0.514642
0.318558
-0.298138
-0.285643
-0.379713
0.054174
0.0282656
0.515234
0.478804
-0.288155
0.170675
0.421529
-0.458428
0.0386716
-0.475407
0.339518
-0.164638
0.335699
0.25927
-0.280108
0.257383
0.0195585
-0.0355541
-0.403672
-0.408654
-0.260359
-0.611359
-0.364992
-0.136246
-0.442769
0.0472155
-0.475027
0.14198
-0.382854
0.0776078
0.111926
0.37992
-0.0898759
0.116267
0.125651
-0.379342
0.295373
-0.490857
-0.348487
-0.408985
-0.320924
-0.189737
0.489172
-0.372063
0.336702
0.146618
0.186934
0.47057
-0.472302
0.157895
0.497755
-0.144189
0.500966
0.0702683
-0.454226
-0.405047
0.522735
0.307198
0.26667
-0.2815
0.332802
0.332224
-0.464083
0.2553
0.547514
-0.183679
0.346857
-0.419373
-0.350465
-0.184928
-0.501551
-0.0413165
0.392173
0.44508
-0.431973
-0.219573
0.155954
-0.121808
0.216158
-0.493164
0.328731
-0.0601031
-0.469456
-0.431124
-0.043471
0.217952
0.368483
0.0114376
-0.385757
-0.130755
0.0409688
-0.295598
0.143121
-0.100846
0.481121
0.385358
-0.181442
0.00186152
-0.585643
0.320287
0.054174
0.328266
-0.0847659
-0.421196
-0.488155
0.370675
0.0215289
0.141572
-0.461328
0.224593
0.239518
0.135362
-0.164301
-0.24073
0.119892
0.157383
-0.0804415
-0.135554
-0.303672
-0.00865432
0.139641
-0.211359
0.0350077
-0.536246
0.0572307
-0.152785
-0.475027
0.0419803
-0.0828538
0.277608
-0.288074
0.37992
0.310124
0.0162668
0.325651
-0.479342
-0.504627
0.309143
-0.348487
-0.508985
-0.320924
-0.089737
0.389172
0.027937
-0.163298
-0.253382
-0.213066
0.37057
-0.0723018
0.257895
0.397755
-0.444189
0.200966
0.370268
-0.0542264
0.0949532
0.422735
0.407198
-0.13333
0.5185
-0.467198
-0.367776
-0.564083
-0.1447
-0.452486
-0.0836792
-0.253143
-0.419373
0.0495345
-0.284928
-0.101551
-0.541316
0.492173
0.14508
-0.331973
-0.119573
-0.344046
-0.421808
-0.683842
-0.293164
-0.471269
0.139897
-0.269456
0.168876
0.356529
-0.182048
-0.231517
0.311438
-0.285757
0.0692447
-0.259031
0.204402
-0.156879
0.499154
0.0811208
-0.214642
-0.381442
-0.0981385
-0.385643
0.520287
-0.345826
-0.171734
0.0152341
0.0788035
0.211845
0.370675
-0.478471
-0.358428
0.238672
0.224593
0.239518
0.335362
0.435699
-0.34073
-0.480108
-0.342617
0.119558
0.164446
-0.203672
-0.508654
-0.360359
-0.0113591
-0.564992
-0.336246
0.0572307
-0.352785
0.224973
-0.15802
-0.482854
-0.0223922
0.111926
0.17992
-0.0898759
-0.283733
0.125651
-0.479342
-0.304627
0.409143
0.0515132
0.0910154
0.379076
-0.289737
-0.210828
-0.472063
-0.163298
0.146618
-0.213066
-0.0294297
-0.372302
-0.0421053
0.297755
0.555811
-0.299034
0.0702683
0.545774
-0.405047
0.322735
-0.192802
0.36667
0.3185
-0.467198
-0.167776
-0.264083
0.3553
0.547514
0.316321
0.146857
0.480627
0.249535
-0.184928
0.398449
-0.541316
-0.107827
0.44508
-0.231973
0.0804265
0.355954
0.178192
-0.583842
-0.393164
0.528731
0.0398969
-0.469456
-0.331124
-0.043471
0.117952
0.0684833
0.111438
0.0142434
-0.230755
0.440969
0.304402
-0.256879
0.0991545
0.581121
-0.014642
-0.281442
0.201862
0.114357
0.020287
-0.145826
0.528266
-0.484766
-0.221196
0.411845
0.470675
-0.0784711
0.241572
-0.161328
-0.0754075
0.439518
-0.364638
0.435699
0.15927
-0.180108
-0.342617
0.319558
0.264446
-0.403672
-0.00865432
0.339641
-0.511359
-0.0649923
0.463754
-0.442769
0.547215
-0.175027
0.14198
-0.0828538
0.377608
0.0119261
-0.0200795
-0.289876
0.516267
-0.174349
0.220658
-0.00462658
0.309143
0.551513
-0.408985
-0.420924
-0.189737
0.189172
0.427937
0.236702
-0.453382
0.386934
-0.0294297
0.527698
-0.242105
-0.402245
-0.244189
-0.199034
0.370268
-0.354226
0.194953
0.122735
0.307198
-0.536171
-0.181441
0.157593
-0.0672773
-0.284104
0.470947
-0.293282
-0.489019
-0.144919
-0.184234
-0.55574
-0.0854264
0.394502
-0.475436
0.255555
0.182875
-0.43364
-0.180398
0.35707
0.376266
-0.341443
0.289009
-0.267251
0.441285
-0.265659
0.0699505
0.0376038
-0.178919
-0.128969
-0.206425
-0.285628
-0.155434
-0.158997
0.469088
0.422623
-0.321467
-0.0127764
-0.172893
0.610854
-0.0794964
-0.599206
-0.478834
0.0483079
-0.114665
0.512431
0.183461
0.256752
0.213561
0.125504
0.230087
0.460984
0.301462
0.306153
-0.464651
-0.29561
0.50073
-0.568586
-0.437198
-0.308471
-0.338524
-0.654219
-0.111207
0.0499507
-0.323604
0.344706
-0.536677
0.492844
0.0332973
0.153359
0.530625
0.404922
-0.322374
0.0932838
0.613679
0.0129574
0.111285
0.298448
0.117534
0.289753
0.169257
0.449138
-0.408986
-0.210932
-0.384069
0.385259
0.525814
0.0182358
0.334866
-0.175868
0.370365
0.231933
-0.293458
0.534037
0.499392
-0.192083
0.581732
-0.465159
-0.320933
0.0983707
0.407098
0.363829
0.118559
-0.442407
0.0327227
-0.0841036
0.570947
0.306718
-0.389019
-0.244919
0.0157658
0.0442598
-0.385426
-0.105498
0.424564
-0.244445
-0.517125
0.0663601
0.419602
-0.44293
-0.323734
-0.341443
-0.410991
0.132749
-0.0587149
0.0343407
-0.43005
0.437604
0.621081
0.0710309
-0.206425
0.314372
0.144566
0.141003
-0.130912
-0.377377
-0.121467
0.487224
0.0271069
0.210854
0.220504
-0.199206
-0.478834
-0.451692
0.585335
0.412431
-0.216539
-0.0432484
0.113561
-0.374496
-0.369913
-0.0390163
-0.0985376
-0.393847
-0.264651
0.30439
0.000729984
0.131414
-0.337198
0.291529
-0.238524
-0.254219
-0.011207
-0.0500493
0.0763964
0.144706
-0.536677
0.592844
0.433297
-0.346641
-0.369375
0.104922
-0.122374
-0.106716
-0.0863208
0.412957
0.511285
-0.401552
0.117534
0.489753
0.469257
0.149138
-0.508986
0.0890681
-0.484069
-0.114741
-0.0741862
0.218236
-0.365134
0.324132
0.170365
0.0319326
-0.293458
-0.265963
-0.100608
0.307917
-0.318268
0.434841
-0.320933
0.298371
0.107098
-0.336171
0.218559
0.457593
-0.367277
-0.0841036
-0.0290535
0.606718
0.410981
-0.444919
-0.484234
0.34426
0.0145736
-0.00549794
0.0245636
-0.144445
0.282875
-0.43364
-0.180398
-0.54293
0.476266
0.258557
-0.0109915
-0.0672506
-0.0587149
0.0343407
0.46995
0.337604
0.321081
-0.0289691
-0.406425
-0.0856282
0.444566
-0.158997
-0.130912
0.422623
0.0785332
-0.412776
0.127107
0.210854
-0.479496
-0.599206
0.421166
-0.151692
0.585335
0.112431
0.283461
-0.343248
-0.386439
-0.0744955
0.330087
-0.139016
-0.498538
-0.193847
0.0353488
-0.39561
-0.29927
0.331414
-0.337198
-0.208471
0.261476
0.245781
0.288793
-0.0500493
-0.523604
-0.255294
0.463323
0.392844
0.533297
-0.246641
-0.269375
0.404922
-0.322374
0.493284
-0.386321
-0.287043
-0.288715
-0.601552
-0.382466
0.389753
-0.130743
0.149138
0.491014
0.0890681
-0.384069
0.185259
0.425814
-0.481764
0.0348664
-0.175868
-0.029635
-0.168067
-0.0934579
0.134037
-0.000607792
0.107917
-0.218268
-0.265159
-0.220933
-0.301629
0.307098
-0.336171
-0.181441
-0.142407
0.532723
-0.484104
0.170947
0.00671831
0.410981
0.155081
0.415766
0.24426
-0.0854264
-0.205498
-0.375436
-0.344445
-0.417125
-0.0336399
0.219602
-0.24293
0.176266
-0.141443
0.489009
-0.367251
0.441285
0.234341
-0.23005
0.437604
0.121081
-0.328969
0.193575
-0.385628
0.0445664
0.241003
0.369088
-0.177377
-0.421467
-0.112776
-0.572893
-0.189146
-0.0794964
0.100794
-0.278834
-0.151692
-0.0146651
0.312431
-0.316539
0.156752
0.413561
0.225504
0.130087
-0.339016
-0.198538
0.206153
0.0353488
-0.0956102
-0.39927
-0.068586
-0.137198
0.0915285
0.161476
-0.254219
-0.111207
-0.0500493
0.176396
0.444706
-0.236677
0.592844
0.333297
0.553359
0.530625
-0.0950781
-0.522374
0.493284
0.613679
0.0129574
-0.188715
-0.201552
0.317534
0.289753
-0.0307428
-0.450862
-0.308986
-0.310932
0.315931
0.085259
-0.0741862
0.218236
0.634866
0.224132
-0.229635
0.131933
0.506542
0.534037
-0.500608
-0.0920834
0.481732
-0.0651586
0.279067
0.498371
0.00709831
-0.33333
0.4185
0.232802
0.0322243
-0.564083
0.3553
-0.252486
0.316321
-0.453143
0.380627
-0.250465
0.415072
0.398449
0.458684
0.592173
-0.35492
0.268027
-0.419573
0.455954
-0.0218083
-0.383842
0.106836
-0.471269
0.139897
-0.369456
-0.531124
-0.043471
0.117952
0.0684833
0.311438
0.0142434
0.169245
-0.359031
0.00440185
-0.156879
-0.200846
0.181121
-0.014642
-0.281442
0.301862
-0.385643
-0.279713
-0.445826
-0.371734
0.515234
0.0788035
0.411845
-0.0293249
0.121529
0.0415721
0.238672
-0.0754075
0.0395185
-0.464638
-0.0643014
0.15927
0.219892
-0.142617
-0.480442
0.164446
-0.503672
-0.108654
0.439641
0.188641
0.235008
-0.0362463
0.0572307
-0.352785
-0.175027
0.0419803
0.217146
0.377608
-0.188074
0.0799205
-0.489876
-0.0837332
0.125651
0.420658
-0.404627
-0.290857
-0.0484868
-0.308985
-0.420924
0.210263
0.489172
0.027937
-0.263298
0.246618
0.0869339
-0.32943
-0.272302
-0.242105
-0.202245
0.0558108
-0.199034
-0.329732
0.0457736
-0.105047
-0.477265
0.207198
-0.23333
-0.0815001
-0.0671981
-0.367776
-0.164083
0.2553
-0.252486
-0.183679
0.246857
0.280627
-0.150465
0.315072
-0.501551
-0.441316
-0.107827
0.44508
0.268027
-0.219573
-0.544046
0.178192
-0.183842
0.406836
0.0287305
0.539897
0.230544
0.368876
0.156529
0.417952
0.168483
0.0114376
0.0142434
-0.130755
-0.0590312
0.304402
0.343121
0.499154
0.0811208
0.285358
0.318558
-0.498138
-0.585643
0.420287
-0.045826
0.0282656
0.0152341
0.178804
0.111845
0.370675
-0.278471
0.241572
0.338672
0.224593
0.139518
0.335362
0.335699
-0.14073
-0.680108
-0.542617
0.219558
0.264446
-0.403672
-0.00865432
0.339641
-0.511359
-0.264992
-0.0362463
0.257231
0.447215
-0.175027
-0.0580197
-0.0828538
-0.0223922
0.411926
0.37992
0.310124
-0.383733
0.425651
-0.179342
-0.00462658
-0.490857
0.251513
0.291015
0.179076
0.410263
-0.110828
-0.372063
0.536702
-0.253382
-0.113066
0.17057
-0.372302
-0.442105
-0.202245
-0.144189
-0.299034
-0.429732
0.245774
0.294953
0.222735
-0.0928024
0.26667
-0.0815001
0.332802
0.0322243
-0.464083
-0.1447
-0.252486
0.416321
-0.0531427
-0.0193729
-0.150465
0.015072
0.198449
-0.541316
0.092173
-0.0549197
0.368027
0.0804265
-0.0440458
0.578192
0.216158
-0.393164
0.328731
-0.0601031
0.0305438
0.468876
-0.143471
0.617952
-0.531517
-0.588562
-0.585757
0.0692447
0.340969
-0.0955982
-0.256879
0.399154
-0.318879
-0.414642
-0.0814418
0.201862
0.0143567
-0.279713
-0.245826
0.0282656
0.415234
0.178804
0.311845
0.170675
-0.378471
-0.0584279
0.438672
0.0245925
0.139518
-0.0646383
0.235699
0.15927
0.219892
0.357383
-0.0804415
0.364446
-0.503672
0.291346
-0.460359
0.388641
-0.264992
0.263754
0.357231
-0.452785
-0.175027
-0.35802
-0.482854
0.277608
0.111926
0.27992
-0.189876
0.216267
0.125651
-0.479342
-0.204627
-0.0908571
-0.148487
-0.508985
0.0790755
-0.089737
0.089172
-0.472063
0.536702
0.0466182
-0.213066
0.47057
0.127698
0.0578947
-0.502245
0.0558108
0.200966
0.170268
0.345774
0.294953
0.222735
0.407198
-0.53333
0.2185
-0.167198
0.332224
0.435917
0.4553
0.347514
-0.483679
0.346857
0.0806271
-0.0504655
-0.384928
0.398449
0.0586835
-0.307827
-0.15492
0.368027
0.380427
0.155954
-0.421808
0.216158
0.306836
0.228731
-0.360103
-0.269456
-0.0311242
-0.143471
0.317952
0.368483
0.311438
0.414243
0.269245
0.140969
0.00440185
-0.0568792
0.199154
0.0811208
-0.014642
-0.281442
-0.598138
-0.285643
0.020287
0.354174
0.528266
-0.484766
-0.121196
0.0118451
0.370675
-0.278471
-0.258428
-0.0613284
-0.475407
0.339518
-0.464638
-0.364301
0.35927
-0.380108
-0.0426166
0.219558
-0.335554
-0.00367217
0.191346
0.0396408
-0.211359
0.435008
0.0637537
-0.342769
-0.352785
0.524973
0.54198
0.117146
0.0776078
-0.0880739
-0.32008
-0.0898759
-0.0837332
0.125651
-0.579342
-0.404627
0.209143
-0.148487
-0.308985
-0.0209245
-0.489737
-0.410828
0.327937
0.236702
0.146618
-0.213066
-0.42943
0.427698
-0.242105
0.397755
0.255811
-0.199034
0.470268
0.145774
0.494953
-0.477265
0.207198
-0.13333
0.5185
-0.167198
0.332224
-0.164083
0.0553005
-0.352486
-0.0836792
-0.453143
0.280627
-0.450465
-0.384928
-0.301551
0.258684
-0.107827
0.44508
0.268027
0.180427
0.255954
-0.121808
-0.0838422
-0.293164
0.428731
0.339897
0.430544
-0.431124
-0.443471
0.617952
0.268483
-0.588562
-0.385757
-0.230755
-0.259031
-0.195598
-0.0568792
0.0991545
0.381121
0.385358
-0.181442
0.101862
-0.285643
-0.379713
-0.045826
0.0282656
-0.184766
-0.121196
-0.288155
-0.429325
-0.478471
-0.558428
0.0386716
0.0245925
0.0395185
-0.364638
-0.264301
0.35927
-0.680108
0.457383
0.519558
-0.335554
-0.303672
0.0913457
0.339641
0.188641
-0.364992
-0.336246
-0.0427693
0.247215
-0.475027
0.0419803
0.217146
-0.322392
0.311926
-0.22008
-0.489876
-0.0837332
-0.0743491
0.320658
0.495373
-0.490857
0.351513
-0.00898461
-0.220924
-0.289737
-0.310828
0.127937
0.136702
-0.453382
0.186934
-0.32943
0.427698
-0.142105
0.0977548
0.0558108
0.000965684
0.470268
0.245774
-0.305047
0.522735
0.507198
-0.13333
0.2185
0.432802
0.332224
-0.0640828
-0.0446995
0.347514
-0.583679
-0.0531427
0.180627
0.149535
-0.084928
0.498449
0.358684
-0.307827
-0.15492
-0.231973
0.180427
-0.444046
0.178192
-0.0838422
0.00683564
-0.371269
-0.360103
-0.469456
0.0688758
-0.143471
-0.282048
-0.431517
-0.188562
0.214243
-0.130755
-0.259031
0.504402
-0.0568792
-0.300846
0.281121
-0.314642
-0.181442
-0.198138
-0.585643
-0.179713
0.354174
0.228266
0.0152341
-0.421196
-0.388155
-0.329325
-0.0784711
0.141572
-0.161328
-0.275407
-0.160482
0.535362
0.135699
-0.14073
0.119892
-0.242617
0.0195585
-0.435554
0.196328
0.391346
0.439641
0.0886409
-0.364992
-0.336246
0.557231
-0.152785
0.424973
-0.25802
0.0171462
0.377608
0.0119261
0.27992
-0.289876
0.116267
0.325651
-0.479342
0.195373
0.109143
0.151513
-0.108985
-0.520924
-0.089737
0.289172
0.227937
-0.263298
-0.153382
-0.213066
0.17057
-0.472302
0.357895
-0.302245
0.155811
-0.199034
-0.129732
0.545774
-0.305047
-0.077265
0.307198
-0.43333
-0.0815001
-0.0671981
-0.467776
-0.164083
-0.0446995
0.547514
-0.283679
-0.353143
-0.219373
-0.250465
0.515072
0.198449
-0.0413165
-0.00782698
-0.25492
-0.331973
-0.319573
-0.544046
-0.321808
-0.183842
0.306836
-0.371269
-0.460103
-0.269456
0.468876
0.356529
0.217952
-0.531517
0.411438
-0.485757
-0.330755
0.540969
0.304402
-0.356879
0.499154
-0.418879
0.485358
0.618558
0.00186152
-0.485643
-0.479713
-0.145826
-0.371734
-0.184766
0.278804
0.0118451
0.370675
-0.0784711
0.0415721
-0.161328
0.324593
0.139518
-0.464638
-0.564301
-0.0407297
-0.280108
-0.0426166
-0.380442
0.0644459
-0.103672
0.291346
-0.360359
-0.511359
-0.564992
0.363754
0.357231
-0.0527845
-0.175027
-0.0580197
0.217146
-0.322392
-0.488074
0.17992
-0.189876
-0.283733
-0.174349
0.120658
-0.00462658
0.109143
-0.348487
0.291015
0.379076
-0.389737
0.389172
-0.172063
-0.0632982
0.446618
0.286934
0.0705703
-0.172302
-0.242105
0.397755
0.155811
-0.299034
0.370268
0.545774
-0.00504675
0.522735
0.507198
-0.0333304
-0.4815
-0.0671981
-0.167776
-0.564083
-0.3447
0.247514
-0.0836792
-0.453143
0.280627
-0.150465
0.415072
-0.501551
-0.141316
0.192173
0.44508
0.0680272
-0.419573
-0.544046
-0.321808
0.116158
-0.493164
-0.471269
0.539897
-0.469456
0.268876
0.156529
-0.282048
-0.331517
-0.388562
-0.285757
0.369245
0.240969
0.204402
-0.556879
0.199154
0.381121
-0.314642
0.418558
-0.498138
-0.385643
-0.279713
-0.345826
0.428266
-0.484766
0.178804
0.311845
0.170675
0.321529
0.141572
-0.161328
0.324593
0.339518
0.235362
-0.264301
0.35927
-0.680108
-0.442617
0.519558
0.264446
-0.00367217
0.191346
0.239641
-0.311359
-0.564992
0.163754
-0.142769
0.147215
-0.0750271
-0.45802
0.417146
-0.522392
0.511926
-0.0200795
0.110124
0.516267
-0.374349
-0.0793423
0.495373
0.109143
-0.248487
-0.208985
0.179076
-0.289737
0.189172
0.127937
0.0367018
0.0466182
-0.0130661
-0.0294297
0.127698
-0.142105
0.0977548
0.555811
0.100966
-0.329732
0.145774
0.394953
0.522735
0.307198
-0.334759
-0.381297
0.0280856
0.303317
-0.165579
-0.0501692
0.0360385
-0.0767652
0.546681
-0.519172
0.154948
0.0118672
0.500007
-0.441373
0.593667
0.346712
-0.234258
-0.0172954
0.0339523
0.274746
0.014891
-0.0987352
-0.373728
0.339539
0.229431
-0.034202
0.355148
0.303333
-0.0326851
-0.461802
0.12343
0.261277
-0.160279
-0.281173
-0.556586
0.50073
0.289109
0.0785203
-0.1822
-0.614098
0.319013
0.52282
0.354573
-0.274471
0.215373
-0.226405
-0.186478
-0.323662
0.0177251
0.351079
-0.0710534
-0.476018
-0.160608
-0.0646095
0.432155
0.453141
-0.67819
-0.244699
-0.280663
-0.435587
0.397738
0.386267
0.529982
0.285444
0.143099
-0.339673
0.553146
0.446182
0.223127
-0.15898
0.0226585
-0.122379
-0.0921952
-0.0184829
-0.486368
-0.285225
0.0254601
-0.278156
0.094225
-0.0884128
0.153942
0.0910045
-0.415643
0.497117
-0.210101
0.331407
0.125206
0.148119
0.386485
0.471133
-0.274682
0.265799
0.102251
0.0682157
0.500838
-0.0297732
-0.2523
0.508724
0.0190878
-0.290184
-0.13533
-0.409791
-0.0693212
-0.0911479
0.342727
-0.128828
0.385313
0.227967
0.0471538
-0.258817
-0.148933
-0.202814
0.498696
-0.144101
-0.120667
-0.546636
0.265096
-0.113454
-0.418282
0.0821609
-0.385589
0.330782
0.52646
-0.461673
-0.373107
0.0203472
-0.325969
0.222639
0.173029
-0.0623887
0.0352078
0.140418
0.358672
0.500483
-0.552308
-0.400899
0.250822
0.318379
-0.176471
-0.297679
-0.510877
0.122004
0.461955
-0.350297
0.205254
0.0623714
-0.483225
0.361359
-0.286542
0.427764
-0.377094
0.0191322
0.543988
0.133432
-0.162573
-0.34314
-0.436536
-0.235314
-0.270293
-0.235141
-0.512265
-0.526378
0.0221096
0.346536
0.490198
0.292845
0.272362
-0.256961
0.466147
-0.0577516
0.0232543
-0.129449
-0.459011
-0.250209
0.469848
-0.036416
0.18517
-0.183373
-0.505673
0.174579
-0.442145
-0.206771
0.409832
0.31485
-0.303105
0.178466
-0.366324
0.146579
-0.50697
0.0612571
-0.0522143
-0.372301
-0.216596
0.527891
-0.486171
0.408714
-0.33452
0.185725
-0.386486
-0.487806
0.24761
-0.26693
-0.250999
-0.431784
0.416798
0.171182
-0.104497
0.0138296
-0.453914
-0.498535
-0.517477
-0.0871254
-0.0334121
0.0583998
0.0372758
0.0473108
-0.451472
-0.353009
-0.178944
-0.387021
-0.634495
-0.391021
0.300694
-0.0560493
-0.520825
-0.171998
0.481912
0.244217
-0.544075
-0.394897
-0.321731
0.487164
-0.0853806
0.313753
0.270817
-0.200373
0.469297
-0.0263606
-0.196524
-0.170605
0.00893569
0.00825734
-0.33302
-0.243613
0.490921
-0.306595
-0.377123
0.213499
0.105026
-0.30368
-0.431682
0.478005
0.401908
0.100273
0.455557
-0.393414
-0.119888
0.323337
0.524866
0.362932
-0.475297
-0.568628
-0.503177
0.00560318
0.270652
0.457837
0.571271
-0.380594
0.625819
0.146835
-0.317799
0.285758
-0.288411
0.496979
0.538414
-0.201015
-0.184044
-0.339334
0.487182
0.222592
0.147158
-0.306729
0.469932
-0.00350096
0.0526199
0.0299935
-0.437802
0.075437
-0.514035
-0.163354
0.398542
0.015844
0.155743
-0.262697
0.413116
0.171231
-0.18996
-0.223514
-0.524862
0.0860663
-0.381533
0.606628
-0.37505
-0.467399
0.257106
0.368206
0.174528
0.3982
0.577322
-0.470535
0.219147
0.0325254
-0.501333
-0.385036
-0.0769619
-0.0752294
0.32799
-0.278325
-0.10522
0.528413
-0.449101
-0.394272
-0.165813
-0.0580272
-0.119446
0.235819
-0.34854
0.531805
-0.319455
0.375427
-0.0771265
-0.378432
0.413563
-0.461857
-0.564625
-0.179485
0.210746
-0.419002
-0.233446
-0.429596
0.263088
-0.397987
0.172082
-0.180882
0.178579
-0.495445
-0.3489
0.459136
0.540208
-0.681894
-0.00436126
-0.247557
0.258659
0.0898407
0.0925717
0.643461
-0.10173
0.155437
-0.155858
0.0436744
0.382896
-0.503484
0.275032
-0.195676
0.148197
-0.294165
0.500672
0.384962
0.573533
0.135881
-0.178035
0.191373
0.417503
-0.398334
-0.133942
0.290051
0.478923
-0.261223
-0.33774
0.299563
0.570682
0.193319
0.935235
0.133007
0.515374
0.37346
-0.480629
0.426341
-0.374469
0.368848
0.438729
-0.499781
-0.54924
-0.193782
-0.0778877
0.107624
0.143873
0.217037
0.110521
0.410051
-0.0604393
-0.319868
0.111096
0.158045
-0.27766
-0.44941
0.118447
0.109254
-0.186291
-0.0271537
-0.498985
-0.201191
-0.480816
0.14558
-0.372029
-0.59101
0.480602
0.326076
-0.0113754
0.488707
-0.337288
0.402087
0.335964
-0.291808
0.165726
-0.511975
0.31942
0.283877
-0.405748
-0.126732
-0.507287
-0.274392
0.109471
-0.13593
0.372386
-0.243671
-0.0721474
0.521661
0.243464
-0.229515
-0.225745
-0.342622
-0.338142
0.648853
-0.295301
0.419792
0.484277
-0.678673
-0.209826
-0.787216
0.100747
-0.0983707
-0.206746
-0.368921
0.193588
0.550566
0.0643266
0.124012
-0.450416
0.228643
0.391347
0.0831741
0.4469
0.584726
-0.0564543
-0.405048
-0.0740785
-0.478727
-0.0548557
0.159137
-0.0464654
-0.320187
0.049029
0.427644
0.535188
0.261059
-0.506154
0.372447
0.429621
-0.262984
-0.0267878
-0.308025
0.58984
-0.0360406
0.121026
-0.533084
-0.0519129
0.497878
-0.208259
-0.0435294
0.535265
0.338322
-0.245958
-0.248863
0.36134
-0.021717
-0.206817
-0.483444
-0.155904
-0.148426
-0.132182
-0.310337
-0.256397
0.145717
-0.305413
0.0255609
0.827599
0.0727085
0.385325
-0.065775
0.064564
-0.537928
-0.248263
-0.506419
0.0228961
-0.65188
-0.0570137
0.0685836
0.365452
0.0266502
-0.0300684
-0.431201
0.242612
-0.442963
0.176926
0.436924
-0.445918
0.0295315
0.160968
-0.292877
0.231121
-0.0536422
-0.250678
-0.196522
0.221524
0.233224
0.198152
-0.248049
-0.411245
0.472556
0.154296
-0.128855
-0.153403
0.314476
0.409435
0.156047
0.60885
-0.452842
0.355667
0.00716892
-0.00618278
-0.544741
-0.278534
-0.0683195
0.351842
0.145893
0.0749693
0.140357
-0.378736
0.116191
0.336039
-0.304299
-0.460332
-0.320781
0.975608
0.495456
0.0283442
-0.309236
0.550307
-0.491862
0.082901
-0.0634064
0.0435035
0.713677
0.856865
0.344411
-0.0991706
-0.617447
0.443581
-0.752395
0.399237
-0.00679648
0.490318
0.302305
-0.0097613
-0.473046
0.255333
0.133424
-0.31256
0.175715
-0.309495
-0.544867
0.392941
0.0337522
-0.551506
-0.0981855
-0.211938
-0.305609
0.458617
-0.233383
0.143142
-0.266806
0.64326
-0.133138
-0.32888
-0.276443
0.21301
0.318659
-0.516186
-0.294596
-0.371179
-0.535029
0.113268
0.290659
-0.0296755
0.196981
-0.487408
-0.391663
0.55074
-0.00124772
-0.11317
0.169657
-0.488413
-0.265046
-0.572219
0.00177667
-0.228552
-0.0472558
0.143348
-0.391124
-0.100075
-0.40871
0.152753
-0.702366
0.446376
-0.323779
-0.203073
0.111091
-0.390445
-0.261689
-0.187064
-0.29275
-0.502757
0.694305
-0.510407
-0.547678
0.65915
-0.555005
0.183547
-0.729623
0.580847
0.442686
-0.449036
-0.162465
-0.00869345
0.584596
0.508697
0.447701
0.0807804
-0.476638
0.406085
-0.317971
-0.156973
-0.0273108
0.661292
-0.130806
0.12265
0.148258
0.152969
0.206709
-0.0410173
0.461914
-0.356482
-0.0514592
0.207505
-0.181036
-0.115042
-0.070374
-0.463132
-0.263952
-0.242894
-0.108974
-0.0585262
-0.104608
0.390941
0.20959
-0.621853
0.104689
0.356356
-0.187308
-0.0167303
0.400855
0.457015
-0.596566
0.45936
-0.337049
-0.381002
0.0151755
0.381754
-0.32894
0.0732955
0.00972755
0.474518
0.400116
0.10738
-0.375724
-0.0943431
-0.590888
-0.269045
0.603569
0.00807415
0.460174
0.265994
0.181427
-0.674723
-0.224088
-0.112162
0.297282
-0.170271
-0.399614
-0.402749
0.121071
-0.210249
0.622097
-0.0472033
-0.445091
-0.122134
-0.226691
0.318448
0.442785
-0.208888
-0.00603052
0.516842
0.414314
0.399377
0.160935
0.14123
0.228495
-0.0869625
0.347864
-0.256632
-0.390616
0.324133
-0.256553
0.297911
-0.370316
0.632897
-0.315848
0.0193212
-0.166539
0.343956
-0.243723
-0.0911916
0.0335773
-0.0418146
0.636747
0.195374
0.333131
0.252567
0.424424
0.0471418
0.377276
-0.153475
0.371093
-0.156095
0.164377
-0.282913
0.324127
0.0477378
-0.492365
0.415043
-0.00414583
0.466046
0.099849
-0.478066
-0.0958731
0.0126909
0.0952117
-0.237488
-0.748165
-0.501653
0.0911665
0.679259
0.0649085
0.113583
-0.145857
-0.374237
-0.363623
-0.432415
0.0711299
0.0569265
0.3298
0.39256
-0.186858
0.512681
-0.296846
0.129843
-0.111759
0.329303
-0.336768
0.350152
-0.476172
0.40521
0.0554736
-0.490981
-0.343815
-0.166205
-0.146464
0.555868
-0.433724
0.370667
0.372721
-0.0107334
-0.0891752
-0.328208
-0.436934
0.195566
0.101344
-0.184951
-0.248796
-0.341607
0.123084
0.0593176
-0.254005
-0.475209
-0.444541
0.00200076
0.320736
-0.239846
-0.0995853
-0.00135661
-0.0883585
0.417399
-0.0799497
0.236861
0.205421
0.390668
-0.182547
0.170619
0.141317
-0.460411
-0.00333405
0.449119
0.0913172
0.0934706
0.366376
0.38921
0.12679
0.138852
0.00393692
-0.172385
0.246601
0.15717
-0.0758772
-0.269399
0.554499
0.285036
0.241318
0.103824
-0.260039
-0.566616
0.445894
0.113739
-0.438296
0.0918922
-0.351221
0.624896
0.111738
-0.375098
0.438333
-0.0725731
0.187911
-0.0482388
-0.285439
0.431987
-0.0947469
-0.200736
0.119727
-0.115718
-0.0532698
0.0197929
-0.30702
-0.0203796
0.0720277
-0.301304
-0.509563
-0.426936
0.0090047
-0.299249
-0.444841
-0.297354
0.0388791
-0.101181
-0.354909
-0.491605
-0.122152
-0.0756368
-0.585884
0.285397
-0.241527
0.332346
-0.487779
0.278156
-0.241415
-0.246823
0.0894941
0.449435
0.49159
0.0531344
-0.0477299
0.0596685
-0.398257
-0.437495
0.35031
-0.476309
-0.0234412
0.308699
0.0719113
-0.239605
-0.40807
0.0862907
0.000306296
0.525606
-0.0511269
-0.154655
-0.324699
-0.455074
0.468735
0.236979
-0.284602
-0.411662
0.40701
-0.0869944
0.136371
-0.529391
0.482666
0.484301
0.340396
0.482551
-0.663959
-0.520876
0.387148
-0.227819
0.238052
-0.204576
0.42423
-0.507241
-0.515715
-0.274154
-0.304101
0.607595
-0.0411461
-0.326731
0.000137419
0.42289
0.197347
-0.424587
-0.21975
-0.247357
0.158653
-0.603803
0.291567
0.159065
-0.138162
0.148818
0.112207
0.40048
0.367457
0.554019
0.438942
0.245428
-0.411848
0.411573
0.203445
0.237343
0.280351
-0.502151
-0.06972
-0.203491
-0.265152
-0.0701626
0.395568
0.485818
-0.226894
-0.0264211
-0.146729
0.447358
0.105079
-0.0859076
-0.52639
0.47758
0.4885
0.481851
-0.545522
0.105964
0.433894
-0.363998
0.471643
-0.335451
0.152244
-0.46084
-0.0693932
-0.49671
-0.152756
0.371501
0.0649572
0.0283958
0.204576
-0.330906
0.363103
0.00184845
-0.0605745
-0.5005
-0.4517
-0.315569
0.417373
0.154651
-0.323334
-0.522269
0.43217
-0.354862
0.06225
-0.416413
0.42922
0.439031
-0.0145048
-0.131079
-0.0430906
0.0347608
-0.145911
-0.0333658
0.0626116
0.201747
-0.322516
0.151824
0.0822992
-0.416418
0.185939
0.372558
-0.586643
-0.431816
0.213935
-0.233976
-0.176915
-0.488885
0.266608
-0.145056
0.403893
0.138641
-0.555645
-0.132261
0.336906
-0.0947874
-0.389329
0.329207
-0.475716
-0.141291
-0.448255
-0.0368257
0.363834
-0.431366
0.0442057
-0.00552144
0.408076
0.0913736
0.257355
0.370496
-0.456491
-0.277985
-0.450801
0.575301
-0.649409
0.298265
-0.181942
-0.205972
-0.487502
-0.459535
-0.170412
0.490124
0.00353207
-0.364539
-0.10637
0.0595588
0.45104
0.428472
0.288501
0.250493
-0.450853
-0.113298
-0.25532
0.441875
-0.0495171
-0.206886
-0.342437
0.00622714
0.0868259
0.250584
-0.309148
-0.194549
0.458814
0.251197
-0.181796
0.34931
0.398995
0.243369
0.601718
-0.453479
0.301555
-0.353111
-0.41904
-0.519855
0.430039
-0.498021
-0.342693
0.378023
-0.0561047
0.0337475
0.311602
-0.0538251
0.586326
0.347173
-0.19596
0.239219
0.230352
0.214581
0.359912
0.165966
0.538255
-0.334081
0.0802478
0.023873
0.438475
-0.0947876
0.296688
-0.347073
0.288369
0.267983
0.185009
-0.0170347
-0.275012
-0.394365
0.217273
0.255353
0.420845
-0.18724
-0.0378252
0.415321
-0.237947
-0.401561
-0.551811
-0.158781
-0.283811
0.236542
0.432515
0.0424666
-0.418031
-0.132594
-0.0442995
0.474092
-0.435906
-0.566582
0.346778
0.100501
0.343682
-0.564059
0.115806
0.160953
0.241566
-0.161421
-0.158066
0.43466
0.0787956
0.0185042
-0.225772
0.39296
-0.184381
-0.542772
0.456205
-0.405225
0.447511
0.0289992
-0.408905
0.437917
0.292008
0.00233938
0.516673
0.459407
0.0460846
0.181458
0.468764
0.0788788
-0.049541
-0.51095
-0.0501164
-0.499048
-0.133001
-0.46268
0.394638
0.0722354
0.164736
-0.437943
-0.181636
0.0320375
0.0378276
0.131112
-0.440821
0.347492
-0.574314
0.147034
0.0801113
-0.256407
0.216537
0.40197
-0.24174
0.482206
0.0422343
0.271543
-0.313459
0.255255
0.373078
-0.490192
0.509049
0.225762
0.538666
-0.178807
0.358532
-0.14317
0.125447
-0.530556
0.414728
0.116719
0.0722942
-0.460926
0.498777
0.138992
-0.101642
0.274946
0.484421
-0.381448
0.00218738
0.309534
-0.1824
0.253939
-0.265632
0.311207
0.258855
-0.497531
-0.0198811
0.324475
0.040709
0.544717
0.523035
0.537772
0.33204
-0.0734115
-0.438383
-0.268436
0.355838
0.323693
0.0644892
-0.101749
-0.210742
0.542104
0.386532
-0.465206
0.270362
0.161124
-0.352824
-0.17123
0.141982
0.412129
0.17889
0.315693
0.372486
0.407686
0.516206
0.125857
-0.477701
-0.405508
-0.182686
-0.351751
0.0910159
0.489553
0.207592
0.295052
-0.178588
-0.342976
0.446603
-0.106892
-0.532348
-0.372222
-0.242445
-0.202266
0.157416
-0.199055
0.375672
0.046082
0.392599
-0.481371
0.29649
-0.0333304
-0.2815
-0.467198
-0.467776
0.135917
0.3553
-0.0524857
-0.383679
-0.453143
0.480627
-0.0504655
0.315072
-0.201551
-0.341316
0.592173
0.14508
0.568027
0.280427
0.255954
0.478192
0.116158
0.206836
0.528731
-0.0601031
0.330544
-0.331124
-0.343471
0.417952
-0.231517
-0.188562
-0.585757
0.269245
0.340969
0.504402
-0.556879
-0.000845531
0.281121
-0.414642
0.318558
-0.0981385
-0.285643
0.420287
-0.345826
0.528266
-0.384766
-0.321196
-0.488155
0.570675
0.321529
0.141572
-0.461328
-0.0754075
0.539518
0.335362
-0.564301
0.25927
0.0198923
0.257383
0.519558
0.564446
0.0963278
0.0913457
0.339641
-0.611359
-0.364992
-0.0362463
0.457231
0.247215
-0.275027
-0.35802
-0.182854
-0.522392
-0.0880739
0.17992
0.210124
0.0162668
-0.474349
0.420658
0.0953734
0.209143
0.0515132
-0.408985
-0.320924
0.210263
-0.410828
0.227937
0.336702
-0.253382
-0.313066
-0.52943
0.527698
0.157895
0.397755
-0.244189
-0.499034
-0.229732
-0.254226
0.494953
0.122735
0.407198
0.46667
0.3185
-0.467198
-0.167776
0.135917
0.5553
-0.352486
0.216321
0.346857
-0.219373
-0.550465
-0.384928
-0.201551
-0.341316
0.492173
-0.35492
0.368027
0.480427
-0.544046
0.278192
0.0161578
0.506836
-0.0712695
0.139897
0.0305438
0.268876
0.456529
0.0179519
0.268483
0.211438
-0.385757
0.569245
-0.359031
0.304402
0.343121
-0.200846
0.581121
0.085358
0.418558
-0.198138
-0.185643
-0.379713
-0.345826
0.428266
0.515234
-0.121196
0.411845
-0.429325
0.121529
0.441572
-0.461328
-0.175407
-0.360482
0.235362
-0.264301
-0.14073
0.0198923
0.357383
0.519558
0.164446
-0.00367217
0.291346
0.0396408
-0.311359
0.435008
0.463754
-0.242769
0.147215
0.324973
0.14198
-0.482854
-0.122392
0.0119261
-0.0200795
-0.289876
-0.183733
0.125651
-0.0793423
-0.504627
0.109143
0.351513
-0.508985
0.179076
0.010263
-0.110828
-0.172063
-0.363298
0.246618
-0.513066
0.0705703
0.427698
-0.342105
-0.502245
-0.0441892
-0.299034
0.570268
-0.454226
-0.405047
0.322735
-0.492802
-0.433748
-0.481404
0.0309477
-0.0679968
-0.46562
-0.145048
0.0409709
-0.183676
0.24628
-0.119539
-0.150432
0.315073
0.199483
-0.0428952
-0.408559
-0.35483
-0.332435
0.179796
-0.349857
-0.122307
-0.483733
-0.492485
0.0305176
0.340099
-0.268247
-0.0338372
0.257062
0.0130017
0.268928
0.418229
-0.384038
0.0699629
0.339428
0.0071062
-0.556915
-0.498844
0.38443
-0.21573
0.618558
0.199149
0.0143039
-0.37974
0.153261
-0.172831
-0.286402
0.175043
-0.387946
0.0717827
0.121534
0.444797
-0.361236
-0.071881
-0.461278
-0.264635
0.435543
0.159019
0.121948
-0.343402
-0.480437
0.264445
-0.30229
0.291007
0.139686
-0.113002
-0.0645712
0.460739
-0.143661
0.347334
0.0257002
-0.358126
-0.283641
0.277917
-0.288069
-0.123251
0.310116
-0.184703
0.426555
-0.180542
0.395372
0.113028
0.551502
0.291015
0.0854415
-0.193393
0.389123
-0.473948
0.333797
0.546614
0.486795
0.270675
0.226293
0.257666
-0.302979
0.0575243
-0.203389
0.0702695
-0.153217
0.197767
-0.17729
-0.492228
-0.14862
-0.408708
0.231069
0.646409
0.376822
-0.256316
0.17422
0.415674
-0.343637
0.0603333
-0.485086
-0.117461
-0.299168
0.0562576
0.412831
-0.118465
-0.064662
-0.256656
0.517475
-0.180421
0.241824
0.272818
0.292624
-0.272007
-0.393025
-0.314202
-0.132438
-0.200034
-0.257225
0.395825
-0.484722
0.141876
-0.163138
-0.571109
0.424067
0.392511
0.33324
-0.343772
0.507305
0.103234
0.392356
-0.302163
0.386097
0.21396
0.386637
-0.0545296
-0.407073
0.0686549
0.254465
-0.44807
-0.0117515
0.220054
-0.172998
-0.0109109
0.233439
0.338543
-0.303413
0.406377
-0.312985
0.0749967
0.334662
-0.443441
0.509139
-0.160229
-0.481252
0.217809
0.248509
0.218521
-0.0975185
0.129629
-0.229004
-0.285014
0.26093
0.382534
-0.363598
-0.50782
-0.231904
-0.467875
-0.255131
-0.435012
0.274673
-0.0227993
-0.403607
-0.0821507
0.117118
-0.549558
-0.359929
0.475412
-0.355334
-0.263103
0.2163
0.0407622
0.275394
0.559032
0.344696
-0.406187
-0.332894
0.396736
-0.276856
-0.21279
-0.369067
-0.000183027
-0.165203
0.263026
0.233344
0.111742
0.3089
0.329723
-0.339281
-0.238142
0.0729165
0.492024
-0.432461
-0.347017
0.845245
0.312638
-0.355053
0.317374
0.0645306
-0.206632
0.323108
0.0434533
-0.0460253
0.220786
-0.373629
0.612978
0.424849
-0.0442801
-0.29108
-0.115787
-0.625701
-0.0343223
0.0449907
0.0835257
-0.278905
0.323029
-0.687725
-0.0913948
-0.153737
-0.239505
-0.181964
-0.234211
-0.0721532
0.0791679
-0.276781
0.234521
-0.439479
-0.0148835
-0.0157553
0.187044
0.344701
-0.414427
-0.323561
0.259454
-0.175788
-0.288798
-0.221588
0.199213
0.227362
0.522498
-0.399658
0.33954
-0.551209
-0.289644
0.388834
-0.283767
-0.179583
-0.364619
0.107942
0.128029
-0.154287
-0.490032
-0.339703
-0.0315684
-0.252081
0.118476
-0.294467
-0.0790189
0.153475
0.203458
-0.61953
0.378373
0.0262496
-0.31112
0.574827
-0.490565
-0.488837
0.227766
0.221168
0.271267
0.405169
-0.263074
-0.116115
-0.25628
-0.0493053
-0.0878508
0.383028
0.319315
-0.254641
-0.455857
-0.091851
-0.452483
-0.511053
0.464461
-0.00874043
0.204183
0.588251
0.812804
0.139176
-0.707251
0.539027
0.240657
-0.0842778
0.206505
0.131374
0.0512902
-0.174325
0.278097
0.201835
-0.885249
0.337432
0.21628
-0.221141
-0.239542
-0.0819591
0.262968
-0.0507983
0.658867
-0.107141
0.0466939
-0.598053
-0.436612
-1.09238
0.692107
-0.254784
-0.102449
-0.242134
-0.865508
0.65404
0.743887
-0.117004
-0.303101
-0.45641
0.173374
-0.475464
-0.368939
0.0278029
-0.272602
-0.0266785
0.0969757
-0.074492
-0.292308
-0.710523
-0.29729
0.197704
0.00459471
-0.728364
-0.378539
0.0523559
-0.124271
-0.485359
-0.791601
0.339722
0.385585
-0.0887984
0.781418
-0.375583
-0.182337
-0.00126488
-0.0300317
-0.227744
-0.0341271
0.486488
-0.207457
0.247668
-0.00747179
-0.247223
0.494651
0.381138
-0.557604
-0.137819
-0.121736
0.559577
-0.613029
0.000545695
-0.758765
0.173089
0.416195
0.410656
-0.100182
-0.0615413
0.173818
0.133769
-0.338557
-0.129852
0.575923
0.0713201
-0.45211
-0.15183
-0.350959
-0.213945
0.438414
0.553892
0.352957
0.357581
0.0440053
0.124501
0.545895
0.319195
0.0895105
-0.329923
0.439681
-0.69827
-0.565236
0.028755
-0.0877971
-0.358149
-0.00323419
0.28375
-0.185139
0.433102
0.118523
0.250809
0.0283075
-0.225753
0.125992
0.557331
0.334517
0.061375
-0.538527
0.648082
-0.336004
-0.35093
-0.564363
-0.367713
0.211944
-0.688089
-0.753064
-0.0850219
0.0921998
-0.934244
-0.235763
0.0141808
-0.0525424
-0.521153
-0.186391
0.198493
-0.131364
0.0799306
-0.214515
0.473793
0.201665
-0.00159511
-0.449291
0.493612
-0.727395
0.415679
0.345389
0.157168
-0.011618
-0.449866
-0.746318
0.125753
0.351722
0.156089
1.03276
0.704353
0.134956
0.131588
-0.551272
-0.259768
-0.469929
0.687114
-0.029528
0.223333
0.0482089
-0.371489
0.159144
-0.0363735
-0.432025
0.382431
0.186817
1.06642
-0.731359
0.614731
-0.633558
-0.155511
-0.235823
0.36906
-0.0516226
-0.715059
-0.467531
-0.541717
-0.298755
-0.553825
0.361319
-0.498321
-0.218373
-0.0236773
0.391044
0.671024
-0.24944
0.121629
0.0512793
-0.0278564
0.479702
0.122957
0.144234
0.0560764
-0.317283
-0.0120774
-0.478062
-0.318305
-0.566302
-0.866842
-0.0901862
0.442032
-0.711386
0.596078
0.144077
0.51521
0.609871
-0.20563
0.270247
0.201766
-0.305357
0.0897101
-1.1346
0.154944
-0.326947
0.172424
-0.220594
0.305762
0.201265
0.427261
-0.295943
-0.433204
0.708182
-0.438343
-0.325258
0.53904
0.524746
0.500941
0.734851
0.494738
-0.13106
0.0295983
-1.38483
0.238521
-0.794193
0.388226
0.0772839
0.0247701
-0.173467
-0.082182
0.164749
-0.175379
0.370197
0.427241
-0.149551
0.119262
0.00507565
-0.140446
0.160003
0.434194
0.67091
0.0506119
-0.0490613
0.432514
-0.497876
-0.255073
0.290546
0.109576
0.398435
-0.0268306
-0.0628442
0.0320851
-0.118373
0.368231
-0.387951
0.195525
-0.11473
0.315248
0.100038
0.293208
-0.248064
0.640488
-0.482864
-0.051032
-0.329425
-0.0473907
-0.0264588
-0.642265
-0.315344
0.603234
-0.680566
-0.34422
-0.727405
-0.251412
-0.499565
0.958566
0.314029
0.457939
-0.406748
0.418378
-0.348842
0.537405
-0.274707
-0.176379
0.247989
-0.289102
-0.343099
-0.0405353
-0.564303
-0.633557
0.241271
0.150218
-1.14402
-0.142432
-0.22385
-0.0597341
0.68563
-0.510253
0.379165
-0.457266
-0.0785099
-0.597997
-0.444206
0.393417
-0.310336
-0.530725
-0.759399
-0.132491
0.0282522
0.148792
-0.103861
0.589249
0.348942
-0.468927
-0.0545899
0.272668
-0.505196
-0.33474
0.161589
-0.471512
-0.064711
0.234319
-1.7909
0.551427
-0.84711
0.28342
-0.57089
0.0265649
-0.219511
0.0156255
0.387107
-0.705635
0.348751
-0.117364
0.099585
-0.155769
0.435972
-0.470609
0.603519
0.206596
-0.00486006
-0.116342
-0.477094
0.539697
0.318196
-0.033667
0.291174
-0.504916
-0.428656
-0.139446
-0.0454459
0.172659
-0.174608
-0.218428
-0.724776
0.672782
-0.209198
0.0616252
0.831272
-0.165495
-0.128547
0.19198
-0.41988
0.742354
0.605169
-0.653561
-0.134065
-0.375458
-0.342672
-0.243953
-0.293411
0.10546
-0.306107
-0.548091
-0.178056
0.56366
-0.137022
0.902267
-0.113118
0.596577
-0.113456
0.300495
0.150856
-0.214364
0.26911
0.476933
-0.252903
-0.309478
-0.50514
-0.443994
-0.268579
-0.650761
-0.533308
0.103088
-0.0109469
0.252038
0.0718465
-0.00368634
0.592894
-0.602428
-0.515777
0.00881611
-0.386525
0.3641
-0.00778125
0.230622
0.201563
-0.0236682
-0.416319
-0.104349
-0.860256
-0.00388343
-0.160695
-0.544789
-0.0409256
0.86137
-0.489203
0.42986
-0.178972
0.384614
0.0487324
0.631873
-2.0134
0.188337
-0.723714
-0.13975
0.217735
-0.0389531
-0.610902
0.686319
0.685706
-0.190932
-0.0494229
-0.522976
-0.393735
-0.46943
0.11166
0.0487535
-0.00586819
0.0353777
0.371995
0.167974
-0.228976
0.620797
-0.272832
-0.516213
0.293183
-0.575119
0.462122
0.34176
-0.0507072
0.503338
-0.523565
-0.247116
-1.39428
0.339997
-0.413294
-0.65345
0.699484
-0.0637915
-0.070402
-0.250489
-0.0546288
0.370474
0.432137
-0.10676
-0.248238
-0.320294
-1.00857
0.158659
-0.643129
0.143606
-0.751893
0.101654
-0.0571852
-0.477982
0.686447
0.620176
-0.253401
0.43268
0.409365
0.296738
0.849379
0.388755
-0.202983
0.283091
-0.120975
-0.0440499
-0.196622
-1.00897
-0.192177
-0.666448
-0.341468
0.411325
-0.309536
-0.302741
-0.240102
-0.151053
-0.304109
-0.368282
0.176828
0.11071
0.134648
0.567185
0.16694
-0.405153
0.0648256
-0.366459
-0.231004
0.696404
0.234881
-0.0808657
-0.0535744
-0.250271
0.466749
0.713301
0.231114
0.43918
0.221475
-0.1552
-0.283514
-0.568353
-1.15888
0.139167
-0.0698236
0.158495
-0.689333
0.300361
0.337334
-0.588409
0.393513
0.603846
0.355475
-0.449769
-0.524276
-0.0311808
-0.327723
-0.329527
0.0596091
0.136837
0.53144
-0.390397
-0.135877
0.425362
0.591598
0.120258
0.0781078
1.08682
-0.715892
0.680524
0.0953422
0.26779
-0.23838
0.228275
-0.88441
0.77865
0.287426
-0.0209104
-0.554584
0.198616
0.0185621
-0.0168127
-0.497831
-0.499596
0.554376
0.207416
-0.160854
0.244095
-0.698807
0.041837
-0.0378735
-0.0702442
-0.22111
-0.617488
-0.266095
-1.04017
0.487837
0.217624
0.120205
-0.326921
-0.13631
0.211237
0.967288
-0.310191
0.0771881
-0.0147551
-0.177232
-0.104828
0.0127782
-0.666362
-0.146869
0.288345
0.865684
-0.0738303
-0.579741
-0.678697
-0.792457
-0.405927
0.272944
-0.290465
0.0233246
0.38776
0.276416
0.00517942
0.333577
-0.207745
-0.371324
0.00820141
-0.564285
0.608465
-0.233216
-0.167791
0.0144517
0.103353
-0.0909788
-0.324107
-0.274578
0.147852
0.476448
-0.294085
-0.341514
-0.813919
-0.0560105
0.259583
-0.41495
-0.137101
0.272403
0.516081
-0.0128923
-0.163619
0.131595
-0.243084
-0.00895939
0.7476
0.0691495
0.377809
-1.01599
-0.0826157
0.240666
0.132398
0.0300144
0.644558
-0.470299
-0.414669
0.209934
-0.0263993
-0.360712
0.637423
-0.564747
0.546638
0.250605
-0.00863687
0.0703449
0.00946687
-0.119205
0.0848488
-0.10096
0.131795
0.145508
0.812429
-0.0978943
0.810673
-0.410023
-0.273342
0.00816621
-0.593585
-0.0331185
0.448228
-0.339735
-0.499423
0.223151
-0.323054
0.0404364
0.0500954
-0.435595
-0.559428
-0.491968
-0.749807
0.0964125
0.300346
0.748275
-0.515385
0.0834889
-0.565839
0.205112
-0.00655534
-0.149919
-0.625941
-0.406697
0.0537963
-0.357465
-0.349419
0.253503
0.353046
-0.207694
0.164894
-0.528974
0.289352
-0.287349
-0.395204
0.43043
0.647427
-0.118929
-0.352669
-0.52718
0.678247
-0.368635
0.114188
-0.397508
0.51721
0.125702
0.346869
-0.177799
0.222076
-0.822968
0.0532131
0.0760569
-0.363438
0.0065287
-0.208094
-0.360968
-0.326223
-0.5931
0.286885
-0.614217
0.0141895
-0.504347
0.151969
-0.239015
-0.149839
-0.0122365
0.289487
0.557049
-0.309035
0.0321078
0.0961411
-0.696032
-0.110759
-0.184255
-0.0137547
0.453234
0.0963046
0.405459
-0.147857
0.448767
-0.249848
-0.0922525
0.88575
0.135258
0.411285
-0.361059
-0.640546
-0.218292
-0.00665659
0.297426
0.298952
0.391928
-0.464109
0.0573149
0.432876
0.355541
0.823528
0.376723
0.147271
-0.560312
0.134482
-0.0879999
-0.195796
0.16736
0.281935
0.160409
-0.30418
0.388761
-0.139292
-0.105257
-0.280175
0.479532
-0.137542
-0.552388
-0.189858
-0.30962
0.260433
0.256295
0.198246
-0.316177
-0.0715382
0.634595
-0.0288582
-0.280151
-0.0183171
0.310547
-0.467121
0.376784
0.464207
0.215084
-0.523104
0.357399
0.54916
-0.18336
0.116886
-0.356776
-0.292515
-0.404151
0.275402
-0.337108
0.195256
-0.382343
0.449425
0.196261
0.0604686
-0.173741
-0.304702
-0.204264
-0.308364
-0.702576
-0.0976305
-0.110372
-0.208205
0.38874
0.315924
-0.48525
0.0721198
0.487759
-0.285484
0.0703834
0.0900829
0.483221
-0.328531
0.326495
-0.0203325
-0.198205
0.303419
0.297603
0.674618
-0.40116
-0.0438973
-0.128328
0.229496
0.112112
0.0916628
0.403379
-0.0164751
-0.30226
-0.508792
-0.215008
0.187726
-0.290502
-0.03758
0.138209
0.228727
-0.183206
-0.0966403
0.228494
0.201426
0.9431
0.109432
-0.212875
-0.0584657
0.0658471
0.652251
0.187413
0.0768719
0.523449
-0.336101
-0.23237
0.169622
-0.294826
-0.561442
0.395019
-0.165467
0.168723
0.461708
-0.335988
0.127709
-0.449852
0.375883
-0.195442
-0.509682
0.394629
0.0799574
0.17164
0.488903
-0.34532
-0.172154
0.379156
-0.404369
0.437198
-0.327495
-0.247313
0.658235
0.0154124
0.115278
-0.409044
0.0614793
-0.330848
0.278348
0.016454
-0.189763
-0.243975
-0.412815
-0.40163
0.622758
-0.381521
-0.111
0.252744
-0.199073
0.438434
0.248349
-0.130869
0.246634
0.380089
0.00235791
-0.400219
0.331207
-0.333937
-0.258184
0.365112
0.253987
-0.0697894
0.397165
-0.173129
-0.0767397
0.132168
-0.331959
0.0482876
0.279775
0.0192064
-0.41955
0.197502
-0.264375
0.342574
-0.840733
0.149659
-0.32243
0.402594
-0.548014
-0.509249
-0.132188
-0.536271
0.469376
-0.070745
-0.0641457
-0.0607813
-0.220001
0.121539
0.253223
-0.306426
0.103262
0.123208
0.110147
0.013359
-0.482382
-0.124032
-0.211111
0.18573
-0.2767
0.383752
-0.0448485
0.212985
-0.14814
0.218632
0.0632077
-0.239147
-0.0959786
-0.0773461
0.177516
0.420106
0.311816
0.394615
-0.319281
0.314058
-0.387078
0.347587
0.349785
-0.0520964
-0.241306
-0.390193
-0.165714
-0.395771
-0.322266
-0.030091
0.334631
0.344222
-0.363675
0.473524
0.443446
0.0351569
0.296328
-0.341713
-0.393767
-0.466147
0.257826
-0.0214666
0.0294245
-0.313219
0.0507509
0.429041
-0.175898
-0.117355
-0.0721329
-0.189934
0.550212
0.516242
-0.432999
-0.395168
0.279184
-0.0773495
0.532296
0.0346779
0.3486
-0.411954
0.251829
-0.112569
0.515788
0.143743
-0.112223
0.00737779
0.433656
0.0841945
-0.483652
0.284219
0.270247
0.452461
-0.377999
0.25879
0.430407
0.234082
0.129729
-0.465077
0.0423686
-0.239343
0.111867
-0.54072
0.41041
0.494283
-0.309162
-0.210587
0.328864
-0.599573
-0.335393
0.323866
0.0644257
0.220499
-0.0389606
-0.160278
0.342419
-0.508646
-0.515373
0.403058
0.302011
0.48881
0.326419
-0.525066
-0.414408
0.470268
0.234649
0.389441
-0.182376
-0.107794
0.0943213
0.447378
0.0879608
0.418066
-0.336959
-0.254465
0.0270531
0.327548
-0.511079
0.371075
0.0893136
-0.23574
-0.172061
0.275377
-0.483905
-0.0914777
0.367291
-0.0823997
0.329977
0.532201
-0.26397
-0.44489
-0.356494
0.420428
0.236644
-0.519616
0.0578974
-0.385178
0.112694
-0.141994
0.592149
0.134818
0.465888
-0.118371
-0.563573
0.378416
-0.381315
0.504343
0.236664
0.443473
0.145752
-0.231047
-0.350054
-0.288276
-0.0316325
-0.0628389
0.321582
0.0663626
-0.163141
-0.194365
0.0380213
-0.0992161
-0.412994
0.285126
0.218579
-0.198149
0.316463
-0.479085
0.245592
-0.0976854
0.00887958
0.169033
-0.380796
-0.208236
0.12153
0.15685
-0.167047
-0.0716373
0.538073
0.0353706
-0.565414
-0.340908
-0.770361
-0.343099
0.520781
-0.135101
-0.603554
0.0900499
0.238951
-0.00692134
-0.167363
0.460755
0.356919
0.0447522
-0.0611737
-0.160239
-0.281643
0.393393
-0.401476
-0.334253
0.407072
0.408213
-0.468547
-0.568948
0.489366
-0.379847
0.243752
-0.30899
-0.312769
0.410256
-0.0124216
-0.374823
0.415968
-0.153353
0.264404
-0.227995
0.527441
0.356075
-0.501933
0.0627041
-0.308043
-0.129729
0.545762
-0.101954
-0.482419
0.00833143
0.466645
-0.181501
-0.568513
-0.0668001
0.238242
-0.347132
0.448059
0.0171427
-0.153103
-0.118035
0.148756
-0.48566
0.0981465
-0.44238
0.395385
-0.0551169
-0.130432
-0.419522
-0.147512
0.280059
-0.17994
0.506936
0.028893
0.239897
-0.367571
-0.424565
-0.14338
-0.179797
-0.431578
0.311355
-0.585795
0.467092
0.0409717
0.00459018
0.444575
0.197426
0.281328
-0.316026
0.518558
-0.600389
0.116294
-0.179079
0.255296
0.525938
0.3169
-0.0162128
-0.185152
0.269987
0.0218551
-0.459514
0.333528
0.523876
0.538296
0.335247
-0.45898
0.358535
-0.681927
0.157057
-0.180443
-0.335372
0.0919795
0.293982
-0.46036
-0.108913
-0.366745
0.157338
-0.342769
0.0466295
-0.0726022
-0.458024
-0.482783
-0.022405
-0.189667
-0.0171997
0.00556506
0.0157171
0.223236
-0.179789
-0.304957
0.0103355
0.352159
-0.00898465
-0.420935
0.513618
-0.510784
-0.27133
-0.464452
-0.352835
0.386893
-0.429777
0.527633
-0.141985
-0.402507
0.25648
0.401009
0.169675
-0.154226
0.195979
-0.077132
0.508051
-0.436586
0.317859
-0.371989
-0.0642423
-0.1611
-0.448969
-0.263884
0.219555
0.246666
0.476118
-0.440977
0.521539
0.1019
0.256537
-0.404479
0.444424
0.481304
-0.323203
-0.458037
0.476995
-0.482929
0.49888
0.324999
0.339113
0.0374256
-0.0333383
-0.447909
0.215348
0.466577
-0.183607
-0.581887
-0.429626
0.539706
0.402952
-0.0550541
0.49692
0.38958
-0.226471
0.118669
-0.602051
0.213237
0.214775
-0.346081
-0.377548
0.0116031
0.280828
-0.489607
-0.0283769
0.126855
-0.258366
0.532289
-0.0712316
0.135384
0.335083
0.441971
0.364242
-0.279511
-0.242427
-0.482157
-0.43527
-0.00892325
-0.40039
-0.460889
-0.31415
0.231707
0.162201
-0.342023
0.545784
0.230482
-0.458061
-0.184265
0.376514
0.111749
0.387331
0.0971056
-0.385182
0.42841
0.0208772
-0.0047638
-0.375468
0.449278
-0.509037
-0.114763
0.520869
-0.312346
0.0360429
0.430425
-0.0511821
0.0805723
0.0700902
-0.373665
-0.149308
-0.515121
0.161673
-0.0964516
0.0635778
0.548161
-0.103404
-0.074177
0.207151
0.28596
0.338387
-0.0296959
0.10609
-0.362331
0.452953
-0.193826
-0.105006
0.329407
-0.179362
0.362093
0.0344836
0.154281
0.0489282
0.15281
-0.357334
0.48831
-0.262997
0.0175575
0.323449
0.0466433
0.460924
-0.212988
-0.184299
-0.044813
-0.499518
0.0612851
-0.221866
0.521616
-0.517551
-0.614016
-0.372793
-0.238295
0.363396
-0.577805
0.43892
0.192505
-0.435118
-0.330292
0.296884
0.198627
-0.484402
0.245195
0.128661
-0.24697
0.0699447
-0.68442
0.391966
0.649016
0.165972
-0.0010634
-0.144356
-0.404573
-0.066226
-0.560235
-0.347358
-0.575245
-0.0955423
-0.498325
-0.205465
0.331342
-0.0485668
-0.12241
-0.486098
-0.303048
0.350684
-0.179023
0.111429
0.824532
0.42146
0.138612
-0.622118
0.190465
0.495487
-0.628812
0.324382
-0.225106
0.077967
-0.424038
0.525263
-0.222995
-0.114389
-0.0539504
0.289987
-0.0682729
0.259711
0.357028
0.0544799
-0.331705
-0.376675
-0.163498
-0.0355998
-0.262444
0.227552
-0.3241
0.273845
-0.106054
0.269084
0.0897108
0.445256
-0.465994
-0.719349
0.113873
0.0735818
-0.0804836
0.105517
-0.258737
0.274831
0.126802
-0.248745
-0.518033
0.371736
-0.224493
0.0303899
0.352288
-0.00251345
-0.124685
-0.340599
0.356622
-0.374946
0.268752
0.133942
0.195303
-0.742987
0.641835
0.177837
-0.696514
0.311159
0.315015
-0.713634
-0.500853
0.0414958
-0.52037
-0.241658
-0.337508
0.13515
-0.197798
-0.671412
0.386693
-0.141035
-0.746517
-0.273593
-0.586481
0.746417
-0.359236
0.439047
-0.154236
0.682641
0.622898
-0.178102
0.449599
0.0468055
0.3132
-0.562392
0.250525
-0.513887
0.255142
-0.14803
-0.481844
-0.256529
0.203438
-0.130933
-0.106823
0.342692
0.0956936
-0.613621
0.388316
0.535293
-0.135844
-0.0644093
-0.514452
-0.616839
0.136624
0.438318
0.266509
0.209501
0.579271
0.630819
-0.454327
0.840209
-0.836035
-0.318016
-0.357373
0.163384
0.622072
-0.121147
0.12756
0.726738
-0.0635446
-0.310652
-0.26603
0.387751
-0.125332
0.266296
0.308887
-0.423724
0.345919
0.261562
-0.362895
0.0569957
-0.129618
-0.343199
0.662339
0.945675
0.157121
-0.536416
0.160883
0.362716
-0.67677
0.00275808
0.270147
1.26631
-0.406678
-0.203783
0.116545
-0.384124
0.424468
-0.281189
0.0644472
-0.246399
0.110139
-0.347611
0.0200331
-0.681726
-0.15652
-0.879324
0.576951
0.487099
0.186152
-0.344882
-0.702827
0.646863
-1.09111
-0.498641
-0.511398
-0.290171
-0.963307
-0.951566
0.868548
0.589955
-0.919013
-0.0723492
-0.358045
0.752295
0.329032
-0.177805
-0.312128
0.502659
0.720019
0.422075
1.14145
0.0211456
0.137553
-0.486303
0.388886
-0.00948446
-0.273754
0.0154977
0.0371099
-0.420134
-0.175564
-0.280454
-0.103005
0.335948
0.0530416
-0.412512
-0.704326
0.56772
0.683918
0.0986759
-0.925743
-1.00635
-0.211814
-0.218471
0.102213
0.23269
0.396559
0.468754
-0.527237
0.444907
-0.557182
-0.5348
-0.0210214
-0.353977
-0.487724
-0.393864
0.553682
0.88775
0.311781
0.151355
0.135081
-0.351761
-0.244546
0.526599
-0.628839
0.525758
0.322426
-0.237091
0.185019
-0.274955
0.802793
-0.390159
0.0656668
0.934251
0.383081
0.582723
-0.0150278
0.51053
0.206277
0.0929137
0.0617235
1.89825
-0.491395
0.583642
0.180819
0.409587
-0.251649
-0.528174
-0.508348
-1.6393
-0.105374
0.0679686
-0.485148
-0.966066
0.0639529
-0.244571
-0.157721
0.532986
-0.149205
0.0660005
0.224638
0.22863
-1.25238
-1.1474
0.00878549
-0.204518
0.428049
-0.622381
0.683747
-0.198743
-0.256891
0.320305
-0.198602
0.449711
0.241967
-0.902137
-0.734612
-0.157788
1.04355
-0.152844
0.408956
-0.402701
-1.03136
-0.60954
-0.417744
0.734209
0.0925597
0.56564
0.248031
0.384326
0.224239
0.219591
-0.0897856
0.423256
0.165918
-0.0157405
-0.552232
-0.340022
0.159721
0.421548
-0.893514
-0.0957421
-0.0428616
-0.89292
-0.191293
-0.234902
1.19094
-0.0779894
0.0108021
0.0512157
-0.254738
-0.347353
-0.227586
-0.410885
-0.0141328
-0.355506
-0.186831
0.58564
0.0841552
-0.199412
-1.02292
-0.110264
-0.361857
-0.0986663
-0.491238
-0.166756
-0.180267
0.0103666
0.0382711
-0.725409
-0.157409
0.538275
-0.578485
0.461003
-0.363936
-0.364438
0.557924
0.548053
0.187266
-0.231452
-0.428298
0.95263
0.212725
-0.0543116
-0.347035
0.850327
0.0849315
-0.818852
-0.774726
-1.07279
0.550966
0.322989
0.0199838
0.631669
-0.0391341
0.030917
-0.0546837
0.46266
-0.314403
-0.164632
0.75109
-0.776117
0.0126872
-0.620341
0.0630233
-0.341866
-0.118728
0.120348
-0.59445
0.292476
-0.379163
-0.90164
-0.458336
-0.0715009
0.354247
-1.24745
-0.482964
-0.295022
0.648267
-0.0994432
0.202605
0.093777
0.135312
0.168984
0.00746892
0.45064
-0.504403
-0.176957
-0.197894
-0.638264
-0.516094
0.39134
-0.41311
-0.234644
-0.419984
-0.139452
-0.543427
-0.0741364
0.217435
-0.0227223
-0.454477
-0.581595
0.308767
-0.0548019
0.297701
-0.509145
1.47312
-0.583637
0.377192
0.03741
0.0119223
-0.0424495
0.0239334
-0.0908994
-0.391431
-0.633412
-0.124192
0.321099
0.590856
0.470185
-0.287725
-0.30166
-1.33412
-0.0538612
0.310625
-0.166415
-0.488379
-0.746204
0.356865
0.229464
0.105042
-0.226679
0.455836
-0.758491
0.252365
-0.468336
0.865674
0.465736
0.158614
-0.00900315
0.773624
-1.21285
-0.225124
-0.188231
-0.815139
0.188812
0.222685
-1.13993
0.00410136
0.249112
-0.101081
1.18177
-0.488859
0.225231
0.0316189
0.268062
0.198416
-1.20904
-0.254919
-1.04317
-0.640812
-0.850604
0.599878
-0.282591
-0.271133
-0.365862
0.48733
0.227599
-0.850375
-0.189987
0.613695
0.133655
-0.358152
0.209512
0.197126
0.198445
0.791501
-2.11577
0.843172
-0.856041
-0.111345
-0.697567
0.425518
0.121406
-0.276386
0.349303
0.358199
0.194989
-0.219231
-0.405483
0.629669
0.871445
0.712847
0.628307
0.299021
-0.560703
0.0196002
-0.429012
0.476608
0.0658235
-0.218336
0.0976828
-0.566921
0.71733
0.827321
-0.721613
0.0310659
-0.352385
-0.467789
-0.87393
0.541206
0.0517376
-0.481863
0.141683
-0.721726
0.337138
0.265362
-0.88392
0.15752
-0.265915
1.05778
-0.569922
-0.568446
-1.65095
0.580857
-1.14577
-0.468178
-0.865557
0.524339
0.343217
1.27359
0.466172
0.0565345
-0.261284
-0.564707
-1.15857
0.495151
0.546545
0.0769365
0.600036
0.342091
-0.568386
-0.920786
0.23716
-0.948643
0.0828932
0.204383
-0.880848
-0.786512
0.0697391
0.0351649
0.854326
-0.757302
-0.0957436
0.478331
-0.395396
0.256115
-1.27003
-0.0982069
-0.691592
0.293687
-0.604976
-0.107187
-0.340224
0.716479
0.138074
-0.153228
0.210157
-0.445129
0.286939
0.275267
0.457006
-0.0552669
0.334995
-0.331044
-0.00912684
0.121177
-2.60767
0.847135
-1.39858
-0.381465
0.0149942
-0.197961
0.817042
0.399459
-0.178142
0.384617
-0.453844
0.0235752
-0.125372
-0.273205
1.19204
0.522759
0.546985
0.211391
0.493701
0.0160161
0.140704
0.652574
0.435318
-0.441337
0.855453
0.245797
0.48492
0.0932959
0.03297
0.213933
-0.385722
-0.0178855
-1.86458
0.420094
-0.0505939
0.35042
-0.433292
-1.24632
0.20325
0.175245
-0.154614
0.0747639
-0.79524
0.652004
-0.293537
0.0167593
-1.51004
-0.235732
-0.521596
-0.48553
0.124575
0.514736
0.244394
-0.0552724
0.192881
-0.557848
0.931673
-0.113824
-0.0975564
0.208123
0.737337
0.60022
0.158493
-0.0522054
0.869945
-0.749971
0.0501569
-1.23849
-0.159918
-0.783889
0.17353
0.09712
-0.17019
0.294088
-0.182763
-0.22849
-0.161323
0.482525
0.343117
0.0156178
-0.373435
-0.922488
0.143323
-0.575161
0.378951
-1.33268
-0.0513632
-0.0833074
-0.289195
-0.282561
0.428602
-0.771195
0.614043
-0.765527
-0.29877
0.460087
-0.274331
-0.184239
-0.297046
-0.502938
-0.489991
0.987555
-0.549283
-0.5436
-0.195159
-0.267413
-0.237705
-0.24244
0.0996258
-0.599271
-0.30996
-0.0967795
-0.38484
-0.34904
0.0581097
-0.476499
-0.205806
0.0879928
0.277157
0.287462
0.450605
0.524666
-0.0216525
-0.777601
-0.118921
0.259887
-0.631457
-0.0717814
-0.425634
0.78446
0.373949
-0.564665
-1.16757
-0.0445941
0.324392
0.103652
-0.738411
-0.501011
-0.060952
0.270341
-0.271237
-0.17063
0.383635
-0.286191
0.436634
-0.362829
-0.0576092
0.0635836
0.201501
-0.551644
-0.653798
-1.08282
0.200652
-0.531748
0.138987
-0.0180684
0.384826
0.217492
0.311763
0.23854
0.378515
-0.223994
0.613454
0.511017
1.25962
-1.27099
0.254454
-0.493507
-0.201277
-0.278674
0.251056
0.116347
-0.635185
-0.673649
0.00891917
-0.182314
-0.155783
0.186947
-0.0687584
-0.0893082
0.561073
-0.953952
0.315881
0.257157
0.705393
-0.649621
0.00566476
-0.483503
-0.886093
-0.363167
0.245743
-0.0172352
-0.11702
0.172207
0.0437342
0.319541
0.719126
-0.472163
0.0789643
-0.505558
-0.22276
0.57617
0.227085
0.145614
-0.3029
-0.26043
0.453427
-0.124609
0.0719982
-0.897325
-0.214632
0.454387
0.408699
0.00115635
0.288232
-0.296683
0.328664
0.477653
-0.268536
-0.590685
0.213951
0.538138
0.558415
-0.55389
-0.652072
-0.115586
0.0666422
-0.321127
-0.0954716
0.0666475
-0.0598339
0.556559
-0.305719
0.570922
-0.34704
0.320416
-0.806185
0.132133
0.1145
-0.133271
-0.659126
-0.915493
0.353839
-0.217723
0.206624
-0.453023
-0.0678001
0.242245
-0.0667099
-0.623346
-0.220477
-1.09139
-0.338034
-0.312566
0.00657221
-0.0426565
-0.0982078
-0.19077
0.247914
0.264423
0.831098
-0.653919
-0.183804
0.546939
0.56202
-0.618879
0.0503202
0.830917
0.0878306
-0.0387987
-0.311248
0.0703878
-0.363808
-0.159574
-0.130262
-0.213836
0.0751521
-0.298266
0.373096
-0.254619
0.10185
0.215404
0.512639
0.25212
0.133776
0.0642154
0.197072
0.199305
-0.0260942
-0.272696
-0.575416
-0.612959
0.201169
-0.151212
-0.294825
0.222345
0.366005
-0.0535768
0.387629
-0.442227
-0.0192736
0.656457
-0.0400932
-0.197759
-0.106362
0.198454
-0.191202
-0.213911
-0.348004
-0.773835
0.134285
-0.0939651
0.413443
-0.491727
0.620873
0.328937
-0.246655
-0.205806
0.126194
-0.191218
0.372541
0.230968
-0.360049
-0.00900363
-0.528824
0.231404
0.224805
-0.0118793
-0.248482
-0.285271
0.447484
0.306122
0.59063
0.0817429
-0.0198785
-0.254303
-0.371444
-0.398687
0.162193
-0.0805199
0.0243894
-0.911235
-0.350813
-0.0917807
0.124716
-0.322268
0.237037
-0.532771
-0.00894397
-0.020068
-0.520046
0.0943685
-0.252797
-0.0391968
-0.518261
-0.525848
0.187514
0.452397
-0.299481
-0.000258205
0.00941183
-0.151217
-0.524762
0.163661
0.270583
0.216745
-0.059606
0.278584
-0.534795
0.29791
-0.231413
-0.24925
-0.022787
0.0438008
0.0983489
-0.187342
-0.703651
-0.0931564
0.369482
0.598837
0.244072
-0.264159
0.183198
0.0845981
-0.11898
-0.507236
0.107416
-0.222423
-0.674424
-0.574619
-0.0953115
0.149575
-0.155896
0.368173
-0.28742
0.352817
-0.0826527
-0.25689
0.0599828
0.190734
-0.223721
0.705479
0.396752
0.0865475
0.519027
0.188361
0.0295534
-0.0460908
-0.525548
-0.0943376
-0.309669
-0.0902514
-0.376155
0.526392
0.367002
0.0187925
0.367165
0.457741
0.126827
-0.539667
0.253061
-0.168608
-0.349857
0.00298422
-0.666964
-0.330396
0.0502597
0.527385
-0.598434
0.119186
0.103886
-0.40018
0.645602
-0.585505
-0.509978
-0.297215
-0.75849
-0.502283
0.243315
-0.292535
-0.494454
-0.210913
-0.568674
0.494559
0.456382
0.0789653
0.0872114
0.413167
0.0401469
0.37493
-0.16096
0.27593
-0.123926
0.0566555
-0.304943
0.240617
0.290944
0.297935
-0.0455446
-0.349554
0.164445
0.172138
-0.465688
-0.411211
-0.180139
0.0193573
0.356243
-0.197676
0.336003
0.0707931
0.256458
0.52047
0.444705
0.0922433
-0.352623
-0.452889
-0.179002
0.531502
0.458941
-0.306467
-0.177665
-0.354685
0.199221
0.240971
0.127585
0.314701
0.663252
0.0466516
-0.107944
-0.347295
-0.0676747
-0.365945
-0.707698
0.598287
-0.454609
-0.209052
0.277913
0.364314
0.236715
-0.0485353
0.436444
-0.216661
-0.542469
0.398617
0.295113
0.313773
-0.292512
0.4778
-0.223707
-0.126729
-0.128692
0.0281835
-0.0957196
0.0532443
0.102278
0.25253
-0.585752
0.0146981
0.093152
-0.36292
0.0587743
0.327102
-0.308814
-0.240973
-0.513044
0.108812
0.15422
-0.398738
0.260387
0.695524
0.241704
-0.208208
0.322972
0.338665
-0.208516
0.305327
-0.352602
-0.105155
-0.425125
0.283769
0.345377
-0.301746
-0.124092
0.324972
-0.104171
-0.0375571
-0.0865014
-0.279857
-0.598337
-0.111087
0.258379
-0.271798
-0.464377
0.353208
-0.488792
0.139559
-0.515063
0.363479
0.371255
-0.170909
-0.243545
0.236397
0.447646
0.121987
0.0553958
-0.402026
-0.542333
-0.208073
0.293768
-0.0588062
-0.122007
0.271529
0.162797
0.320328
0.429862
-0.331023
-0.122006
0.230424
0.0524796
-0.136526
0.100805
-0.533769
-0.566995
0.179446
-0.174591
0.132814
0.347662
0.347021
-0.0068095
0.417677
-0.511781
0.410837
-0.497709
-0.292282
0.396311
-0.394781
-0.226835
-0.389041
-0.137551
0.18416
0.438667
-0.474315
0.0640285
-0.268562
0.435158
0.332867
-0.0652656
-0.101385
-0.145809
0.222704
0.449631
0.172756
0.295269
-0.0151343
-0.492357
-0.10901
0.102562
0.177244
0.107711
-0.190448
0.0776278
0.035006
0.230415
0.463332
0.0920802
-0.0406868
-0.183027
-0.360292
0.0907586
0.011159
-0.521682
0.235781
-0.0153463
0.0113713
0.0894344
-0.174564
0.27811
-0.00448295
0.13642
-0.44823
-0.0683773
-0.26893
-0.269513
0.522642
-0.182383
0.0884499
-0.216963
0.0852594
0.249006
-0.374142
-0.130006
0.412053
0.513317
-0.232746
0.0175787
0.133832
0.332894
0.0169024
0.0547161
-0.44611
-0.265081
-0.364805
-0.24061
0.341139
0.535469
-0.287363
-0.541993
0.501822
0.0848998
0.559974
-0.218326
0.175452
-0.0243818
-0.125642
0.20026
0.386905
-0.0590367
-0.0530869
0.00617017
0.357965
0.212374
0.367727
-0.364448
0.122712
0.46641
0.539775
0.206906
-0.259925
-0.199193
-0.245402
0.185131
-0.387463
0.358343
-0.569151
-0.488041
-0.0846034
0.00231465
-0.388938
-0.155794
0.425498
-0.410655
0.0238354
0.257153
0.343366
-0.380417
0.438605
-0.164795
0.276914
-0.54215
-0.476175
-0.142273
0.0841389
-0.134292
0.0864479
0.308982
0.506546
-0.605479
-0.467353
-0.227483
0.107159
-0.0973148
-0.0851677
0.435749
0.138809
-0.506599
0.376301
-0.218702
-0.265248
-0.0917548
0.18344
-0.0684255
0.345156
-0.478841
-0.163116
-0.408992
0.17084
-0.28941
-0.112342
0.534484
-0.118496
-0.0365789
0.136902
0.456527
0.0261088
0.553268
-0.201904
0.059882
-0.204422
-0.44346
0.0439444
-0.511596
-0.282523
0.508232
-0.23333
0.2185
-0.267198
0.532224
0.235917
-0.2447
-0.452486
-0.583679
-0.353143
-0.0193729
-0.150465
0.415072
-0.00155084
-0.441316
-0.107827
-0.15492
0.568027
-0.319573
-0.344046
0.378192
0.116158
-0.193164
0.128731
0.539897
-0.269456
0.368876
-0.243471
0.417952
0.468483
-0.488562
-0.585757
0.569245
0.340969
0.00440185
0.443121
0.299154
0.0811208
-0.314642
-0.381442
0.301862
-0.185643
-0.279713
-0.445826
-0.171734
0.215234
0.478804
-0.488155
0.170675
0.121529
0.141572
0.0386716
0.524593
0.139518
0.135362
-0.464301
-0.44073
0.119892
-0.142617
0.119558
-0.435554
-0.403672
-0.508654
0.339641
0.388641
-0.364992
-0.0362463
-0.142769
-0.152785
-0.275027
-0.45802
0.117146
-0.522392
0.211926
0.37992
0.0101241
0.316267
-0.374349
0.220658
0.495373
-0.0908571
0.151513
0.0910154
0.179076
-0.489737
-0.010828
-0.272063
0.536702
0.146618
-0.413066
-0.0294297
-0.0723018
-0.142105
0.497755
-0.444189
-0.0990343
-0.129732
0.145774
0.0949532
-0.277265
-0.0928024
0.274358
0.223806
0.13607
0.244459
-0.164391
-0.345027
0.461438
-0.389536
-0.0502896
0.150449
0.161509
-0.391381
-0.19731
0.0596276
-0.337994
0.336184
0.488065
-0.426286
-0.449841
0.559378
-0.0886521
0.336717
-0.358076
0.136606
0.436534
0.0145428
-0.414134
0.10338
0.27172
0.120413
0.117484
0.375167
-0.272389
-0.306544
-0.453933
0.015787
0.00632109
0.171643
0.227809
-0.104641
-0.665039
0.203682
-0.251427
0.231457
-0.187289
0.366789
-0.0926479
-0.027836
-0.370447
-0.057863
0.253381
0.0273195
0.132431
-0.258869
0.39748
-0.115536
-0.579173
0.3589
0.207851
-0.431858
0.297866
-0.50389
-0.0604504
-0.560785
-0.166392
-0.149318
-0.445102
-0.0548394
0.0639067
0.252578
0.0921894
-0.223579
-0.481129
0.086265
0.391014
-0.084733
0.0339722
0.412046
-0.0100769
0.11038
0.148594
-0.510789
-0.365543
0.201995
0.097724
-0.466807
-0.48454
-0.253689
0.276286
-0.330884
0.326874
0.467215
-0.32561
0.165867
0.393672
0.479045
0.442924
0.11862
0.422988
0.117185
0.340725
-0.259494
0.143195
0.370651
0.529782
-0.506975
0.663924
0.0155757
-0.158651
-0.603543
-0.115722
0.633922
0.229618
-0.34962
-0.313821
0.081099
-0.0427735
-0.478105
-0.273098
-0.336973
-0.402969
0.153131
-0.303797
-0.321735
0.418206
0.32484
-0.413232
-0.207225
0.417998
-0.334422
-0.167044
0.234003
-0.476031
-0.512243
-0.38165
0.234275
-0.264859
-0.609203
0.0955556
0.266816
0.183384
0.0176241
-0.216409
0.69111
0.358798
-0.441941
-0.210497
0.465599
-0.413228
0.271005
-0.388285
-0.103106
0.375774
-0.0619703
-0.319719
0.481075
0.0789298
0.353625
0.369188
-0.142055
-0.276594
0.184823
0.504324
-0.684361
-0.3925
-0.56332
-0.523555
-0.16517
-0.355163
0.218468
-0.00678386
-0.449777
-0.42594
-0.107984
0.469235
0.371938
-0.444611
0.481121
0.43467
0.532644
-0.10019
0.48137
0.194809
-0.421489
-0.299963
0.102334
0.31597
-0.123825
-0.0691406
0.0107292
0.296137
-0.285599
0.262884
0.368762
0.123093
-0.188563
0.481917
-0.372982
0.192467
0.210388
0.220367
-0.138478
0.0896332
0.441809
-0.0211866
-0.03141
-0.261241
-0.535033
-0.420779
0.00443101
-0.345434
-0.255422
0.350559
-0.10782
0.31743
0.326225
0.413177
0.203486
0.327144
-0.739674
0.429253
0.61901
0.322
-0.516154
0.171814
-0.219425
-0.362942
-0.100192
0.194612
-0.263636
-0.563335
0.830276
-0.566147
0.503014
-0.639673
-0.154259
-0.00315389
-0.685
-0.0719217
0.597305
-0.0476219
0.329913
-0.746701
0.673244
-0.323929
0.192435
-0.313543
0.345909
-0.485109
-0.210274
0.950022
0.0455077
-0.45739
0.116941
-0.276038
-0.118895
-0.267633
-0.0265607
-0.371992
-0.434193
0.256642
-0.199307
0.335945
-0.477201
0.155403
-0.491919
-0.38444
0.489693
0.591659
-0.142276
-0.696743
-0.289882
-0.249978
-0.0303071
-0.0100365
0.152096
0.701218
0.412374
-0.289826
0.679896
-0.140076
-0.229676
0.653204
-0.502761
0.0303984
-0.110092
0.430472
-0.252354
-0.405949
-0.537309
-0.056074
-0.335174
0.0803696
0.199828
0.299157
-0.508539
0.306759
-0.262558
0.348742
-0.0115527
0.188961
0.423918
0.24267
1.43132
-0.126265
0.0623117
-0.564351
-0.126302
-0.817035
0.664682
-0.347184
0.886125
0.316895
-0.093587
0.012946
-0.613803
0.0840445
0.236845
-0.109635
-0.545571
0.417831
0.655698
0.375019
-0.453587
-0.000801599
0.0117943
0.426282
0.473867
-0.206838
-0.243208
-0.259725
0.845024
-0.591568
0.00170858
-0.677718
-0.441431
-0.471602
-0.323789
0.422116
0.392869
-0.407736
0.157081
-0.545044
0.574759
0.154456
-0.695929
0.0294508
0.491588
0.0704679
0.0950804
0.680166
0.475404
-0.236577
-0.027558
0.19458
1.08468
0.71043
-0.234022
-0.909299
0.152821
0.349185
0.355703
-0.272536
-0.869425
0.0285186
-0.101915
-0.159753
-0.06362
0.241705
0.835783
-0.399601
-0.0941409
-0.274898
-0.415421
-0.614311
0.044527
0.142386
0.460217
-0.651084
-0.131347
-0.568703
-0.0444822
0.134374
-0.619171
0.798918
-0.400248
0.132464
-0.0728516
-0.00402554
0.223758
0.13857
0.163055
-0.642634
0.713969
-0.154027
-0.0413967
-0.170891
-0.557773
0.492758
0.342789
0.718759
-0.103988
-0.529986
0.523839
-0.0981624
0.0532124
-0.229693
-0.165464
0.747305
0.368254
0.365064
1.53816
-0.148623
0.311387
0.487271
0.916455
0.0736219
-0.510666
0.473749
-0.548118
0.605965
0.436878
0.460875
-0.176425
-0.226988
-0.0586143
0.580006
0.0368112
0.164416
-0.246918
-0.469522
0.129613
-1.31519
-0.884634
-0.403355
0.232882
-0.238582
-0.106907
1.2881
-0.150777
0.110525
-0.603308
-0.46574
0.0019269
0.335825
-0.860035
-0.268487
0.523225
-0.781041
0.393214
0.682134
-0.603287
-0.180073
-0.905728
-0.356849
0.668184
0.777891
-0.184181
-0.272485
0.418092
0.287189
-0.775572
0.193081
0.228472
0.481109
0.0270373
-0.295316
-0.143356
0.981504
-0.0506959
-0.72556
-0.356547
-0.0398607
0.270112
0.0495465
-0.480618
1.02747
0.0447647
0.138367
0.390515
0.611609
-0.552201
-0.285752
-0.4327
0.796993
-0.176315
0.754882
-0.20781
0.192095
0.0414211
-0.436569
-0.441685
-0.73261
0.468709
0.0895824
-0.341811
-0.141156
-0.610273
0.0805137
-0.989571
0.70781
0.788765
0.260939
0.220076
0.0702744
-0.272485
0.332383
-0.269267
-0.183837
-0.638809
-0.0791477
1.1548
-0.486473
0.129265
-0.383212
-0.731009
0.152532
-1.07787
0.16211
-0.194795
-0.371872
-0.156492
-0.202954
0.123499
-0.925541
-0.299515
0.017528
0.124042
0.675713
0.11453
0.695636
0.337919
-0.240194
-1.21115
0.861682
0.45507
0.111453
0.273664
-0.710595
-0.283299
0.391047
-0.782084
0.187532
-0.338505
0.3546
-1.33768
-1.04779
-0.857285
-1.03407
-1.32309
0.382179
-0.775888
0.283614
-0.56503
-0.395672
0.570666
0.445067
-0.0216278
-0.0832164
0.209971
-0.654433
0.372077
-0.244377
-0.678516
0.0738154
-0.154011
-0.0361787
0.953843
0.56146
-0.353755
-0.442326
-0.0847402
0.872827
0.125313
-0.593242
-0.218304
1.0538
-0.0822789
0.564475
-0.000823646
-0.0964797
0.431524
0.22379
-0.798656
0.32678
0.177032
-0.0244283
-0.27885
-0.812663
0.136401
-0.0724974
-0.714273
-0.947283
-1.0644
0.3553
-0.820969
-0.533038
-0.143186
0.234996
0.701722
0.858083
-0.0274043
0.5373
0.067342
0.0735224
-0.480491
-0.076959
-0.2866
-0.0678617
0.228728
0.0486565
-0.252955
-0.611887
0.309698
-0.97114
-0.253146
-0.0307152
-0.806364
0.541374
0.262807
0.00292328
0.452921
-0.0795349
0.0115804
0.581031
-0.231286
-0.367768
-0.838131
0.95101
-0.384865
0.146413
-0.129542
0.456986
-0.665705
0.21834
-1.24515
-0.00640131
0.0461417
0.187627
-0.415511
0.126472
-0.231904
0.0137131
0.0672017
-0.00911011
0.542338
-0.0313526
-2.14962
-0.792708
-1.22706
-0.29225
-0.0506074
0.244868
0.0181966
0.035518
-0.0667902
-0.616294
0.0252491
0.477807
-0.208508
-0.737497
0.664915
0.462208
0.482247
0.65917
-0.730903
-0.184386
0.432674
0.774415
-0.363909
0.375242
0.329976
-0.515708
0.974905
0.0241822
-0.227776
0.17713
0.193064
-0.246319
-0.728115
0.0614584
0.339402
0.0851904
-0.851828
-0.196585
0.412302
-0.00433314
-0.809868
0.411465
-0.584954
1.15306
0.219103
-0.837316
-0.94738
-0.0916218
-0.85182
0.0302424
-0.361472
0.820182
0.639974
-0.00849813
0.14959
1.01607
-0.0818393
-0.559437
-0.685865
0.716416
0.135788
0.175168
0.857961
-0.00286063
0.816283
-0.930304
-0.0530498
-1.13987
0.0245668
-0.880168
-0.864301
-0.433144
0.739386
0.18231
0.581005
-0.807645
-0.30928
0.712503
-0.185511
-0.0505854
-1.30974
0.513797
-0.697776
-0.242933
-0.681679
-0.520862
-0.0861348
0.593343
-0.606966
0.0892088
-0.368652
-0.116535
0.852787
0.69899
0.679401
-0.246262
0.291634
0.064938
0.516302
-0.633741
-2.31779
-1.0833
-0.150029
0.114182
-0.165396
-0.10095
0.775093
0.097316
0.0929451
-0.115118
-0.068757
0.117258
0.265656
-0.242157
1.6643
-0.0908513
0.475851
0.892764
-0.0712082
-0.418618
0.454139
-0.300535
0.115001
0.13833
-0.0346644
-0.795126
0.471162
1.12483
0.22946
0.248683
-0.208618
-0.218899
-2.02818
0.170704
-0.166547
-0.305653
-1.19641
0.955841
0.131322
0.427835
-0.295853
0.631389
-0.279101
-0.519875
-0.297822
-0.220623
-1.20359
-0.348937
0.201083
-0.0870214
-0.149163
0.644961
0.25277
-1.08568
0.0986701
0.166398
-0.418762
0.577783
0.663992
0.531892
1.22617
-0.507609
0.947378
0.541943
0.945712
-0.139796
0.195151
-0.288209
-0.240181
-1.04964
-0.185049
-0.443647
-0.51062
0.481568
-0.24411
-0.334012
-1.10933
0.406947
-0.210056
-0.685731
0.248589
0.478508
-0.362893
0.193811
-0.056218
-0.255344
-0.558711
0.0528746
0.183322
-0.531654
-0.624363
0.267086
-0.330904
-0.131179
-0.0642174
0.47094
-0.136303
-0.660101
-0.739322
-0.488795
-0.503128
-0.661491
0.414553
-0.421128
0.310025
-0.7355
0.159508
-0.179271
0.141813
-0.76522
-0.639098
-0.315868
-0.429492
0.260716
0.40461
-0.723785
-0.347163
0.539643
-0.103506
-0.338566
0.0704968
0.517947
-0.0691238
-0.351618
0.0535894
-1.29781
0.0906806
-0.157081
0.232503
0.654428
-0.0516265
-0.00925642
-0.726795
-0.575136
0.412236
0.180726
-0.473338
0.800475
-0.16314
0.221669
-0.59349
0.763957
0.538085
-0.172855
-0.0545687
-0.394706
0.00409155
-0.36685
-0.188498
-0.189254
-0.445196
0.599429
-0.252597
-0.551836
0.0781261
-0.835323
-0.434623
-0.194096
0.668698
0.205794
0.486466
-0.166837
0.52581
0.311593
1.02896
-0.897119
0.10369
0.668291
0.0994287
-0.608843
0.0380904
-0.22576
0.353803
-0.226472
0.131406
-0.834609
-0.606017
0.387503
0.319018
-0.576891
0.543841
-0.953253
0.126919
0.15633
0.210521
-1.17365
-0.00493473
-0.811116
-0.0149003
0.00543793
-0.778511
0.0599662
0.238511
-0.151025
-0.438697
0.658648
0.123787
-0.172555
-1.11131
-0.272554
0.0254488
-0.474761
0.268454
-0.341726
-0.0247608
-0.176267
0.158619
-0.139085
0.298578
-0.263418
-0.411023
-0.746386
0.198444
0.153762
0.854074
-0.502747
-0.680871
-0.225712
-0.398356
0.452496
-0.250005
1.22576
-0.356463
-0.905461
-0.240543
-0.500203
-0.176749
0.192213
-0.00738995
0.128278
-0.487255
0.776065
0.255768
-0.917313
-0.151747
0.01197
-0.91377
0.512409
-0.809102
0.513823
0.126389
0.397963
0.428907
-0.881289
0.111282
0.0101036
-0.246133
-0.248494
-0.314719
-0.494269
-0.592987
-0.44117
0.0352191
-0.874155
0.414
-0.143281
-0.240116
0.767157
0.0491418
-0.0308104
0.354468
0.266692
0.619922
0.798812
0.825565
0.339383
0.504043
0.931263
-0.0905675
-0.481683
0.361522
0.0947957
-0.0919544
-0.22123
0.671093
-0.131921
-0.403812
0.302101
0.354334
-0.531803
-0.641579
-0.431251
0.113661
-0.627749
-0.143814
-0.761472
0.134042
-0.315003
0.375679
-0.340002
-0.0434963
-0.0652338
0.137396
0.330972
-0.543731
0.521623
-0.440435
-0.640188
-0.0974258
-0.200221
0.328232
-0.118001
0.372944
0.144242
-0.622632
-0.35455
-0.189743
0.0556823
0.634715
0.142003
-0.39793
0.152074
0.18472
-0.0182762
-0.129994
-0.31205
-0.644826
-0.644931
-0.104033
0.441147
0.247883
0.659486
-0.483509
-0.246912
-1.3037
-0.0788719
0.185627
-0.134006
-0.069148
0.413301
0.0995634
-0.0173086
0.455807
-0.689537
-0.220847
0.363337
-0.645891
0.87257
0.231769
-0.3692
0.598749
0.0890517
-0.513805
0.0419135
-0.160641
-0.22116
-0.0457472
0.208428
0.221863
0.642357
-1.07222
0.408393
-0.616351
-0.00299029
-0.189633
-0.231696
-0.359013
-0.188329
0.178371
-0.0421954
-0.506841
-0.16089
0.463911
0.474304
0.368552
0.202787
-0.297928
0.936502
0.0706984
-0.576813
0.292368
0.387999
-0.079991
0.158763
0.352122
0.476983
-0.168933
0.783279
0.210938
-0.373523
0.0292825
-0.402338
0.121939
-0.305034
-0.21166
0.0636368
0.114562
-0.663022
-0.608294
-0.917988
-0.00118667
-0.405116
-0.280703
0.268118
0.106689
-0.0238909
0.11184
0.155893
-0.619986
0.406784
0.808482
0.465598
-0.185454
0.0132819
0.307786
-0.0844915
-0.56353
-0.0688259
-0.234686
0.420489
-0.257072
0.127018
0.338933
0.152021
0.00544043
-0.161766
-0.0594597
-0.0796825
-0.522641
-0.520963
-0.092389
0.0124706
0.440242
-0.230325
-0.534902
-0.467423
0.264853
0.16045
-0.181193
0.547511
0.29897
-0.192019
0.0911176
-0.939181
0.0636688
0.561483
-0.156565
-0.247647
-0.378864
-0.47996
0.00485371
0.0406715
-0.429335
-0.0408377
0.24569
-0.349535
0.375108
-0.215159
-0.0465902
-0.236559
-0.245334
0.272072
-0.310841
-0.204811
-0.398895
-0.348632
-0.276795
0.508513
-0.389105
-0.704899
0.157261
0.458149
-0.295424
0.258825
0.349685
-0.0360874
0.467928
0.298341
-0.0213665
-0.511687
-0.398241
-0.0116452
0.204039
0.294661
0.176615
0.29169
-0.546599
0.371764
-0.11771
0.16524
-0.623693
-0.644181
0.997883
0.167006
-0.394732
-0.711327
-0.283748
-0.301889
0.134506
0.161916
-0.57861
-0.236951
0.0460301
-0.149063
0.165524
-0.213667
-0.15653
0.400136
-0.530555
-0.057777
0.521591
0.311788
0.280836
0.388341
0.0248052
-0.166091
0.264653
0.0330376
-0.396176
0.0249527
-0.0336838
0.363363
-0.0761225
0.313949
0.375027
-0.181502
-0.1307
0.448108
0.0241779
0.186155
0.00209365
-0.0922773
-0.481916
-0.46303
-0.122842
-0.478415
0.361209
-0.348262
0.365128
-0.252989
0.606564
-0.566158
0.323357
0.0204957
-0.412821
0.170592
-0.157878
-0.402743
0.288863
-0.738976
-0.235756
0.304461
-0.26917
-0.0185493
-0.0585603
0.222705
0.352926
0.0515211
-0.0767003
0.309584
0.265101
-0.096823
0.175247
-0.264374
0.325753
-0.570615
-0.520473
-0.0487465
-0.214981
0.13556
-0.0906141
0.0895743
-0.00167078
0.153838
-0.0786509
0.520849
-0.132259
0.407293
0.413796
-0.476863
-0.227459
0.190136
0.348791
0.199416
-0.0498284
0.453076
0.3219
0.549561
0.0466637
0.148909
-0.218608
0.26187
0.0831715
-0.344361
-0.212026
0.232434
-0.156641
-0.0472222
0.465814
0.463122
0.42757
-0.266566
-0.0693531
0.134713
-0.37166
-0.480795
0.379338
0.313138
-0.511641
0.41272
0.407108
-0.483465
0.144029
0.313176
-0.233216
0.568173
-0.264372
-0.233145
0.457055
-0.5573
0.0890029
0.0778217
0.262213
-0.12433
0.303261
-0.0095898
-0.0556012
-0.252239
-0.218107
0.193817
-0.234609
-0.0120888
-0.39316
-0.454524
0.19193
-0.499386
-0.247843
0.210612
0.433173
0.523001
0.181939
-0.458539
0.511611
0.0497369
-0.0107025
0.200547
-0.12625
-0.0210583
0.0353343
-0.200188
-0.511599
0.306483
0.232567
-0.262367
-0.465555
-0.187795
0.563345
-0.437653
0.190403
-0.0641262
0.227114
0.5066
0.0129323
-0.0333672
0.318478
-0.563343
0.332917
0.11679
0.354906
-0.342101
-0.569188
-0.454592
-0.440367
0.432776
0.135719
0.0983921
0.258685
0.101846
0.395162
0.162113
-0.319528
-0.40502
-0.324607
0.0718304
0.302752
-0.121029
0.237387
-0.468295
0.306093
0.264547
0.618602
0.467843
0.209828
0.315374
0.269292
-0.456115
0.105673
-0.154826
0.0991778
-0.251287
-0.014637
-0.0874833
-0.641646
0.0287427
-0.0886682
-0.376021
-0.471734
0.517416
-0.446023
-0.38186
0.0682563
0.423834
0.241875
-0.250915
0.0158128
0.34005
-0.264804
-0.521973
0.158029
-0.685922
0.0582097
-0.317083
-0.134745
-0.0136699
-0.189722
0.307235
-0.509917
-0.264982
0.375515
0.00747062
0.105148
0.000978858
0.437969
0.237599
-0.622384
0.489704
0.195471
-0.362196
-0.483701
-0.122362
0.42118
-0.248837
0.210149
-0.355355
-0.208986
-0.137315
0.410597
-0.310749
-0.262757
-0.497762
-0.0366081
-0.140568
0.0550923
0.526366
-0.344912
0.197783
0.152989
0.104587
0.356537
-0.356044
0.485312
-0.477368
-0.392902
-0.33333
0.2185
-0.567198
-0.267776
-0.464083
-0.4447
-0.252486
0.416321
0.446857
0.0806271
-0.550465
-0.384928
-0.201551
0.458684
-0.307827
-0.0549197
-0.0319728
0.180427
-0.244046
0.0781917
-0.183842
0.306836
0.0287305
-0.460103
-0.569456
-0.431124
-0.143471
-0.382048
0.468483
-0.288562
-0.385757
0.469245
-0.459031
0.204402
-0.0568792
0.399154
0.581121
-0.014642
0.418558
-0.598138
-0.185643
0.220287
0.154174
0.428266
-0.184766
0.0788035
0.411845
-0.429325
0.321529
-0.158428
0.0386716
0.0245925
0.139518
0.0353617
-0.164301
-0.44073
-0.680108
0.0573834
-0.0804415
-0.235554
-0.103672
0.0913457
-0.360359
0.188641
0.135008
-0.536246
-0.242769
0.447215
0.224973
0.34198
0.217146
0.277608
-0.488074
-0.42008
0.310124
0.216267
-0.0743491
-0.479342
0.295373
0.109143
-0.248487
0.391015
-0.0209245
0.110263
0.489172
-0.072063
0.536702
-0.453382
0.486934
0.37057
0.127698
-0.142105
-0.302245
-0.344189
-0.0990343
0.470268
0.345774
-0.505047
0.122735
-0.0928024
0.273151
0.125069
-0.152305
-0.380525
-0.564021
0.335414
-0.0289315
0.186457
0.146929
0.270722
-0.0603281
0.184244
-0.5087
0.359139
-0.23918
0.454303
-0.00992345
-0.322515
-0.135649
0.251677
-0.0825543
0.070501
0.0447341
0.251254
-0.552311
-0.363348
-0.234607
0.384486
-0.420349
-0.00538606
-0.475543
-0.0273056
0.321892
0.342856
-0.445236
-0.289204
-0.398738
-0.310399
0.228427
-0.702487
-0.670059
-0.387674
-0.153803
-0.362821
0.318088
-0.0972947
0.311784
0.361527
0.543639
-0.161205
0.463122
0.0261608
-0.143009
0.0236177
-0.499895
-0.126619
-0.155762
-0.538931
-0.404446
0.46751
-0.301397
0.0918336
-0.436988
0.0617699
0.123782
0.337815
0.267349
-0.452635
0.24937
-0.147251
0.20159
0.286216
-0.479201
0.496348
0.100088
0.314725
-0.275471
-0.191007
-0.00933202
-0.00594409
-0.248227
0.0908454
-0.289942
0.49877
-0.395421
-0.17559
0.4544
-0.0563628
0.0234129
0.259685
-0.158601
-0.233357
0.390734
0.546174
-0.207878
0.278526
0.23406
-0.290987
-0.0582363
-0.485413
0.252811
0.506277
-0.269457
0.173514
0.0500409
0.382086
0.612324
-0.664591
0.492027
0.228579
-0.0844371
0.25335
0.41283
-0.252635
-0.462865
-0.145399
0.435137
0.317822
0.0562706
-0.00822638
-0.236542
0.061193
0.401838
-0.0760652
0.533417
0.435042
0.309878
-0.00641521
-0.332028
0.263393
-0.0127663
-0.00568624
-0.337938
-0.539323
0.494972
-0.579724
0.245583
-0.0514364
-0.39566
-0.27926
-0.274802
0.34858
-0.604281
-0.226451
-0.493009
0.58054
0.463281
-0.248494
-0.50623
-0.450782
0.453044
-0.248705
0.491239
0.282996
-0.321159
0.661477
0.08593
0.0378254
0.241602
-0.481578
-0.610492
-0.199175
0.221215
-0.438547
0.205863
-0.477816
-0.205238
-0.603205
0.186923
-0.0716153
0.107987
0.319942
0.345129
0.154596
0.211157
0.0191701
0.451633
-0.279654
-0.00603026
-0.0828905
-0.378355
-0.410626
-0.485027
-0.165447
-0.0830391
-0.177677
-0.0584426
-0.478943
0.313764
0.308172
0.213418
-0.0838292
-0.252043
0.261899
0.280577
-0.119286
0.427627
0.375316
0.33902
0.282523
-0.409303
0.37215
0.488177
-0.276386
-0.540889
-0.546376
-0.439408
-0.300164
0.276477
-0.537911
0.121794
-0.436618
-0.0711004
0.16103
0.0573606
-0.33115
0.465402
0.097959
0.418889
-0.127689
-0.607939
0.968595
0.450737
-0.272542
0.831153
-0.389009
-0.153469
-0.751786
-0.370031
-0.0304718
0.0673717
0.429283
0.154195
0.138548
0.0966966
0.289603
-0.129485
-0.301801
0.11666
0.0653303
-0.179459
0.240305
0.0179766
0.0986483
-0.55336
-0.300597
-0.605121
0.355682
-0.339072
-0.292772
0.244308
0.104438
0.0348186
-0.27665
0.00146387
0.343444
0.253314
0.458435
0.104596
0.0105104
0.695813
0.5217
-0.155321
-1.02645
0.267709
-0.117289
-0.137904
-0.255681
0.0170876
-0.205275
0.191606
0.389541
-0.0668821
0.14524
-0.337794
0.430751
-0.128726
-0.248775
-0.670391
-0.276026
0.19596
-0.409145
0.634843
-0.172212
-0.0343478
-0.01593
0.330603
-0.166768
0.0247723
-0.160788
0.400246
0.342403
-0.0823796
-0.445333
-0.32182
0.0971211
0.377216
0.428518
-0.180578
-0.276258
-0.266977
0.0429486
-0.122109
-0.940341
-0.14814
0.125667
0.154287
-0.330749
0.511135
-0.3184
-0.0539755
-1.53883
0.431694
0.0314978
-0.70866
-0.692355
0.147516
0.354324
0.608647
-0.633442
-0.409992
0.803483
-0.105863
-0.470838
0.667079
-0.592395
0.890183
0.0934134
0.353388
0.0284814
0.557129
0.390984
0.0283436
-0.156876
0.529744
-0.267827
0.162133
0.252806
0.232067
0.392172
-0.278595
-0.509623
-0.596317
-0.262047
0.411832
-0.539259
-0.363294
-0.125307
0.126424
0.0687379
0.117081
0.488067
-0.504506
-0.137942
-0.511838
0.89089
0.760335
0.169395
-0.756277
-0.328777
0.832808
-0.371843
0.167283
-0.708026
0.313278
0.235073
0.149017
-0.187409
-0.371677
0.24291
-0.800821
-0.323185
0.537088
-0.600553
0.125061
0.474357
-0.14791
0.113619
-0.678676
-0.170037
-0.102437
0.285694
1.29062
0.35359
0.496876
-0.0719635
0.620186
-0.638873
0.472697
-0.00163471
0.393635
-0.0605942
0.121465
-0.0314895
-0.205161
0.157823
0.169196
0.521476
0.342468
0.324164
0.0441601
0.231313
-0.415859
0.661316
0.0643915
0.324775
0.392066
0.213136
0.247214
-0.654655
0.112802
-0.864774
-0.103732
0.428217
-0.0656954
0.768661
0.323917
0.689701
0.485764
-0.87827
-0.193586
1.26911
-0.0814523
-0.426316
0.0782538
-1.53573
0.113316
0.207754
0.579968
0.360132
-0.0173905
0.187345
-0.282401
-0.159841
0.18204
0.614012
-0.159509
0.076568
0.861482
-0.0788617
0.459942
-0.279601
-0.417328
0.47286
-0.386592
-0.986572
-0.200391
0.67219
-0.102459
-0.10315
1.03086
0.286131
-0.642402
-0.332954
-0.765274
-0.14618
0.384824
0.500119
0.070289
0.235375
0.442121
-0.0123732
-0.381222
-0.261271
0.172896
0.553794
-0.283463
-0.264949
-0.33714
0.0447665
-0.356656
0.271179
0.148217
-0.623666
0.594039
-0.209293
-0.229583
0.248247
-0.391748
-0.421473
0.112597
-0.517413
1.29936
-0.549462
0.170766
-0.340052
0.882416
-0.355247
0.497896
-0.158653
-0.147353
-0.391373
-0.634833
0.369692
0.614886
0.560764
-0.471405
0.510088
0.0411283
-0.359454
-0.272943
0.0297116
0.0251236
0.668964
-0.866935
0.218326
-0.00391436
-0.0826518
0.143466
-1.05382
0.537427
-0.551742
-0.39888
-0.559603
-0.852447
-0.0723588
0.14722
0.959342
0.66372
0.0882424
-0.88825
1.49722
0.480267
0.689484
-0.831493
-0.42542
0.925892
0.43461
0.00261712
0.459506
0.923635
-0.470502
0.0449665
-0.232109
0.585475
0.616416
0.11033
0.550107
-0.642683
-0.811505
1.14899
-0.780581
0.41798
-0.982809
-0.563972
-1.1415
-0.0883687
0.758183
0.0105636
-0.691522
-0.00886597
-0.471017
-0.44476
-0.0219641
-0.505588
-0.314898
0.0486002
-0.494504
-0.0886854
-0.388382
-0.127428
0.471659
0.410476
0.0148918
0.0101956
0.668391
0.0669495
-0.489104
-1.0003
-0.121168
-0.246002
0.685396
0.910068
-0.0273307
0.775193
-0.656763
-0.122023
-0.295415
-0.516206
0.015962
-0.652836
-0.459393
1.6042
-0.0505643
0.590456
-0.853673
0.457758
-0.0581644
0.615348
-0.676284
0.221546
-0.043054
-0.0256202
0.0126929
-0.394205
0.66133
0.16348
0.903344
-0.487357
0.451446
-0.208105
0.242644
1.31069
-0.8221
-0.414137
-0.263162
-1.46202
-0.342821
-0.536578
-0.284895
0.862781
1.11823
0.253793
-0.661546
-1.38573
-0.578575
-0.133819
2.26257
0.60312
0.906743
-0.272634
-0.228922
-0.602063
-0.043838
-0.835638
-0.187547
0.265184
-1.12914
0.0763676
1.02641
0.16723
-0.565776
-0.676847
0.428291
0.251582
-1.05925
0.25628
0.564261
-0.138989
-0.477749
-0.804877
-0.556682
-0.113721
0.311892
-0.364282
0.610208
0.439853
1.59358
-0.567868
-0.749618
0.482524
0.512319
-0.231422
0.986856
0.224261
0.454188
0.0513273
-0.473254
0.333234
-0.295071
-1.31054
-0.201879
0.71
0.19036
0.654133
-0.148421
0.301649
0.199669
0.497513
-0.891576
-0.112332
0.284922
0.716415
-0.00359448
-0.0856225
0.35194
0.204504
1.21554
-0.83668
-0.26496
-0.882969
-0.0596907
0.327852
-0.758994
0.531165
0.223043
0.710839
-0.263818
-0.326343
-0.22882
-0.136449
-0.388721
0.194744
0.6794
-0.381515
0.0713731
-0.135027
0.531338
-0.686815
0.246565
-0.557492
0.345822
2.67845
-1.11895
-0.306648
0.277814
-1.22078
0.424363
-0.99751
0.185097
-0.631251
0.873939
-1.24164
-0.603297
-0.199004
0.329093
-0.693053
1.33237
-0.806851
1.23467
-0.154399
0.207289
-0.705303
-0.579625
-0.592053
-0.0613537
-0.130026
-0.214171
0.645484
0.537741
-0.727472
-0.304651
-0.422315
0.443446
-0.558862
-0.39273
-0.607945
-0.842933
-0.875565
1.04035
-0.945071
0.365653
-0.547114
0.0206528
-0.457464
1.08841
0.543094
-0.195685
-0.609022
-0.349459
0.222065
-0.00914317
0.18246
0.460812
0.44403
0.0285809
0.699565
-0.61522
1.12655
-0.845956
-0.218879
-0.268734
0.920913
1.33364
-0.00712561
-0.514226
0.0613408
-0.750057
0.447056
-0.297008
0.00997356
-0.498595
0.140605
-0.477484
0.118615
0.548893
0.466739
1.63693
0.459196
-0.880748
-1.41555
-0.217162
1.98063
-0.509812
0.998995
-0.0636997
-1.52927
-0.947974
0.571267
0.0482019
0.0195863
0.289927
-0.0903318
-0.674877
-0.839521
0.0835005
0.276239
-0.120109
0.831319
-0.529964
-0.623591
0.319328
0.826863
-0.296725
0.574913
0.34199
0.110936
2.08198
-0.582346
0.921392
1.03452
0.320003
-0.364129
-0.410083
0.00489779
0.0285067
-0.77447
1.10891
-1.08378
0.453258
0.88515
0.550992
0.886426
-1.23645
-0.624709
0.244962
-0.611466
-0.384218
0.324533
1.0075
-0.0723131
-1.19718
-0.833366
0.822436
-0.227016
0.0668467
-0.289721
-0.511303
-1.00917
0.438668
-1.04583
-0.134898
-0.239049
-0.493083
-0.579604
0.544706
-0.0868004
0.344097
-0.187329
0.324878
-0.0762013
0.219759
-0.306945
0.0605311
-0.535003
-0.651769
0.580608
-0.0733101
0.333867
-0.765523
1.03953
-0.174816
0.318856
0.249337
-0.47389
0.38912
0.504006
-0.102683
1.61673
-1.30942
-0.933377
0.360734
-0.799008
0.159862
-0.118312
0.310326
0.227552
0.564931
0.0539271
0.11881
-1.3883
-0.417368
2.17556
-0.607297
0.976718
-0.703015
-1.81281
-0.524544
0.342513
0.725402
-0.887159
-0.0911645
0.24432
-0.661415
-0.722204
-0.0381241
0.03268
1.31565
0.621033
0.326469
-0.940473
0.269099
0.137343
-0.654329
-0.0510942
0.139426
-0.46286
0.729387
-0.647523
0.158001
0.0697873
0.93639
0.164549
-0.427632
0.285473
0.559354
-0.119475
1.0285
-0.080525
-0.523307
1.14343
0.968047
-0.47503
-1.20542
-0.159173
0.410199
-0.559599
-0.666728
0.429285
0.313936
0.185044
-0.481583
-0.463925
-0.295618
-0.2554
-0.1891
-0.595388
-0.43231
-0.629556
0.295648
0.151111
-0.379232
0.492365
0.160177
0.164636
-0.253524
0.148041
0.15084
0.24992
0.320627
-0.237139
0.349882
-0.352506
0.613824
-0.121222
0.240114
0.752561
-0.145459
-0.42491
-0.364397
0.673362
0.145119
-0.463456
0.118717
-0.413267
0.0918483
0.925792
-1.08499
1.98734
-0.677189
-0.257155
-0.147278
-0.662282
0.0137376
-0.51993
-0.414588
-0.27542
0.6076
0.911582
0.685263
-1.01543
-0.515345
0.991985
-0.506488
0.534324
0.363078
-1.21766
0.240095
0.731637
0.258401
-0.744788
0.062897
-0.162236
0.193265
-0.142368
-0.194703
0.183642
0.00606209
0.598568
0.318448
-0.779986
0.000298495
-0.562649
-0.197156
0.591428
-0.0979115
-0.222092
0.634193
0.0613078
-0.0632815
0.239955
0.12503
0.770474
0.0067011
0.381338
0.473899
-1.07176
0.966312
-0.111153
-0.0652183
0.391687
0.947587
0.490369
-0.0959537
-0.0892608
0.992963
-0.801341
0.33422
0.0122197
-0.40677
0.318815
-0.825736
-0.928486
0.0285137
0.237935
0.372678
0.00141418
0.202344
-0.644508
0.631285
0.277354
-0.0521088
-0.283291
0.248825
0.173844
-0.57093
0.442137
0.411169
0.486994
0.767016
-0.394696
-0.186787
0.220523
0.0734042
-0.312649
0.680973
0.850433
0.469566
-0.539913
0.0282199
0.033834
-0.567931
-0.439352
0.617714
-0.0478533
-0.523407
0.402381
-0.627011
0.819171
-0.0187156
0.402882
-0.335923
-0.937669
0.690935
-0.438271
-0.0697894
0.10578
0.338655
0.20362
1.03003
-0.8859
-0.21162
0.73895
-0.50984
-0.0240803
0.59877
-0.865194
-0.00839698
0.477016
-0.0127364
0.032256
-0.267048
-0.621051
-0.0947036
-0.617396
-0.255196
0.569627
0.504948
-0.407276
-0.54936
0.0611526
-0.353702
0.405411
0.218004
0.968219
-0.585524
0.239139
0.0110924
-0.550817
0.269258
-0.0884198
0.506177
0.451788
0.370704
0.337065
0.0767127
-0.190987
-0.369009
0.603673
-0.238904
0.457389
0.417127
-0.0781549
-0.767035
-0.175931
0.282297
0.113331
-0.309574
-0.209902
0.19957
-0.502513
-0.49244
-0.613429
-0.445286
0.735082
0.466827
-0.464812
-0.535518
-0.497854
-0.161491
0.384176
-0.572706
0.228343
0.144752
0.291651
0.674969
0.341267
-0.274309
0.433039
0.0134966
0.412267
0.445885
0.164347
-0.10827
-0.426246
0.52331
-0.0530581
-0.199462
-0.00479597
-0.268763
-0.279401
0.100594
-0.572041
0.31676
0.0733071
-0.737524
-0.0355371
-0.590573
1.0868
-0.359285
0.279848
-0.607485
-0.134818
0.32811
-0.227615
-0.446686
-0.028372
0.317863
0.122311
0.274552
-0.867308
0.268339
0.681249
0.217449
-0.587737
-0.362861
-1.04446
-0.21227
0.332263
-0.218055
0.345754
0.421253
-0.31189
-0.199944
0.282058
-0.422028
-0.136322
0.146783
0.0960628
0.308242
-0.335062
-0.276981
-0.421091
-0.887763
0.189856
-0.342739
0.306265
-0.162582
-0.192532
0.045594
0.64054
-0.612043
0.444389
-0.607915
0.516281
0.0580281
-0.1191
-0.497901
0.152917
-0.266917
0.760196
0.269224
0.272315
-0.643142
0.1477
-0.132698
0.134724
0.169321
-0.410111
0.365312
0.426444
0.289523
0.189751
0.166001
0.0808769
0.029581
0.744886
-0.258278
-0.154337
-0.411507
0.308489
0.370103
0.340852
-0.313455
-0.185806
0.441942
0.704687
0.25038
-0.135425
-0.37339
-0.254632
0.192605
0.517516
-0.0562075
0.42841
-0.28206
0.632181
-0.458633
0.0621692
-0.0195801
0.245238
0.191026
0.0303259
-0.332327
0.486554
-0.391008
0.445438
0.462084
-0.136777
0.312803
0.216106
-0.114743
-0.229215
0.0371535
0.277776
0.126216
0.186565
-0.140641
-0.203484
-0.23953
-0.530811
0.47321
0.287726
-0.0774975
-0.149532
0.245828
-0.17389
-0.283925
-0.422136
-0.466989
0.218206
-0.0301991
-0.384841
0.227475
-0.040481
-0.233726
0.0266497
0.421802
-0.402626
0.19938
-0.454027
-0.0782053
-0.255881
-0.0401049
-0.347375
-0.220652
0.298546
0.220821
0.21238
0.0128453
0.512633
-0.477947
-0.0571887
-0.55776
0.338664
-0.584436
0.301098
0.0594498
-0.0717044
-0.22332
0.356154
-0.136008
0.0333161
-0.427831
0.545561
0.242324
0.228303
-0.539397
-0.238524
0.067769
0.401246
0.135133
0.40746
0.0514733
0.131653
-0.208282
0.132057
0.00408248
-0.248403
-0.621632
0.239627
-0.275644
0.293915
-0.545321
0.294316
-0.542994
-0.0743111
0.196776
-0.173228
